{"learner":{"attributes":{"best_iteration":"7","best_score":"0.0167303555603694","scikit_learn":"{\"_estimator_type\": \"regressor\"}"},"feature_names":[],"feature_types":[],"gradient_booster":{"model":{"cats":{"enc":[],"feature_segments":[],"sorted_idx":[]},"gbtree_model_param":{"num_parallel_tree":"1","num_trees":"58"},"iteration_indptr":[0,1,2,3,4,5,6,7,8,9,10,11,12,13,14,15,16,17,18,19,20,21,22,23,24,25,26,27,28,29,30,31,32,33,34,35,36,37,38,39,40,41,42,43,44,45,46,47,48,49,50,51,52,53,54,55,56,57,58],"tree_info":[0,0,0,0,0,0,0,0,0,0,0,0,0,0,0,0,0,0,0,0,0,0,0,0,0,0,0,0,0,0,0,0,0,0,0,0,0,0,0,0,0,0,0,0,0,0,0,0,0,0,0,0,0,0,0,0,0,0],"trees":[{"base_weights":[-8.674876E-5,1.1268729E-2,-3.6431002E-4,2.339558E-2,-0E0,-0E0,-1.06939245E-2,2.7233953E-4,-0E0,-0E0,-3.1191175E-5,-4.963268E-6,2.3796467E-5,-0E0,-1.7120171E-4],"categories":[],"categories_nodes":[],"categories_segments":[],"categories_sizes":[],"default_left":[0,0,0,0,0,0,0,0,0,0,0,0,0,0,0],"id":0,"left_children":[1,3,5,7,9,11,13,-1,-1,-1,-1,-1,-1,-1,-1],"loss_changes":[2.753082E-3,4.7860905E-3,4.1294335E-3,1.140146E-3,6.323782E-5,1.3077275E-3,2.5993562E-3,0E0,0E0,0E0,0E0,0E0,0E0,0E0,0E0],"parents":[2147483647,0,0,1,1,2,2,3,3,4,4,5,5,6,6],"right_children":[2,4,6,8,10,12,14,-1,-1,-1,-1,-1,-1,-1,-1],"split_conditions":[-1.9985968E0,6.896619E-1,2.068523E0,2.7209578E0,-1.4455868E-1,6.1406475E-1,8.3611655E-1,2.7233953E-4,-0E0,-0E0,-3.1191175E-5,-4.963268E-6,2.3796467E-5,-0E0,-1.7120171E-4],"split_indices":[39,15,42,17,5,42,5,0,0,0,0,0,0,0,0],"split_type":[0,0,0,0,0,0,0,0,0,0,0,0,0,0,0],"sum_hessian":[1.216E3,1.9E1,1.197E3,1.2E1,7E0,1.161E3,3.6E1,1E1,2E0,2E0,5E0,9.74E2,1.87E2,1.4E1,2.2E1],"tree_param":{"num_deleted":"0","num_feature":"51","num_nodes":"15","size_leaf_vector":"1"}},{"base_weights":[1.5712233E-4,6.60028E-3,-2.087018E-4,3.532743E-4,2.7670998E-2,-0E0,-1.2080783E-2,3.9380564E-5,-0E0,-0E0,3.035047E-4,-8.953842E-6,1.3961977E-5,-0E0,-3.5228833E-4],"categories":[],"categories_nodes":[],"categories_segments":[],"categories_sizes":[],"default_left":[0,0,0,0,0,0,0,0,0,0,0,0,0,0,0],"id":1,"left_children":[1,3,5,7,9,11,13,-1,-1,-1,-1,-1,-1,-1,-1],"loss_changes":[3.4826624E-3,7.6474063E-3,3.6724955E-3,4.026703E-4,1.3331193E-3,1.4178309E-3,8.068568E-3,0E0,0E0,0E0,0E0,0E0,0E0,0E0,0E0],"parents":[2147483647,0,0,1,1,2,2,3,3,4,4,5,5,6,6],"right_children":[2,4,6,8,10,12,14,-1,-1,-1,-1,-1,-1,-1,-1],"split_conditions":[-1.5412358E0,2.3912878E0,2.962479E0,8.071806E-1,-2.4648526E0,1.8184549E-1,5.780163E-1,3.9380564E-5,-0E0,-0E0,3.035047E-4,-8.953842E-6,1.3961977E-5,-0E0,-3.5228833E-4],"split_indices":[15,34,42,16,12,14,7,0,0,0,0,0,0,0,0],"split_type":[0,0,0,0,0,0,0,0,0,0,0,0,0,0,0],"sum_hessian":[1.204E3,7.8E1,1.126E3,6.5E1,1.3E1,1.102E3,2.4E1,2.5E1,4E1,1E0,1.2E1,6.4E2,4.62E2,1.6E1,8E0],"tree_param":{"num_deleted":"0","num_feature":"51","num_nodes":"15","size_leaf_vector":"1"}},{"base_weights":[-1.0125293E-4,7.8245085E-3,-6.853898E-4,4.5143845E-4,3.0576948E-3,-1.9805058E-4,-1.1288863E-2,-0E0,1.366708E-4,-5.138725E-6,9.467473E-5,-3.108206E-4,-0E0],"categories":[],"categories_nodes":[],"categories_segments":[],"categories_sizes":[],"default_left":[0,0,0,0,0,0,0,0,0,0,0,0,0],"id":2,"left_children":[1,3,5,-1,7,9,11,-1,-1,-1,-1,-1,-1],"loss_changes":[4.8336033E-3,7.514342E-3,4.674298E-3,0E0,2.8338563E-3,2.4346756E-3,9.813208E-3,0E0,0E0,0E0,0E0,0E0,0E0],"parents":[2147483647,0,0,1,1,2,2,4,4,5,5,6,6],"right_children":[2,4,6,-1,8,10,12,-1,-1,-1,-1,-1,-1],"split_conditions":[-1.5698452E0,-2.7429338E0,3.066867E0,4.5143845E-4,1.774167E0,1.4824069E0,-8.360216E-1,-0E0,1.366708E-4,-5.138725E-6,9.467473E-5,-3.108206E-4,-0E0],"split_indices":[13,38,41,0,39,44,26,0,0,0,0,0,0],"split_type":[0,0,0,0,0,0,0,0,0,0,0,0,0],"sum_hessian":[1.195E3,6.9E1,1.126E3,4E0,6.5E1,1.087E3,3.9E1,4.8E1,1.7E1,1.064E3,2.3E1,1.4E1,2.5E1],"tree_param":{"num_deleted":"0","num_feature":"51","num_nodes":"13","size_leaf_vector":"1"}},{"base_weights":[-0E0,-1.3890856E-2,2.2132586E-4,7.4224025E-3,-3.8381264E-2,2.076569E-2,-0E0,1.3876827E-4,-0E0,-0E0,-5.594988E-4,3.9126686E-4,-0E0,1.2605979E-5,-8.941898E-6],"categories":[],"categories_nodes":[],"categories_segments":[],"categories_sizes":[],"default_left":[0,0,0,0,0,0,0,0,0,0,0,0,0,0,0],"id":3,"left_children":[1,3,5,7,9,11,13,-1,-1,-1,-1,-1,-1,-1,-1],"loss_changes":[3.821789E-3,1.3701629E-2,7.0558796E-3,9.2087284E-4,6.537024E-3,7.4284975E-3,1.3182722E-3,0E0,0E0,0E0,0E0,0E0,0E0,0E0,0E0],"parents":[2147483647,0,0,1,1,2,2,3,3,4,4,5,5,6,6],"right_children":[2,4,6,8,10,12,14,-1,-1,-1,-1,-1,-1,-1,-1],"split_conditions":[-2.227145E0,-1.4890193E0,-2.0648093E0,-9.8150253E-1,2.3014323E-1,-4.2405263E-1,8.8011944E-1,1.3876827E-4,-0E0,-0E0,-5.594988E-4,3.9126686E-4,-0E0,1.2605979E-5,-8.941898E-6],"split_indices":[19,44,38,0,10,14,32,0,0,0,0,0,0,0,0],"split_type":[0,0,0,0,0,0,0,0,0,0,0,0,0,0,0],"sum_hessian":[1.224E3,1.8E1,1.206E3,8E0,1E1,1.5E1,1.191E3,6E0,2E0,4E0,6E0,8E0,7E0,4.59E2,7.32E2],"tree_param":{"num_deleted":"0","num_feature":"51","num_nodes":"15","size_leaf_vector":"1"}},{"base_weights":[-4.2615368E-4,-2.6630485E-4,-2.4515265E-4,1.107806E-2,-6.625925E-4,4.4392946E-4,2.61666E-5,-2.1757072E-4,-4.5899437E-6],"categories":[],"categories_nodes":[],"categories_segments":[],"categories_sizes":[],"default_left":[0,0,0,0,0,0,0,0,0],"id":4,"left_children":[1,-1,3,5,7,-1,-1,-1,-1],"loss_changes":[3.0440576E-3,0E0,4.6770265E-3,4.850022E-3,2.807652E-3,0E0,0E0,0E0,0E0],"parents":[2147483647,0,0,2,2,3,3,4,4],"right_children":[2,-1,4,6,8,-1,-1,-1,-1],"split_conditions":[-3.0152597E0,-2.6630485E-4,-1.9425606E0,-2.6815352E0,-2.310562E0,4.4392946E-4,2.61666E-5,-2.1757072E-4,-4.5899437E-6],"split_indices":[28,0,13,16,32,0,0,0,0],"split_type":[0,0,0,0,0,0,0,0,0],"sum_hessian":[1.209E3,3E0,1.206E3,3.3E1,1.173E3,3E0,3E1,5E0,1.168E3],"tree_param":{"num_deleted":"0","num_feature":"51","num_nodes":"9","size_leaf_vector":"1"}},{"base_weights":[-0E0,-1.7897688E-2,1.2756222E-4,-0E0,-3.4990136E-2,9.033625E-3,-0E0,-0E0,-4.8080046E-4,4.4096995E-4,-0E0,-7.141147E-6,1.8484954E-5],"categories":[],"categories_nodes":[],"categories_segments":[],"categories_sizes":[],"default_left":[0,0,0,0,0,0,0,0,0,0,0,0,0],"id":5,"left_children":[1,3,5,-1,7,9,11,-1,-1,-1,-1,-1,-1],"loss_changes":[3.383524E-3,5.8188858E-3,2.142481E-3,0E0,3.5319785E-3,6.5878825E-3,1.5056423E-3,0E0,0E0,0E0,0E0,0E0,0E0],"parents":[2147483647,0,0,1,1,2,2,4,4,5,5,6,6],"right_children":[2,4,6,-1,8,10,12,-1,-1,-1,-1,-1,-1],"split_conditions":[-2.3840106E0,-1.4890193E0,-1.9985968E0,-0E0,-2.4648526E0,-1.0756849E0,6.234758E-1,-0E0,-4.8080046E-4,4.4096995E-4,-0E0,-7.141147E-6,1.8484954E-5],"split_indices":[19,44,39,0,12,43,0,0,0,0,0,0,0],"split_type":[0,0,0,0,0,0,0,0,0,0,0,0,0],"sum_hessian":[1.242E3,9E0,1.233E3,3E0,6E0,2.5E1,1.208E3,2E0,4E0,3E0,2.2E1,9.04E2,3.04E2],"tree_param":{"num_deleted":"0","num_feature":"51","num_nodes":"13","size_leaf_vector":"1"}},{"base_weights":[2.8935992E-4,1.5323184E-2,-0E0,4.3144476E-2,-0E0,1.0323295E-2,-9.1163E-5,-0E0,4.8336887E-4,4.5963334E-5,-2.701956E-5,2.8279106E-4,-0E0,1.6135479E-8,-2.794744E-4],"categories":[],"categories_nodes":[],"categories_segments":[],"categories_sizes":[],"default_left":[0,0,0,0,0,0,0,0,0,0,0,0,0,0,0],"id":6,"left_children":[1,3,5,7,9,11,13,-1,-1,-1,-1,-1,-1,-1,-1],"loss_changes":[4.00731E-3,7.990399E-3,1.981372E-3,7.511042E-4,1.5059793E-4,3.2265487E-3,5.84813E-3,0E0,0E0,0E0,0E0,0E0,0E0,0E0,0E0],"parents":[2147483647,0,0,1,1,2,2,3,3,4,4,5,5,6,6],"right_children":[2,4,6,8,10,12,14,-1,-1,-1,-1,-1,-1,-1,-1],"split_conditions":[-1.5702902E0,2.2699149E-1,-2.9240618E0,-1.338776E0,-2.251096E0,-2.086183E0,4.103233E0,-0E0,4.8336887E-4,4.5963334E-5,-2.701956E-5,2.8279106E-4,-0E0,1.6135479E-8,-2.794744E-4],"split_indices":[18,17,6,7,6,37,41,0,0,0,0,0,0,0,0],"split_type":[0,0,0,0,0,0,0,0,0,0,0,0,0,0,0],"sum_hessian":[1.213E3,1.6E1,1.197E3,5E0,1.1E1,1.7E1,1.18E3,1E0,4E0,2E0,9E0,5E0,1.2E1,1.174E3,6E0],"tree_param":{"num_deleted":"0","num_feature":"51","num_nodes":"15","size_leaf_vector":"1"}},{"base_weights":[-9.613607E-5,4.316777E-3,-5.4163573E-4,2.9436968E-2,1.1982056E-3,-1.1579772E-4,-1.7059626E-2,3.521097E-4,-0E0,-1.01597114E-4,4.0041516E-5,3.4512286E-5,-5.4168795E-6,-0E0,-2.2052949E-4],"categories":[],"categories_nodes":[],"categories_segments":[],"categories_sizes":[],"default_left":[0,0,0,0,0,0,0,0,0,0,0,0,0,0,0],"id":7,"left_children":[1,3,5,7,9,11,13,-1,-1,-1,-1,-1,-1,-1,-1],"loss_changes":[2.0254366E-3,4.0516034E-3,6.231418E-3,1.186491E-3,2.202195E-3,1.3973599E-3,1.9626254E-3,0E0,0E0,0E0,0E0,0E0,0E0,0E0,0E0],"parents":[2147483647,0,0,1,1,2,2,3,3,4,4,5,5,6,6],"right_children":[2,4,6,8,10,12,14,-1,-1,-1,-1,-1,-1,-1,-1],"split_conditions":[-1.4272375E0,-1.5755668E0,2.962479E0,3.0770707E0,-2.4648526E0,0E0,-1.3036655E0,3.521097E-4,-0E0,-1.01597114E-4,4.0041516E-5,3.4512286E-5,-5.4168795E-6,-0E0,-2.2052949E-4],"split_indices":[13,23,42,2,13,25,43,0,0,0,0,0,0,0,0],"split_type":[0,0,0,0,0,0,0,0,0,0,0,0,0,0,0],"sum_hessian":[1.219E3,9E1,1.129E3,5E0,8.5E1,1.108E3,2.1E1,4E0,1E0,9E0,7.6E1,9.2E1,1.016E3,5E0,1.6E1],"tree_param":{"num_deleted":"0","num_feature":"51","num_nodes":"15","size_leaf_vector":"1"}},{"base_weights":[-7.320948E-5,2.603478E-3,-1.325826E-3,3.813302E-4,1.8717495E-3,-8.534868E-4,-1.43325245E-2,-1.1258478E-4,2.9862642E-5,-1.5275806E-5,2.181557E-5,-2.972658E-4,-0E0],"categories":[],"categories_nodes":[],"categories_segments":[],"categories_sizes":[],"default_left":[0,0,0,0,0,0,0,0,0,0,0,0,0],"id":8,"left_children":[1,3,5,-1,7,9,11,-1,-1,-1,-1,-1,-1],"loss_changes":[3.9628763E-3,5.3427266E-3,3.725021E-3,0E0,4.498706E-3,1.6489541E-3,4.6565523E-3,0E0,0E0,0E0,0E0,0E0,0E0],"parents":[2147483647,0,0,1,1,2,2,4,4,5,5,6,6],"right_children":[2,4,6,-1,8,10,12,-1,-1,-1,-1,-1,-1],"split_conditions":[-5.013367E-1,-3.1857557E0,3.134088E0,3.813302E-4,-1.5698452E0,1.1313792E0,-5.806316E-1,-1.1258478E-4,2.9862642E-5,-1.5275806E-5,2.181557E-5,-2.972658E-4,-0E0],"split_indices":[13,38,41,0,11,13,3,0,0,0,0,0,0],"split_type":[0,0,0,0,0,0,0,0,0,0,0,0,0],"sum_hessian":[1.217E3,3.62E2,8.55E2,3E0,3.59E2,8.34E2,2.1E1,2E1,3.39E2,7.1E2,1.24E2,9E0,1.2E1],"tree_param":{"num_deleted":"0","num_feature":"51","num_nodes":"13","size_leaf_vector":"1"}},{"base_weights":[-9.452275E-5,1.4749639E-2,-4.0828498E-4,3.5943847E-2,-0E0,-2.1070333E-2,-1.0478558E-4,4.063777E-4,-0E0,-0E0,-4.0821204E-5,-0E0,-6.085292E-4,9.989557E-6,-1.2427535E-5],"categories":[],"categories_nodes":[],"categories_segments":[],"categories_sizes":[],"default_left":[0,0,0,0,0,0,0,0,0,0,0,0,0,0,0],"id":9,"left_children":[1,3,5,7,9,11,13,-1,-1,-1,-1,-1,-1,-1,-1],"loss_changes":[4.212846E-3,8.248912E-3,5.3635184E-3,1.7635189E-3,1.08314096E-4,1.4817443E-2,1.511488E-3,0E0,0E0,0E0,0E0,0E0,0E0,0E0,0E0],"parents":[2147483647,0,0,1,1,2,2,3,3,4,4,5,5,6,6],"right_children":[2,4,6,8,10,12,14,-1,-1,-1,-1,-1,-1,-1,-1],"split_conditions":[-1.5702902E0,-1.5698452E0,-2.0648093E0,-4.2405263E-1,1.0674808E0,-3.8392282E-1,1.6629041E0,4.063777E-4,-0E0,-0E0,-4.0821204E-5,-0E0,-6.085292E-4,9.989557E-6,-1.2427535E-5],"split_indices":[18,15,38,14,20,7,20,0,0,0,0,0,0,0,0],"split_type":[0,0,0,0,0,0,0,0,0,0,0,0,0,0,0],"sum_hessian":[1.209E3,1.7E1,1.192E3,8E0,9E0,1.1E1,1.181E3,7E0,1E0,4E0,5E0,7E0,4E0,5.55E2,6.26E2],"tree_param":{"num_deleted":"0","num_feature":"51","num_nodes":"15","size_leaf_vector":"1"}},{"base_weights":[-4.8975216E-6,1.6580524E-2,-3.3077438E-4,3.802054E-2,-1.0654714E-3,-1.0062689E-4,-2.3494052E-2,4.2438964E-4,-0E0,-0E0,-3.1777825E-5,8.898399E-5,-3.8270327E-6,-3.0988295E-4,-0E0],"categories":[],"categories_nodes":[],"categories_segments":[],"categories_sizes":[],"default_left":[0,0,0,0,0,0,0,0,0,0,0,0,0,0,0],"id":10,"left_children":[1,3,5,7,9,11,13,-1,-1,-1,-1,-1,-1,-1,-1],"loss_changes":[4.941982E-3,1.0377055E-2,4.0208227E-3,1.9317297E-3,6.6087814E-5,2.1780576E-3,1.1417307E-3,0E0,0E0,0E0,0E0,0E0,0E0,0E0,0E0],"parents":[2147483647,0,0,1,1,2,2,3,3,4,4,5,5,6,6],"right_children":[2,4,6,8,10,12,14,-1,-1,-1,-1,-1,-1,-1,-1],"split_conditions":[-1.7533407E0,-1.5698452E0,4.7000217E0,-4.2405263E-1,-1.338776E0,-1.2298659E0,-2.1547647E0,4.2438964E-4,-0E0,-0E0,-3.1777825E-5,8.898399E-5,-3.8270327E-6,-3.0988295E-4,-0E0],"split_indices":[36,15,8,14,7,16,3,0,0,0,0,0,0,0,0],"split_type":[0,0,0,0,0,0,0,0,0,0,0,0,0,0,0],"sum_hessian":[1.212E3,1.6E1,1.196E3,9E0,7E0,1.19E3,6E0,8E0,1E0,1E0,6E0,2.4E1,1.166E3,4E0,2E0],"tree_param":{"num_deleted":"0","num_feature":"51","num_nodes":"15","size_leaf_vector":"1"}},{"base_weights":[-0E0,-2.8216178E-4,1.6662439E-4,8.309665E-3,-2.7184896E-4,4.241456E-4,2.8540913E-5,-1.8444174E-5,1.3442033E-5],"categories":[],"categories_nodes":[],"categories_segments":[],"categories_sizes":[],"default_left":[0,0,0,0,0,0,0,0,0],"id":11,"left_children":[1,-1,3,5,7,-1,-1,-1,-1],"loss_changes":[4.4124206E-3,0E0,5.1256977E-3,8.967092E-3,2.9445298E-3,0E0,0E0,0E0,0E0],"parents":[2147483647,0,0,2,2,3,3,4,4],"right_children":[2,-1,4,6,8,-1,-1,-1,-1],"split_conditions":[-3.0152597E0,-2.8216178E-4,-1.5698452E0,-1.3591392E0,2.2218288E-1,4.241456E-4,2.8540913E-5,-1.8444174E-5,1.3442033E-5],"split_indices":[28,0,13,16,27,0,0,0,0],"split_type":[0,0,0,0,0,0,0,0,0],"sum_hessian":[1.212E3,4E0,1.208E3,7.2E1,1.136E3,6E0,6.6E1,6.07E2,5.29E2],"tree_param":{"num_deleted":"0","num_feature":"51","num_nodes":"9","size_leaf_vector":"1"}},{"base_weights":[-0E0,2.2972958E-2,-1.8389353E-4,-0E0,3.9232023E-2,-0E0,-1.2137938E-2,4.1880485E-4,-0E0,1.6037837E-5,-1.2485155E-5,-0E0,-1.5167773E-4],"categories":[],"categories_nodes":[],"categories_segments":[],"categories_sizes":[],"default_left":[0,0,0,0,0,0,0,0,0,0,0,0,0],"id":12,"left_children":[1,3,5,-1,7,9,11,-1,-1,-1,-1,-1,-1],"loss_changes":[5.582111E-3,7.5413412E-3,3.7162385E-3,0E0,7.2026625E-5,2.3941721E-3,1.6495383E-3,0E0,0E0,0E0,0E0,0E0,0E0],"parents":[2147483647,0,0,1,1,2,2,4,4,5,5,6,6],"right_children":[2,4,6,-1,8,10,12,-1,-1,-1,-1,-1,-1],"split_conditions":[-3.0290558E0,-1.2585919E0,3.370554E0,-0E0,-2.092436E0,1.6629041E0,-2.5775332E0,4.1880485E-4,-0E0,1.6037837E-5,-1.2485155E-5,-0E0,-1.5167773E-4],"split_indices":[38,7,41,0,4,20,14,0,0,0,0,0,0],"split_type":[0,0,0,0,0,0,0,0,0,0,0,0,0],"sum_hessian":[1.21E3,9E0,1.201E3,2E0,7E0,1.177E3,2.4E1,6E0,1E0,5.46E2,6.31E2,2E0,2.2E1],"tree_param":{"num_deleted":"0","num_feature":"51","num_nodes":"13","size_leaf_vector":"1"}},{"base_weights":[-8.9420826E-7,1.2113751E-2,-3.5102872E-4,4.521056E-2,-3.06837E-3,-0E0,-1.2849062E-2,5.577642E-4,-0E0,-2.1028514E-4,3.4933732E-6,-9.081989E-6,1.9547666E-5,4.2579828E-5,-2.304561E-4],"categories":[],"categories_nodes":[],"categories_segments":[],"categories_sizes":[],"default_left":[0,0,0,0,0,0,0,0,0,0,0,0,0,0,0],"id":13,"left_children":[1,3,5,7,9,11,13,-1,-1,-1,-1,-1,-1,-1,-1],"loss_changes":[4.036861E-3,1.7738014E-2,4.2269337E-3,1.8706266E-3,3.1531309E-3,2.0076865E-3,6.6484236E-3,0E0,0E0,0E0,0E0,0E0,0E0,0E0,0E0],"parents":[2147483647,0,0,1,1,2,2,3,3,4,4,5,5,6,6],"right_children":[2,4,6,8,10,12,14,-1,-1,-1,-1,-1,-1,-1,-1],"split_conditions":[-1.9985968E0,3.4467846E-1,2.3039083E0,-1.0895824E0,4.5939985E-1,1.2645313E-1,-1.4890193E0,5.577642E-4,-0E0,-2.1028514E-4,3.4933732E-6,-9.081989E-6,1.9547666E-5,4.2579828E-5,-2.304561E-4],"split_indices":[39,17,42,16,27,42,44,0,0,0,0,0,0,0,0],"split_type":[0,0,0,0,0,0,0,0,0,0,0,0,0,0,0],"sum_hessian":[1.226E3,2.5E1,1.201E3,9E0,1.6E1,1.176E3,2.5E1,6E0,3E0,6E0,1E1,8.32E2,3.44E2,6E0,1.9E1],"tree_param":{"num_deleted":"0","num_feature":"51","num_nodes":"15","size_leaf_vector":"1"}},{"base_weights":[-0E0,-1.2686334E-3,1.7827357E-3,-2.2129795E-2,-7.131973E-4,3.7836682E-3,-0E0,9.45411E-5,-4.2028166E-4,3.9368184E-5,-1.4606446E-5,6.542195E-5,-0E0,2.3375134E-5,-1.5309366E-5],"categories":[],"categories_nodes":[],"categories_segments":[],"categories_sizes":[],"default_left":[0,0,0,0,0,0,0,0,0,0,0,0,0,0,0],"id":14,"left_children":[1,3,5,7,9,11,13,-1,-1,-1,-1,-1,-1,-1,-1],"loss_changes":[2.7244654E-3,5.831924E-3,2.0353026E-3,1.2337734E-2,2.1609385E-3,2.5983034E-3,8.4570225E-4,0E0,0E0,0E0,0E0,0E0,0E0,0E0,0E0],"parents":[2147483647,0,0,1,1,2,2,3,3,4,4,5,5,6,6],"right_children":[2,4,6,8,10,12,14,-1,-1,-1,-1,-1,-1,-1,-1],"split_conditions":[1.3464236E-1,-2.0648093E0,1.1864414E-1,-1.421373E0,-1.4194318E0,1.6629041E0,-2.9368863E-1,9.45411E-5,-4.2028166E-4,3.9368184E-5,-1.4606446E-5,6.542195E-5,-0E0,2.3375134E-5,-1.5309366E-5],"split_indices":[3,38,6,44,3,20,13,0,0,0,0,0,0,0,0],"split_type":[0,0,0,0,0,0,0,0,0,0,0,0,0,0,0],"sum_hessian":[1.201E3,7.01E2,5E2,1.2E1,6.89E2,2.52E2,2.48E2,3E0,9E0,7.6E1,6.13E2,1.44E2,1.08E2,8.1E1,1.67E2],"tree_param":{"num_deleted":"0","num_feature":"51","num_nodes":"15","size_leaf_vector":"1"}},{"base_weights":[-1.464735E-4,-1.3899707E-2,-0E0,-0E0,-3.2156013E-2,5.826065E-3,-4.4891797E-4,-0E0,-4.213224E-4,8.360858E-5,-0E0,-4.0512416E-5,3.5562437E-7],"categories":[],"categories_nodes":[],"categories_segments":[],"categories_sizes":[],"default_left":[0,0,0,0,0,0,0,0,0,0,0,0,0],"id":15,"left_children":[1,3,5,-1,7,9,11,-1,-1,-1,-1,-1,-1],"loss_changes":[2.002456E-3,4.69244E-3,2.9941835E-3,0E0,1.2670048E-3,1.5327358E-3,2.374795E-3,0E0,0E0,0E0,0E0,0E0,0E0],"parents":[2147483647,0,0,1,1,2,2,4,4,5,5,6,6],"right_children":[2,4,6,-1,8,10,12,-1,-1,-1,-1,-1,-1],"split_conditions":[-2.3840106E0,-1.7034783E0,-1.3513163E0,-0E0,1.3793842E-1,9.685574E-1,-1.1282285E0,-0E0,-4.213224E-4,8.360858E-5,-0E0,-4.0512416E-5,3.5562437E-7],"split_indices":[19,35,3,0,9,9,46,0,0,0,0,0,0],"split_type":[0,0,0,0,0,0,0,0,0,0,0,0,0],"sum_hessian":[1.218E3,9E0,1.209E3,4E0,5E0,8E1,1.129E3,2E0,3E0,6E1,2E1,1.57E2,9.72E2],"tree_param":{"num_deleted":"0","num_feature":"51","num_nodes":"13","size_leaf_vector":"1"}},{"base_weights":[2.523288E-4,1.646292E-2,-2.670643E-5,3.0250076E-2,-0E0,7.8590994E-5,-1.14410035E-2,4.0889627E-4,-0E0,-7.73977E-6,1.4746898E-5,-0E0,-2.2554066E-4],"categories":[],"categories_nodes":[],"categories_segments":[],"categories_sizes":[],"default_left":[0,0,0,0,0,0,0,0,0,0,0,0,0],"id":16,"left_children":[1,3,5,7,-1,9,11,-1,-1,-1,-1,-1,-1],"loss_changes":[7.1061975E-3,7.0013045E-3,2.5588323E-3,6.715983E-3,0E0,1.4578517E-3,4.3147765E-3,0E0,0E0,0E0,0E0,0E0,0E0],"parents":[2147483647,0,0,1,1,2,2,3,3,5,5,6,6],"right_children":[2,4,6,8,-1,10,12,-1,-1,-1,-1,-1,-1],"split_conditions":[-1.2086484E0,1.2348956E0,2.5538433E0,-8.5560596E-1,-0E0,1.8184549E-1,-2.3329203E0,4.0889627E-4,-0E0,-7.73977E-6,1.4746898E-5,-0E0,-2.2554066E-4],"split_indices":[32,17,42,33,0,14,48,0,0,0,0,0,0],"split_type":[0,0,0,0,0,0,0,0,0,0,0,0,0],"sum_hessian":[1.206E3,2.5E1,1.181E3,1.4E1,1.1E1,1.163E3,1.8E1,1.1E1,3E0,6.78E2,4.85E2,6E0,1.2E1],"tree_param":{"num_deleted":"0","num_feature":"51","num_nodes":"13","size_leaf_vector":"1"}},{"base_weights":[3.2060122E-4,-2.4198074E-2,5.547269E-4,-3.8374937E-4,-0E0,6.30978E-3,-0E0,3.1154344E-4,1.9116467E-5,-1.400158E-5,8.405944E-6],"categories":[],"categories_nodes":[],"categories_segments":[],"categories_sizes":[],"default_left":[0,0,0,0,0,0,0,0,0,0,0],"id":17,"left_children":[1,3,5,-1,-1,7,9,-1,-1,-1,-1],"loss_changes":[4.6390602E-3,2.2352603E-3,3.8676215E-3,0E0,0E0,8.24129E-3,1.3031771E-3,0E0,0E0,0E0,0E0],"parents":[2147483647,0,0,1,1,2,2,5,5,6,6],"right_children":[2,4,6,-1,-1,8,10,-1,-1,-1,-1],"split_conditions":[-2.3840106E0,-1.3571343E0,0E0,-3.8374937E-4,-0E0,-1.5698452E0,-4.5019183E-1,3.1154344E-4,1.9116467E-5,-1.400158E-5,8.405944E-6],"split_indices":[19,11,25,0,0,15,34,0,0,0,0],"split_type":[0,0,0,0,0,0,0,0,0,0,0],"sum_hessian":[1.215E3,6E0,1.209E3,3E0,3E0,1.05E2,1.104E3,1.1E1,9.4E1,4.14E2,6.9E2],"tree_param":{"num_deleted":"0","num_feature":"51","num_nodes":"11","size_leaf_vector":"1"}},{"base_weights":[9.992652E-5,1.7661672E-2,-2.7634424E-5,3.4495387E-2,-0E0,6.04967E-3,-3.2773384E-4,4.6010452E-4,-0E0,1.7812422E-4,-0E0,-1.0773739E-6,-2.1174969E-4],"categories":[],"categories_nodes":[],"categories_segments":[],"categories_sizes":[],"default_left":[0,0,0,0,0,0,0,0,0,0,0,0,0],"id":18,"left_children":[1,3,5,7,-1,9,11,-1,-1,-1,-1,-1,-1],"loss_changes":[4.5117326E-3,6.7812987E-3,1.6439562E-3,2.4559014E-3,0E0,2.764474E-3,3.2503514E-3,0E0,0E0,0E0,0E0,0E0,0E0],"parents":[2147483647,0,0,1,1,2,2,3,3,5,5,6,6],"right_children":[2,4,6,8,-1,10,12,-1,-1,-1,-1,-1,-1],"split_conditions":[-1.7533407E0,-1.5698452E0,-1.8933445E0,1.2348956E0,-0E0,-6.6034603E-1,4.6346154E0,4.6010452E-4,-0E0,1.7812422E-4,-0E0,-1.0773739E-6,-2.1174969E-4],"split_indices":[36,15,13,17,0,0,41,0,0,0,0,0,0],"split_type":[0,0,0,0,0,0,0,0,0,0,0,0,0],"sum_hessian":[1.225E3,1.3E1,1.212E3,8E0,5E0,4E1,1.172E3,5E0,3E0,1.2E1,2.8E1,1.166E3,6E0],"tree_param":{"num_deleted":"0","num_feature":"51","num_nodes":"13","size_leaf_vector":"1"}},{"base_weights":[-0E0,6.031902E-3,-3.233595E-4,4.155422E-4,1.7972832E-3,-0E0,-1.0465609E-2,-6.763108E-5,5.015802E-5,5.4288193E-5,-2.4218673E-6,-3.0808474E-4,-0E0],"categories":[],"categories_nodes":[],"categories_segments":[],"categories_sizes":[],"default_left":[0,0,0,0,0,0,0,0,0,0,0,0,0],"id":19,"left_children":[1,3,5,-1,7,9,11,-1,-1,-1,-1,-1,-1],"loss_changes":[2.5410778E-3,5.555983E-3,4.314371E-3,0E0,1.625691E-3,1.7278446E-3,8.377764E-3,0E0,0E0,0E0,0E0,0E0,0E0],"parents":[2147483647,0,0,1,1,2,2,4,4,5,5,6,6],"right_children":[2,4,6,-1,8,10,12,-1,-1,-1,-1,-1,-1],"split_conditions":[-1.5698452E0,-2.6815352E0,3.066867E0,4.155422E-4,-2.4648526E0,-1.4194318E0,-1.3571343E0,-6.763108E-5,5.015802E-5,5.4288193E-5,-2.4218673E-6,-3.0808474E-4,-0E0],"split_indices":[13,16,41,0,13,47,11,0,0,0,0,0,0],"split_type":[0,0,0,0,0,0,0,0,0,0,0,0,0],"sum_hessian":[1.226E3,6.5E1,1.161E3,3E0,6.2E1,1.122E3,3.9E1,8E0,5.4E1,5.5E1,1.067E3,1.2E1,2.7E1],"tree_param":{"num_deleted":"0","num_feature":"51","num_nodes":"13","size_leaf_vector":"1"}},{"base_weights":[-1.9215333E-4,1.5892062E-2,-5.0143164E-4,4.4269715E-2,-0E0,-2.8354285E-4,-2.2699896E-2,-0E0,4.971663E-4,-0E0,-7.3280735E-6,-1.013676E-5,1.9437592E-5,-3.516227E-4,-0E0],"categories":[],"categories_nodes":[],"categories_segments":[],"categories_sizes":[],"default_left":[0,0,0,0,0,0,0,0,0,0,0,0,0,0,0],"id":20,"left_children":[1,3,5,7,9,11,13,-1,-1,-1,-1,-1,-1,-1,-1],"loss_changes":[4.6835532E-3,8.318989E-3,3.653354E-3,8.558398E-4,4.02755E-6,1.9045149E-3,1.699094E-3,0E0,0E0,0E0,0E0,0E0,0E0,0E0,0E0],"parents":[2147483647,0,0,1,1,2,2,3,3,4,4,5,5,6,6],"right_children":[2,4,6,8,10,12,14,-1,-1,-1,-1,-1,-1,-1,-1],"split_conditions":[-1.5702902E0,-1.0042601E0,4.7000217E0,-1.7254752E0,-1.7550234E0,1.04075E0,-4.2166913E-1,-0E0,4.971663E-4,-0E0,-7.3280735E-6,-1.013676E-5,1.9437592E-5,-3.516227E-4,-0E0],"split_indices":[33,45,8,0,15,28,13,0,0,0,0,0,0,0,0],"split_type":[0,0,0,0,0,0,0,0,0,0,0,0,0,0,0],"sum_hessian":[1.247E3,1.6E1,1.231E3,5E0,1.1E1,1.225E3,6E0,1E0,4E0,5E0,6E0,9.57E2,2.68E2,3E0,3E0],"tree_param":{"num_deleted":"0","num_feature":"51","num_nodes":"15","size_leaf_vector":"1"}},{"base_weights":[-2.346953E-5,-1.3295328E-3,1.7633884E-3,-1.6685091E-2,-9.925212E-4,3.4428353E-3,-0E0,-0E0,-3.486715E-4,2.094196E-5,-1.871421E-5,-0E0,4.2885407E-5,-8.234415E-6,3.7370024E-5],"categories":[],"categories_nodes":[],"categories_segments":[],"categories_sizes":[],"default_left":[1,0,0,0,0,0,0,0,0,0,0,0,0,0,0],"id":21,"left_children":[1,3,5,7,9,11,13,-1,-1,-1,-1,-1,-1,-1,-1],"loss_changes":[2.8294763E-3,2.0550126E-3,1.2280958E-3,4.041725E-3,1.97895E-3,1.0538653E-3,9.794879E-4,0E0,0E0,0E0,0E0,0E0,0E0,0E0,0E0],"parents":[2147483647,0,0,1,1,2,2,3,3,4,4,5,5,6,6],"right_children":[2,4,6,8,10,12,14,-1,-1,-1,-1,-1,-1,-1,-1],"split_conditions":[2.6579967E-1,-2.2473626E0,1.5677902E0,-1.4011209E0,-1.3227932E0,-8.510112E-1,8.2898283E-1,-0E0,-3.486715E-4,2.094196E-5,-1.871421E-5,-0E0,4.2885407E-5,-8.234415E-6,3.7370024E-5],"split_indices":[27,37,20,43,29,49,0,0,0,0,0,0,0,0,0],"split_type":[0,0,0,0,0,0,0,0,0,0,0,0,0,0,0],"sum_hessian":[1.228E3,7.42E2,4.86E2,8E0,7.34E2,2.3E2,2.56E2,4E0,4E0,1.37E2,5.97E2,2.5E1,2.05E2,1.97E2,5.9E1],"tree_param":{"num_deleted":"0","num_feature":"51","num_nodes":"15","size_leaf_vector":"1"}},{"base_weights":[-9.9411496E-5,-1.1656372E-2,6.6382263E-6,-4.461449E-2,4.153914E-3,1.7656753E-2,-9.6249954E-5,-0E0,-5.511349E-4,1.275687E-4,-0E0,-0E0,2.871723E-4,-1.300229E-5,1.794272E-5],"categories":[],"categories_nodes":[],"categories_segments":[],"categories_sizes":[],"default_left":[0,0,0,0,0,0,0,0,0,0,0,0,0,0,0],"id":22,"left_children":[1,3,5,7,9,11,13,-1,-1,-1,-1,-1,-1,-1,-1],"loss_changes":[2.637663E-3,1.4485052E-2,3.9078216E-3,5.8623776E-3,1.4930586E-3,3.937442E-3,2.6228798E-3,0E0,0E0,0E0,0E0,0E0,0E0,0E0,0E0],"parents":[2147483647,0,0,1,1,2,2,3,3,4,4,5,5,6,6],"right_children":[2,4,6,8,10,12,14,-1,-1,-1,-1,-1,-1,-1,-1],"split_conditions":[-2.1099997E0,-2.0648093E0,-2.352579E0,-2.429527E0,4.910104E0,-2.3307734E0,3.0097157E-1,-0E0,-5.511349E-4,1.275687E-4,-0E0,-0E0,2.871723E-4,-1.300229E-5,1.794272E-5],"split_indices":[37,38,38,1,5,33,17,0,0,0,0,0,0,0,0],"split_type":[0,0,0,0,0,0,0,0,0,0,0,0,0,0,0],"sum_hessian":[1.2E3,1.8E1,1.182E3,7E0,1.1E1,1.1E1,1.171E3,1E0,6E0,9E0,2E0,3E0,8E0,7.48E2,4.23E2],"tree_param":{"num_deleted":"0","num_feature":"51","num_nodes":"15","size_leaf_vector":"1"}},{"base_weights":[2.2662478E-5,3.0968755E-3,-5.6155125E-4,2.5465555E-2,1.7477721E-3,-2.2025062E-2,-2.3744872E-4,4.3076824E-4,-0E0,5.1102033E-6,1.5246996E-4,-3.148232E-4,-0E0,1.4535972E-6,-4.6856327E-5],"categories":[],"categories_nodes":[],"categories_segments":[],"categories_sizes":[],"default_left":[0,0,0,0,0,0,0,0,0,0,0,0,0,0,0],"id":23,"left_children":[1,3,5,7,9,11,13,-1,-1,-1,-1,-1,-1,-1,-1],"loss_changes":[2.48228E-3,4.0169684E-3,4.830105E-3,2.8380542E-3,2.0604099E-3,3.3310754E-3,2.16892E-3,0E0,0E0,0E0,0E0,0E0,0E0,0E0,0E0],"parents":[2147483647,0,0,1,1,2,2,3,3,4,4,5,5,6,6],"right_children":[2,4,6,8,10,12,14,-1,-1,-1,-1,-1,-1,-1,-1],"split_conditions":[-7.93593E-1,-1.5702902E0,-2.1951015E0,8.839876E-1,1.8260969E0,-2.3102546E0,1.2045829E0,4.3076824E-4,-0E0,5.1102033E-6,1.5246996E-4,-3.148232E-4,-0E0,1.4535972E-6,-4.6856327E-5],"split_indices":[15,33,37,11,11,19,12,0,0,0,0,0,0,0,0],"split_type":[0,0,0,0,0,0,0,0,0,0,0,0,0,0,0],"sum_hessian":[1.238E3,2.24E2,1.014E3,7E0,2.17E2,9E0,1.005E3,3E0,4E0,2.07E2,1E1,7E0,2E0,9.06E2,9.9E1],"tree_param":{"num_deleted":"0","num_feature":"51","num_nodes":"15","size_leaf_vector":"1"}},{"base_weights":[5.8195565E-5,-2.3030126E-2,2.625166E-4,-0E0,-2.6247202E-4,-7.237432E-4,1.8531523E-3,-0E0,-7.8076846E-5,2.8528731E-5,-1.0862435E-5],"categories":[],"categories_nodes":[],"categories_segments":[],"categories_sizes":[],"default_left":[0,0,0,0,0,0,0,0,0,0,0],"id":24,"left_children":[1,3,5,-1,-1,7,9,-1,-1,-1,-1],"loss_changes":[3.5276706E-3,3.4152227E-4,2.034355E-3,0E0,0E0,3.0684075E-3,1.6726387E-3,0E0,0E0,0E0,0E0],"parents":[2147483647,0,0,1,1,2,2,5,5,6,6],"right_children":[2,4,6,-1,-1,8,10,-1,-1,-1,-1],"split_conditions":[-3.0152597E0,1.3793842E-1,1.3464236E-1,-0E0,-2.6247202E-4,1.0062141E0,1.6928557E0,-0E0,-7.8076846E-5,2.8528731E-5,-1.0862435E-5],"split_indices":[28,9,3,0,0,14,27,0,0,0,0],"split_type":[0,0,0,0,0,0,0,0,0,0,0],"sum_hessian":[1.227E3,5E0,1.222E3,1E0,4E0,7.16E2,5.06E2,6.61E2,5.5E1,4.03E2,1.03E2],"tree_param":{"num_deleted":"0","num_feature":"51","num_nodes":"11","size_leaf_vector":"1"}},{"base_weights":[-3.9621812E-4,-4.0929057E-3,1.6001828E-5,-5.7873863E-4,-1.3748402E-2,9.719538E-3,-2.117323E-5,3.885854E-5,-4.0563522E-5,-4.5566423E-5,-3.944704E-4,4.5347202E-4,-8.072683E-6,-1.5413488E-4,2.1363547E-7],"categories":[],"categories_nodes":[],"categories_segments":[],"categories_sizes":[],"default_left":[0,0,0,0,0,0,0,0,0,0,0,0,0,0,0],"id":25,"left_children":[1,3,5,7,9,11,13,-1,-1,-1,-1,-1,-1,-1,-1],"loss_changes":[2.324028E-3,3.6619704E-3,1.3700139E-3,1.8960658E-3,3.007024E-3,9.947064E-3,2.2569736E-3,0E0,0E0,0E0,0E0,0E0,0E0,0E0,0E0],"parents":[2147483647,0,0,1,1,2,2,3,3,4,4,5,5,6,6],"right_children":[2,4,6,8,10,12,14,-1,-1,-1,-1,-1,-1,-1,-1],"split_conditions":[-1.1126238E0,1.3480026E0,-1.7533407E0,-7.0907843E-1,1.6925508E0,2.2699149E-1,-2.1340399E0,3.885854E-5,-4.0563522E-5,-4.5566423E-5,-3.944704E-4,4.5347202E-4,-8.072683E-6,-1.5413488E-4,2.1363547E-7],"split_indices":[17,9,36,6,34,17,11,0,0,0,0,0,0,0,0],"split_type":[0,0,0,0,0,0,0,0,0,0,0,0,0,0,0],"sum_hessian":[1.256E3,1.49E2,1.107E3,1.18E2,3.1E1,1.3E1,1.094E3,3.9E1,7.9E1,2.7E1,4E0,4E0,9E0,8E0,1.086E3],"tree_param":{"num_deleted":"0","num_feature":"51","num_nodes":"15","size_leaf_vector":"1"}},{"base_weights":[-0E0,1.6983688E-2,-2.1320929E-4,4.6022364E-4,-0E0,-1.07815135E-2,3.3929296E-5,-0E0,-2.9180503E-5,-0E0,-3.1683143E-4,1.8026489E-5,-7.682106E-6],"categories":[],"categories_nodes":[],"categories_segments":[],"categories_sizes":[],"default_left":[0,0,0,0,0,0,0,0,0,0,0,0,0],"id":26,"left_children":[1,3,5,-1,7,9,11,-1,-1,-1,-1,-1,-1],"loss_changes":[5.1020076E-3,1.2955699E-2,4.1899215E-3,0E0,6.386263E-5,1.1316437E-2,1.7477366E-3,0E0,0E0,0E0,0E0,0E0,0E0],"parents":[2147483647,0,0,1,1,2,2,4,4,5,5,6,6],"right_children":[2,4,6,-1,8,10,12,-1,-1,-1,-1,-1,-1],"split_conditions":[-1.7533407E0,1.2348956E0,-1.9029018E0,4.6022364E-4,-1.7550234E0,-1.421373E0,-1.0302161E0,-0E0,-2.9180503E-5,-0E0,-3.1683143E-4,1.8026489E-5,-7.682106E-6],"split_indices":[36,17,37,0,15,44,40,0,0,0,0,0,0],"split_type":[0,0,0,0,0,0,0,0,0,0,0,0,0],"sum_hessian":[1.207E3,1.6E1,1.191E3,7E0,9E0,3.5E1,1.156E3,3E0,6E0,2.1E1,1.4E1,3.99E2,7.57E2],"tree_param":{"num_deleted":"0","num_feature":"51","num_nodes":"13","size_leaf_vector":"1"}},{"base_weights":[-0E0,-7.7322905E-4,1.9695815E-3,-2.4555908E-5,-2.8284418E-3,2.892435E-3,-6.443145E-3,-1.1305504E-5,1.2232883E-5,-3.6771125E-5,-0E0,1.8364526E-4,1.5305077E-5,-2.3184632E-4,-0E0],"categories":[],"categories_nodes":[],"categories_segments":[],"categories_sizes":[],"default_left":[0,0,0,0,0,0,0,0,0,0,0,0,0,0,0],"id":27,"left_children":[1,3,5,7,9,11,13,-1,-1,-1,-1,-1,-1,-1,-1],"loss_changes":[1.9013527E-3,1.0986412E-3,2.4018292E-3,9.5404655E-4,7.369458E-4,4.890443E-3,3.551886E-3,0E0,0E0,0E0,0E0,0E0,0E0,0E0,0E0],"parents":[2147483647,0,0,1,1,2,2,3,3,4,4,5,5,6,6],"right_children":[2,4,6,8,10,12,14,-1,-1,-1,-1,-1,-1,-1,-1],"split_conditions":[2.818661E-1,3.8605952E-1,1.7683659E0,1.3464236E-1,8.62063E-1,-1.918163E0,-1.2258997E0,-1.1305504E-5,1.2232883E-5,-3.6771125E-5,-0E0,1.8364526E-4,1.5305077E-5,-2.3184632E-4,-0E0],"split_indices":[42,10,14,3,6,39,16,0,0,0,0,0,0,0,0],"split_type":[0,0,0,0,0,0,0,0,0,0,0,0,0,0,0],"sum_hessian":[1.248E3,8.98E2,3.5E2,6.95E2,2.03E2,3.27E2,2.3E1,4.11E2,2.84E2,1.74E2,2.9E1,1.9E1,3.08E2,7E0,1.6E1],"tree_param":{"num_deleted":"0","num_feature":"51","num_nodes":"15","size_leaf_vector":"1"}},{"base_weights":[-0E0,-3.1955373E-2,2.443191E-4,-3.6842976E-4,-0E0,2.4764834E-2,-0E0,3.1178835E-4,-0E0,2.7494534E-5,-4.901622E-6],"categories":[],"categories_nodes":[],"categories_segments":[],"categories_sizes":[],"default_left":[0,0,0,0,0,0,0,0,0,0,0],"id":28,"left_children":[1,3,5,-1,-1,7,9,-1,-1,-1,-1],"loss_changes":[6.7094057E-3,8.282806E-4,5.1410655E-3,0E0,0E0,1.1057546E-3,1.8070523E-3,0E0,0E0,0E0,0E0],"parents":[2147483647,0,0,1,1,2,2,5,5,6,6],"right_children":[2,4,6,-1,-1,8,10,-1,-1,-1,-1],"split_conditions":[-2.936034E0,-4.21753E-1,-3.0290558E0,-3.6842976E-4,-0E0,-1.4882118E-1,-8.0640304E-1,3.1178835E-4,-0E0,2.7494534E-5,-4.901622E-6],"split_indices":[29,11,38,0,0,14,15,0,0,0,0],"split_type":[0,0,0,0,0,0,0,0,0,0,0],"sum_hessian":[1.209E3,5E0,1.204E3,4E0,1E0,7E0,1.197E3,5E0,2E0,2.06E2,9.91E2],"tree_param":{"num_deleted":"0","num_feature":"51","num_nodes":"11","size_leaf_vector":"1"}},{"base_weights":[-2.4252164E-4,1.7997704E-2,-5.726411E-4,3.7714977E-2,-0E0,-1.5329407E-4,-1.5013209E-2,5.322555E-4,-0E0,-1.9749259E-5,-0E0,-7.656685E-6,1.8469847E-5,-3.3429742E-4,-0E0],"categories":[],"categories_nodes":[],"categories_segments":[],"categories_sizes":[],"default_left":[0,0,0,0,0,0,0,0,0,0,0,0,0,0,0],"id":29,"left_children":[1,3,5,7,9,11,13,-1,-1,-1,-1,-1,-1,-1,-1],"loss_changes":[5.670308E-3,8.168349E-3,5.8283797E-3,2.0682923E-3,2.1451828E-5,1.3485815E-3,8.888489E-3,0E0,0E0,0E0,0E0,0E0,0E0,0E0,0E0],"parents":[2147483647,0,0,1,1,2,2,3,3,4,4,5,5,6,6],"right_children":[2,4,6,8,10,12,14,-1,-1,-1,-1,-1,-1,-1,-1],"split_conditions":[-1.7533407E0,-1.5698452E0,2.5538433E0,8.839876E-1,-5.9582573E-1,9.833872E-1,-5.8711433E-1,5.322555E-4,-0E0,-1.9749259E-5,-0E0,-7.656685E-6,1.8469847E-5,-3.3429742E-4,-0E0],"split_indices":[36,15,42,11,28,35,15,0,0,0,0,0,0,0,0],"split_type":[0,0,0,0,0,0,0,0,0,0,0,0,0,0,0],"sum_hessian":[1.227E3,1.5E1,1.212E3,8E0,7E0,1.186E3,2.6E1,4E0,4E0,4E0,3E0,9.47E2,2.39E2,1.2E1,1.4E1],"tree_param":{"num_deleted":"0","num_feature":"51","num_nodes":"15","size_leaf_vector":"1"}},{"base_weights":[1.8802413E-4,1.44908205E-2,-0E0,3.2844596E-2,-0E0,-1.2416964E-2,1.9714033E-4,5.283846E-4,-0E0,-0E0,-2.9943802E-4,-0E0,7.23615E-5],"categories":[],"categories_nodes":[],"categories_segments":[],"categories_sizes":[],"default_left":[0,0,0,0,0,0,0,0,0,0,0,0,0],"id":30,"left_children":[1,3,5,7,-1,9,11,-1,-1,-1,-1,-1,-1],"loss_changes":[3.2112482E-3,6.9935415E-3,2.8989662E-3,5.1071737E-3,0E0,3.8723864E-3,1.6027811E-3,0E0,0E0,0E0,0E0,0E0,0E0],"parents":[2147483647,0,0,1,1,2,2,3,3,5,5,6,6],"right_children":[2,4,6,8,-1,10,12,-1,-1,-1,-1,-1,-1],"split_conditions":[-1.5702902E0,-1.5698452E0,-2.1340399E0,8.839876E-1,-0E0,6.170774E-1,2.546153E0,5.283846E-4,-0E0,-0E0,-2.9943802E-4,-0E0,7.23615E-5],"split_indices":[18,15,11,11,0,1,34,0,0,0,0,0,0],"split_type":[0,0,0,0,0,0,0,0,0,0,0,0,0],"sum_hessian":[1.229E3,1.4E1,1.215E3,8E0,6E0,1.7E1,1.198E3,4E0,4E0,1.1E1,6E0,1.168E3,3E1],"tree_param":{"num_deleted":"0","num_feature":"51","num_nodes":"13","size_leaf_vector":"1"}},{"base_weights":[1.9217882E-4,-0E0,7.5296047E-3,-4.4429586E-3,3.424784E-4,2.1659339E-2,-4.86031E-3,-8.267886E-5,-0E0,5.917398E-5,-0E0,4.3452505E-4,-0E0,-2.2008564E-4,-0E0],"categories":[],"categories_nodes":[],"categories_segments":[],"categories_sizes":[],"default_left":[0,0,0,0,0,0,0,0,0,0,0,0,0,0,0],"id":31,"left_children":[1,3,5,7,9,11,13,-1,-1,-1,-1,-1,-1,-1,-1],"loss_changes":[2.1936353E-3,2.074044E-3,8.752923E-3,2.3279928E-3,2.0588096E-3,7.3817847E-3,1.7426779E-3,0E0,0E0,0E0,0E0,0E0,0E0,0E0,0E0],"parents":[2147483647,0,0,1,1,2,2,3,3,4,4,5,5,6,6],"right_children":[2,4,6,8,10,12,14,-1,-1,-1,-1,-1,-1,-1,-1],"split_conditions":[2.4718766E0,-1.3129411E0,-1.0042601E0,-2.4478473E-1,-1.3704994E0,1.4234893E0,-7.8792703E-1,-8.267886E-5,-0E0,5.917398E-5,-0E0,4.3452505E-4,-0E0,-2.2008564E-4,-0E0],"split_indices":[34,1,45,27,47,31,11,0,0,0,0,0,0,0,0],"split_type":[0,0,0,0,0,0,0,0,0,0,0,0,0,0,0],"sum_hessian":[1.239E3,1.201E3,3.8E1,9.7E1,1.104E3,2.1E1,1.7E1,6.1E1,3.6E1,6.1E1,1.043E3,8E0,1.3E1,3E0,1.4E1],"tree_param":{"num_deleted":"0","num_feature":"51","num_nodes":"15","size_leaf_vector":"1"}},{"base_weights":[1.3728281E-4,1.2295853E-2,-0E0,3.8399097E-2,-0E0,-1.5590174E-2,6.517193E-5,4.3950317E-4,-0E0,-2.6158232E-5,-0E0,-0E0,-3.3207503E-4,2.4691184E-5,-3.755534E-6],"categories":[],"categories_nodes":[],"categories_segments":[],"categories_sizes":[],"default_left":[0,0,0,0,0,0,0,0,0,0,0,0,0,0,0],"id":32,"left_children":[1,3,5,7,9,11,13,-1,-1,-1,-1,-1,-1,-1,-1],"loss_changes":[2.3204118E-3,5.7662837E-3,1.5849511E-3,5.8264006E-4,5.1318977E-5,3.3824744E-3,1.4837128E-3,0E0,0E0,0E0,0E0,0E0,0E0,0E0,0E0],"parents":[2147483647,0,0,1,1,2,2,3,3,4,4,5,5,6,6],"right_children":[2,4,6,8,10,12,14,-1,-1,-1,-1,-1,-1,-1,-1],"split_conditions":[-1.5702902E0,2.2699149E-1,-2.936034E0,-2.092436E0,4.5960924E-1,-2.3052642E0,-7.93593E-1,4.3950317E-4,-0E0,-2.6158232E-5,-0E0,-0E0,-3.3207503E-4,2.4691184E-5,-3.755534E-6],"split_indices":[18,17,29,4,4,0,12,0,0,0,0,0,0,0,0],"split_type":[0,0,0,0,0,0,0,0,0,0,0,0,0,0,0],"sum_hessian":[1.219E3,1.4E1,1.205E3,4E0,1E1,5E0,1.2E3,3E0,1E0,6E0,4E0,2E0,3E0,2.2E2,9.8E2],"tree_param":{"num_deleted":"0","num_feature":"51","num_nodes":"15","size_leaf_vector":"1"}},{"base_weights":[1.7606001E-4,8.365235E-3,-3.1480196E-4,5.119524E-4,3.8734565E-3,-4.7459027E-5,-1.5537157E-2,-0E0,8.8674235E-5,1.5514552E-5,-1.6450453E-5,-0E0,-2.4332841E-4],"categories":[],"categories_nodes":[],"categories_segments":[],"categories_sizes":[],"default_left":[0,0,0,0,0,0,0,0,0,0,0,0,0],"id":33,"left_children":[1,3,5,-1,7,9,11,-1,-1,-1,-1,-1,-1],"loss_changes":[5.77942E-3,9.874884E-3,3.146912E-3,0E0,1.0782053E-3,2.9367018E-3,3.5500592E-3,0E0,0E0,0E0,0E0,0E0,0E0],"parents":[2147483647,0,0,1,1,2,2,4,4,5,5,6,6],"right_children":[2,4,6,-1,8,10,12,-1,-1,-1,-1,-1,-1],"split_conditions":[-1.5698452E0,-2.4830816E0,4.2000246E0,5.119524E-4,1.2738117E0,1.6629041E0,-2.42464E0,-0E0,8.8674235E-5,1.5514552E-5,-1.6450453E-5,-0E0,-2.4332841E-4],"split_indices":[13,32,42,0,16,20,3,0,0,0,0,0,0],"split_type":[0,0,0,0,0,0,0,0,0,0,0,0,0],"sum_hessian":[1.235E3,8E1,1.155E3,4E0,7.6E1,1.143E3,1.2E1,4.9E1,2.7E1,5.4E2,6.03E2,2E0,1E1],"tree_param":{"num_deleted":"0","num_feature":"51","num_nodes":"13","size_leaf_vector":"1"}},{"base_weights":[6.707419E-6,1.1604762E-2,-3.359655E-4,-0E0,2.468794E-2,-2.67951E-4,-1.2684593E-4,-0E0,2.7492835E-5,2.8889006E-4,-0E0,1.3059158E-4,-3.194662E-6],"categories":[],"categories_nodes":[],"categories_segments":[],"categories_sizes":[],"default_left":[0,0,0,0,0,0,0,0,0,0,0,0,0],"id":34,"left_children":[1,3,5,7,9,-1,11,-1,-1,-1,-1,-1,-1],"loss_changes":[5.991357E-3,4.807987E-3,3.834559E-3,1.5495048E-4,2.2697542E-3,0E0,1.720471E-3,0E0,0E0,0E0,0E0,0E0,0E0],"parents":[2147483647,0,0,1,1,2,2,3,3,4,4,6,6],"right_children":[2,4,6,8,10,-1,12,-1,-1,-1,-1,-1,-1],"split_conditions":[-1.8933445E0,-1.0720389E0,-2.072462E0,-1.0974346E0,1.0398866E0,-2.67951E-4,-2.0648093E0,-0E0,2.7492835E-5,2.8889006E-4,-0E0,1.3059158E-4,-3.194662E-6],"split_indices":[13,24,22,14,7,0,38,0,0,0,0,0,0],"split_type":[0,0,0,0,0,0,0,0,0,0,0,0,0],"sum_hessian":[1.221E3,4.2E1,1.179E3,2.6E1,1.6E1,4E0,1.175E3,7E0,1.9E1,1.4E1,2E0,8E0,1.167E3],"tree_param":{"num_deleted":"0","num_feature":"51","num_nodes":"13","size_leaf_vector":"1"}},{"base_weights":[4.7549056E-5,1.1994686E-2,-2.0953912E-5,3.8948193E-2,-6.519791E-4,2.5919524E-5,-2.1090463E-2,-0E0,4.28983E-4,-0E0,-2.883652E-5,5.8285863E-5,-1.1640379E-6,-3.28725E-4,-0E0],"categories":[],"categories_nodes":[],"categories_segments":[],"categories_sizes":[],"default_left":[0,0,0,0,0,0,0,0,0,0,0,0,0,0,0],"id":35,"left_children":[1,3,5,7,9,11,13,-1,-1,-1,-1,-1,-1,-1,-1],"loss_changes":[2.2277248E-3,9.151227E-3,3.336343E-3,5.845055E-4,6.664309E-5,1.5950572E-3,1.5266484E-3,0E0,0E0,0E0,0E0,0E0,0E0,0E0,0E0],"parents":[2147483647,0,0,1,1,2,2,3,3,4,4,5,5,6,6],"right_children":[2,4,6,8,10,12,14,-1,-1,-1,-1,-1,-1,-1,-1],"split_conditions":[-1.5702902E0,1.2348956E0,4.7000217E0,-1.338776E0,-2.251096E0,-1.8933445E0,-4.2166913E-1,-0E0,4.28983E-4,-0E0,-2.883652E-5,5.8285863E-5,-1.1640379E-6,-3.28725E-4,-0E0],"split_indices":[18,17,8,7,6,13,13,0,0,0,0,0,0,0,0],"split_type":[0,0,0,0,0,0,0,0,0,0,0,0,0,0,0],"sum_hessian":[1.257E3,1.4E1,1.243E3,6E0,8E0,1.237E3,6E0,1E0,5E0,1E0,7E0,4.5E1,1.192E3,3E0,3E0],"tree_param":{"num_deleted":"0","num_feature":"51","num_nodes":"15","size_leaf_vector":"1"}},{"base_weights":[-1.7143344E-4,7.2299647E-3,-7.8237365E-4,3.8908903E-2,2.5529582E-3,-1.902533E-2,-5.7222287E-4,5.053477E-4,-0E0,1.19057724E-4,-0E0,-0E0,-2.7162084E-4,-7.994258E-6,7.76849E-5],"categories":[],"categories_nodes":[],"categories_segments":[],"categories_sizes":[],"default_left":[0,0,0,0,0,0,0,0,0,0,0,0,0,0,0],"id":36,"left_children":[1,3,5,7,9,11,13,-1,-1,-1,-1,-1,-1,-1,-1],"loss_changes":[4.8690317E-3,7.6319035E-3,2.3886631E-3,2.6914235E-3,2.5620088E-3,2.0808382E-3,1.4585353E-3,0E0,0E0,0E0,0E0,0E0,0E0,0E0,0E0],"parents":[2147483647,0,0,1,1,2,2,3,3,4,4,5,5,6,6],"right_children":[2,4,6,8,10,12,14,-1,-1,-1,-1,-1,-1,-1,-1],"split_conditions":[-1.5358212E0,-1.5755668E0,-2.7971988E0,2.766091E-1,-5.9647125E-1,-2.4757357E0,1.5304487E0,5.053477E-4,-0E0,1.19057724E-4,-0E0,-0E0,-2.7162084E-4,-7.994258E-6,7.76849E-5],"split_indices":[13,23,21,2,0,0,44,0,0,0,0,0,0,0,0],"split_type":[0,0,0,0,0,0,0,0,0,0,0,0,0,0,0],"sum_hessian":[1.216E3,7.9E1,1.137E3,6E0,7.3E1,6E0,1.131E3,4E0,2E0,2E1,5.3E1,1E0,5E0,1.114E3,1.7E1],"tree_param":{"num_deleted":"0","num_feature":"51","num_nodes":"15","size_leaf_vector":"1"}},{"base_weights":[3.5785473E-4,4.5799306E-3,-0E0,7.7868844E-3,-1.10584E-4,1.4394317E-4,-6.3055516E-3,3.3760775E-4,2.3343146E-5,-1.9813256E-4,-0E0,-2.2921442E-6,2.6084654E-5,-0E0,-1.4703971E-4],"categories":[],"categories_nodes":[],"categories_segments":[],"categories_sizes":[],"default_left":[0,0,0,0,0,0,0,0,0,0,0,0,0,0,0],"id":37,"left_children":[1,3,5,7,9,11,13,-1,-1,-1,-1,-1,-1,-1,-1],"loss_changes":[2.2016831E-3,2.4611766E-3,1.4737927E-3,7.5314227E-3,1.7661214E-3,1.2398666E-3,2.3323786E-3,0E0,0E0,0E0,0E0,0E0,0E0,0E0,0E0],"parents":[2147483647,0,0,1,1,2,2,3,3,4,4,5,5,6,6],"right_children":[2,4,6,8,10,12,14,-1,-1,-1,-1,-1,-1,-1,-1],"split_conditions":[0E0,6.9427586E-1,1.9856997E0,-1.9029607E0,-1.2319185E0,8.2898283E-1,1.136422E0,3.3760775E-4,2.3343146E-5,-1.9813256E-4,-0E0,-2.2921442E-6,2.6084654E-5,-0E0,-1.4703971E-4],"split_indices":[25,7,42,21,16,0,5,0,0,0,0,0,0,0,0],"split_type":[0,0,0,0,0,0,0,0,0,0,0,0,0,0,0],"sum_hessian":[1.233E3,1.11E2,1.122E3,7.8E1,3.3E1,1.087E3,3.5E1,9E0,6.9E1,3E0,3E1,9.1E2,1.77E2,1.9E1,1.6E1],"tree_param":{"num_deleted":"0","num_feature":"51","num_nodes":"15","size_leaf_vector":"1"}},{"base_weights":[5.4322E-5,7.7434136E-3,-3.2999998E-4,4.5055892E-2,2.336601E-3,-5.3144144E-3,2.1321232E-5,4.992171E-4,-0E0,-2.3530998E-5,6.293322E-5,-8.523018E-5,-0E0,-2.0006693E-4,2.2077268E-6],"categories":[],"categories_nodes":[],"categories_segments":[],"categories_sizes":[],"default_left":[0,0,0,0,0,0,0,0,0,0,0,0,0,0,0],"id":38,"left_children":[1,3,5,7,9,11,13,-1,-1,-1,-1,-1,-1,-1,-1],"loss_changes":[4.348903E-3,9.325614E-3,2.544155E-3,5.1175617E-4,1.6316429E-3,2.0164354E-3,2.2523405E-3,0E0,0E0,0E0,0E0,0E0,0E0,0E0,0E0],"parents":[2147483647,0,0,1,1,2,2,3,3,4,4,5,5,6,6],"right_children":[2,4,6,8,10,12,14,-1,-1,-1,-1,-1,-1,-1,-1],"split_conditions":[-1.5698452E0,-1.5755668E0,-1.3571343E0,-1.7631223E0,9.4284606E-1,-3.1143153E-1,-2.0200372E0,4.992171E-4,-0E0,-2.3530998E-5,6.293322E-5,-8.523018E-5,-0E0,-2.0006693E-4,2.2077268E-6],"split_indices":[13,23,0,13,39,35,16,0,0,0,0,0,0,0,0],"split_type":[0,0,0,0,0,0,0,0,0,0,0,0,0,0,0],"sum_hessian":[1.218E3,6.9E1,1.149E3,5E0,6.4E1,9.3E1,1.056E3,4E0,1E0,1.8E1,4.6E1,6.3E1,3E1,4E0,1.052E3],"tree_param":{"num_deleted":"0","num_feature":"51","num_nodes":"15","size_leaf_vector":"1"}},{"base_weights":[-2.1193104E-4,1.3547998E-2,-4.7176698E-4,3.7831976E-4,-0E0,-1.9283114E-4,-1.0010848E-2,-1.3206634E-5,4.9149266E-6,3.7770067E-5,-2.7029825E-4],"categories":[],"categories_nodes":[],"categories_segments":[],"categories_sizes":[],"default_left":[0,0,0,0,0,0,0,0,0,0,0],"id":39,"left_children":[1,3,5,-1,-1,7,9,-1,-1,-1,-1],"loss_changes":[2.8654288E-3,5.2104723E-3,2.040638E-3,0E0,0E0,9.564134E-4,7.758163E-3,0E0,0E0,0E0,0E0],"parents":[2147483647,0,0,1,1,2,2,5,5,6,6],"right_children":[2,4,6,-1,-1,8,10,-1,-1,-1,-1],"split_conditions":[-1.7533407E0,-1.0042601E0,2.5538433E0,3.7831976E-4,-0E0,-1.3171172E-1,-1.3036655E0,-1.3206634E-5,4.9149266E-6,3.7770067E-5,-2.7029825E-4],"split_indices":[36,45,42,0,0,6,43,0,0,0,0],"split_type":[0,0,0,0,0,0,0,0,0,0,0],"sum_hessian":[1.163E3,1.3E1,1.15E3,4E0,9E0,1.129E3,2.1E1,4.81E2,6.48E2,9E0,1.2E1],"tree_param":{"num_deleted":"0","num_feature":"51","num_nodes":"11","size_leaf_vector":"1"}},{"base_weights":[-2.0534635E-4,1.4382776E-2,-6.165744E-4,4.1339893E-2,-0E0,-2.2067253E-4,-1.4645103E-2,4.6780132E-4,-0E0,1.551874E-6,-5.726275E-5,1.0949902E-5,-1.1933107E-5,-2.8409314E-4,-0E0],"categories":[],"categories_nodes":[],"categories_segments":[],"categories_sizes":[],"default_left":[0,0,0,0,0,0,0,0,0,0,0,0,0,0,0],"id":40,"left_children":[1,3,5,7,9,11,13,-1,-1,-1,-1,-1,-1,-1,-1],"loss_changes":[5.880529E-3,1.24624595E-2,5.076087E-3,6.56873E-4,3.1173593E-4,1.4942826E-3,6.2335767E-3,0E0,0E0,0E0,0E0,0E0,0E0,0E0,0E0],"parents":[2147483647,0,0,1,1,2,2,3,3,4,4,5,5,6,6],"right_children":[2,4,6,8,10,12,14,-1,-1,-1,-1,-1,-1,-1,-1],"split_conditions":[-1.9985968E0,3.4467846E-1,2.5538433E0,7.899547E-1,1.0439436E0,1.5677902E0,-1.6480823E0,4.6780132E-4,-0E0,1.551874E-6,-5.726275E-5,1.0949902E-5,-1.1933107E-5,-2.8409314E-4,-0E0],"split_indices":[39,17,42,4,20,20,17,0,0,0,0,0,0,0,0],"split_type":[0,0,0,0,0,0,0,0,0,0,0,0,0,0,0],"sum_hessian":[1.206E3,2.5E1,1.181E3,9E0,1.6E1,1.157E3,2.4E1,7E0,2E0,8E0,8E0,4.48E2,7.09E2,1.3E1,1.1E1],"tree_param":{"num_deleted":"0","num_feature":"51","num_nodes":"15","size_leaf_vector":"1"}},{"base_weights":[1.710928E-4,2.6916584E-2,-4.5321915E-5,3.519399E-2,-0E0,-2.6871286E-2,3.8958333E-5,4.894868E-4,-0E0,-0E0,-3.6288737E-4,-4.340634E-6,1.9009687E-5],"categories":[],"categories_nodes":[],"categories_segments":[],"categories_sizes":[],"default_left":[0,0,0,0,0,0,0,0,0,0,0,0,0],"id":41,"left_children":[1,3,5,7,-1,9,11,-1,-1,-1,-1,-1,-1],"loss_changes":[9.747566E-3,3.224695E-3,5.4148384E-3,2.5683464E-3,0E0,3.1441771E-3,1.2061752E-3,0E0,0E0,0E0,0E0,0E0,0E0],"parents":[2147483647,0,0,1,1,2,2,3,3,5,5,6,6],"right_children":[2,4,6,8,-1,10,12,-1,-1,-1,-1,-1,-1],"split_conditions":[-1.7533407E0,1.3699007E0,-2.7971988E0,8.839876E-1,-0E0,-2.4757357E0,6.595194E-1,4.894868E-4,-0E0,-0E0,-3.6288737E-4,-4.340634E-6,1.9009687E-5],"split_indices":[36,46,21,11,0,0,0,0,0,0,0,0,0],"split_type":[0,0,0,0,0,0,0,0,0,0,0,0,0],"sum_hessian":[1.218E3,1.2E1,1.206E3,9E0,3E0,6E0,1.2E3,5E0,4E0,1E0,5E0,9.15E2,2.85E2],"tree_param":{"num_deleted":"0","num_feature":"51","num_nodes":"13","size_leaf_vector":"1"}},{"base_weights":[-2.931067E-4,6.3573425E-3,-7.742772E-4,-6.0190125E-3,1.0000577E-2,-1.5459637E-2,-5.0221215E-4,-0E0,-1.06876105E-4,3.194536E-4,4.3644744E-5,-0E0,-2.5918212E-4,-0E0,-2.5334655E-5],"categories":[],"categories_nodes":[],"categories_segments":[],"categories_sizes":[],"default_left":[0,0,0,0,0,0,0,0,0,0,0,0,0,0,0],"id":42,"left_children":[1,3,5,7,9,11,13,-1,-1,-1,-1,-1,-1,-1,-1],"loss_changes":[3.402677E-3,3.6221996E-3,3.0567679E-3,5.905132E-4,3.6427039E-3,2.9161556E-3,1.3808213E-3,0E0,0E0,0E0,0E0,0E0,0E0,0E0,0E0],"parents":[2147483647,0,0,1,1,2,2,3,3,4,4,5,5,6,6],"right_children":[2,4,6,8,10,12,14,-1,-1,-1,-1,-1,-1,-1,-1],"split_conditions":[-1.5698452E0,-2.4648526E0,-2.1340399E0,-6.6034603E-1,-2.092436E0,5.456636E-1,3.8605952E-1,-0E0,-1.06876105E-4,3.194536E-4,4.3644744E-5,-0E0,-2.5918212E-4,-0E0,-2.5334655E-5],"split_indices":[13,13,11,0,4,0,10,0,0,0,0,0,0,0,0],"split_type":[0,0,0,0,0,0,0,0,0,0,0,0,0,0,0],"sum_hessian":[1.234E3,6.8E1,1.166E3,9E0,5.9E1,1.3E1,1.153E3,2E0,7E0,7E0,5.2E1,5E0,8E0,8.94E2,2.59E2],"tree_param":{"num_deleted":"0","num_feature":"51","num_nodes":"15","size_leaf_vector":"1"}},{"base_weights":[-0E0,-4.01209E-3,4.5023442E-4,-1.0701001E-2,-0E0,3.3210616E-3,-6.106583E-5,-0E0,-2.3449057E-4,1.514672E-4,-1.4622419E-5,7.924721E-5,-0E0,2.7271437E-5,-6.900706E-6],"categories":[],"categories_nodes":[],"categories_segments":[],"categories_sizes":[],"default_left":[0,0,0,0,0,0,0,0,0,0,0,0,0,0,0],"id":43,"left_children":[1,3,5,7,9,11,13,-1,-1,-1,-1,-1,-1,-1,-1],"loss_changes":[1.8790938E-3,2.873272E-3,1.9857136E-3,6.1990367E-3,1.6184706E-3,3.2208997E-3,1.4327776E-3,0E0,0E0,0E0,0E0,0E0,0E0,0E0,0E0],"parents":[2147483647,0,0,1,1,2,2,3,3,4,4,5,5,6,6],"right_children":[2,4,6,8,10,12,14,-1,-1,-1,-1,-1,-1,-1,-1],"split_conditions":[-1.3571343E0,-2.442672E-1,-7.796E-1,-1.1248242E0,-1.3879431E0,1.6629041E0,-9.407118E-1,-0E0,-2.3449057E-4,1.514672E-4,-1.4622419E-5,7.924721E-5,-0E0,2.7271437E-5,-6.900706E-6],"split_indices":[11,15,15,40,38,20,3,0,0,0,0,0,0,0,0],"split_type":[0,0,0,0,0,0,0,0,0,0,0,0,0,0,0],"sum_hessian":[1.23E3,1.01E2,1.129E3,3.8E1,6.3E1,1.99E2,9.3E2,2E1,1.8E1,5E0,5.8E1,8.5E1,1.14E2,1.41E2,7.89E2],"tree_param":{"num_deleted":"0","num_feature":"51","num_nodes":"15","size_leaf_vector":"1"}},{"base_weights":[-5.181596E-6,4.9157813E-3,-4.1792286E-4,1.857986E-2,-0E0,-3.116891E-5,-9.529157E-3,2.0816372E-4,-0E0,-7.98808E-5,4.1476887E-5,1.7198354E-5,-1.2523263E-5,-0E0,-2.6621454E-4],"categories":[],"categories_nodes":[],"categories_segments":[],"categories_sizes":[],"default_left":[0,0,0,0,0,0,0,0,0,0,0,0,0,0,0],"id":44,"left_children":[1,3,5,7,9,11,13,-1,-1,-1,-1,-1,-1,-1,-1],"loss_changes":[1.9977058E-3,4.931333E-3,3.0271842E-3,8.5150497E-4,1.9066117E-3,2.301073E-3,7.7613057E-3,0E0,0E0,0E0,0E0,0E0,0E0,0E0,0E0],"parents":[2147483647,0,0,1,1,2,2,3,3,4,4,5,5,6,6],"right_children":[2,4,6,8,10,12,14,-1,-1,-1,-1,-1,-1,-1,-1],"split_conditions":[-1.5358212E0,-8.1539947E-1,3.134088E0,1.7195512E-1,-1.0037326E0,8.8011944E-1,1.9290504E-1,2.0816372E-4,-0E0,-7.98808E-5,4.1476887E-5,1.7198354E-5,-1.2523263E-5,-0E0,-2.6621454E-4],"split_indices":[13,1,41,26,2,32,9,0,0,0,0,0,0,0,0],"split_type":[0,0,0,0,0,0,0,0,0,0,0,0,0,0,0],"sum_hessian":[1.202E3,7.3E1,1.129E3,1.8E1,5.5E1,1.095E3,3.4E1,1.6E1,2E0,1.8E1,3.7E1,4.16E2,6.79E2,2E1,1.4E1],"tree_param":{"num_deleted":"0","num_feature":"51","num_nodes":"15","size_leaf_vector":"1"}},{"base_weights":[-4.939354E-5,7.4995477E-3,-6.56599E-4,4.8635455E-4,2.969389E-3,-6.140754E-3,-1.2790658E-5,-1.0117565E-5,8.355608E-5,-3.438128E-4,-3.1684234E-5,-1.9060351E-5,3.552999E-6],"categories":[],"categories_nodes":[],"categories_segments":[],"categories_sizes":[],"default_left":[0,0,0,0,0,0,0,0,0,0,0,0,0],"id":45,"left_children":[1,3,5,-1,7,9,11,-1,-1,-1,-1,-1,-1],"loss_changes":[4.903817E-3,9.251537E-3,3.411342E-3,0E0,2.3445932E-3,4.7694365E-3,8.7980484E-4,0E0,0E0,0E0,0E0,0E0,0E0],"parents":[2147483647,0,0,1,1,2,2,4,4,5,5,6,6],"right_children":[2,4,6,-1,8,10,12,-1,-1,-1,-1,-1,-1],"split_conditions":[-1.5698452E0,-2.4830816E0,-1.3571343E0,4.8635455E-4,1.2703283E0,-2.0648093E0,-7.0527285E-1,-1.0117565E-5,8.355608E-5,-3.438128E-4,-3.1684234E-5,-1.9060351E-5,3.552999E-6],"split_indices":[13,32,11,0,33,38,1,0,0,0,0,0,0],"split_type":[0,0,0,0,0,0,0,0,0,0,0,0,0],"sum_hessian":[1.216E3,7.7E1,1.139E3,4E0,7.3E1,1.02E2,1.037E3,3.2E1,4.1E1,5E0,9.7E1,2.12E2,8.25E2],"tree_param":{"num_deleted":"0","num_feature":"51","num_nodes":"13","size_leaf_vector":"1"}},{"base_weights":[-0E0,1.5151962E-2,-1.1233043E-4,4.495387E-4,-0E0,-0E0,-2.015984E-2,-0E0,-2.9514187E-5,4.0676736E-5,-3.5868534E-6,-2.641731E-4,-0E0],"categories":[],"categories_nodes":[],"categories_segments":[],"categories_sizes":[],"default_left":[0,0,0,0,0,0,0,0,0,0,0,0,0],"id":46,"left_children":[1,3,5,-1,7,9,11,-1,-1,-1,-1,-1,-1],"loss_changes":[3.1147064E-3,8.015322E-3,3.0327935E-3,0E0,6.5331544E-5,1.8222877E-3,7.901655E-4,0E0,0E0,0E0,0E0,0E0,0E0],"parents":[2147483647,0,0,1,1,2,2,4,4,5,5,6,6],"right_children":[2,4,6,-1,8,10,12,-1,-1,-1,-1,-1,-1],"split_conditions":[-1.7533407E0,8.397537E-1,4.7000217E0,4.495387E-4,-1.7254752E0,0E0,-1.7438015E0,-0E0,-2.9514187E-5,4.0676736E-5,-3.5868534E-6,-2.641731E-4,-0E0],"split_indices":[36,2,8,0,0,25,2,0,0,0,0,0,0],"split_type":[0,0,0,0,0,0,0,0,0,0,0,0,0],"sum_hessian":[1.227E3,1.2E1,1.215E3,4E0,8E0,1.209E3,6E0,2E0,6E0,1E2,1.109E3,4E0,2E0],"tree_param":{"num_deleted":"0","num_feature":"51","num_nodes":"13","size_leaf_vector":"1"}},{"base_weights":[-0E0,1.3786506E-2,-1.8680292E-4,3.4054276E-2,-0E0,3.8769107E-5,-1.4478119E-2,-0E0,3.7444953E-4,2.4472789E-5,-4.7413055E-6,8.888527E-5,-2.7479793E-4],"categories":[],"categories_nodes":[],"categories_segments":[],"categories_sizes":[],"default_left":[0,0,0,0,0,0,0,0,0,0,0,0,0],"id":47,"left_children":[1,3,5,7,-1,9,11,-1,-1,-1,-1,-1,-1],"loss_changes":[2.7977694E-3,5.941721E-3,5.3051836E-3,4.1610654E-4,0E0,1.6487079E-3,9.972551E-3,0E0,0E0,0E0,0E0,0E0,0E0],"parents":[2147483647,0,0,1,1,2,2,3,3,5,5,6,6],"right_children":[2,4,6,8,-1,10,12,-1,-1,-1,-1,-1,-1],"split_conditions":[-1.7533407E0,1.2348956E0,2.5538433E0,2.3912878E0,-0E0,-6.911744E-1,-1.421373E0,-0E0,3.7444953E-4,2.4472789E-5,-4.7413055E-6,8.888527E-5,-2.7479793E-4],"split_indices":[36,17,42,34,0,13,44,0,0,0,0,0,0],"split_type":[0,0,0,0,0,0,0,0,0,0,0,0,0],"sum_hessian":[1.209E3,1.3E1,1.196E3,6E0,7E0,1.172E3,2.4E1,1E0,5E0,2.39E2,9.33E2,6E0,1.8E1],"tree_param":{"num_deleted":"0","num_feature":"51","num_nodes":"13","size_leaf_vector":"1"}},{"base_weights":[2.6634184E-4,2.1067532E-2,-0E0,2.9156419E-2,-0E0,4.473875E-3,-4.2049482E-4,3.411935E-4,-0E0,1.12808775E-4,4.449077E-6,5.823972E-6,-1.1636294E-5],"categories":[],"categories_nodes":[],"categories_segments":[],"categories_sizes":[],"default_left":[0,0,0,0,0,0,0,0,0,0,0,0,0],"id":48,"left_children":[1,3,5,7,-1,9,11,-1,-1,-1,-1,-1,-1],"loss_changes":[8.568531E-3,2.8214091E-3,1.908568E-3,3.0753165E-3,0E0,1.1647465E-3,8.905038E-4,0E0,0E0,0E0,0E0,0E0,0E0],"parents":[2147483647,0,0,1,1,2,2,3,3,5,5,6,6],"right_children":[2,4,6,8,-1,10,12,-1,-1,-1,-1,-1,-1],"split_conditions":[-1.2256669E0,9.928344E-1,-1.4272375E0,2.815396E0,-0E0,-1.9349594E-1,1.5663896E0,3.411935E-4,-0E0,1.12808775E-4,4.449077E-6,5.823972E-6,-1.1636294E-5],"split_indices":[36,35,13,13,0,6,20,0,0,0,0,0,0],"split_type":[0,0,0,0,0,0,0,0,0,0,0,0,0],"sum_hessian":[1.216E3,1.8E1,1.198E3,1.2E1,6E0,8.4E1,1.114E3,1.1E1,1E0,2.1E1,6.3E1,4.17E2,6.97E2],"tree_param":{"num_deleted":"0","num_feature":"51","num_nodes":"13","size_leaf_vector":"1"}},{"base_weights":[4.0584782E-4,1.5882837E-2,8.725328E-5,3.6100738E-2,-0E0,3.292572E-4,-5.4739555E-3,4.1747963E-4,-0E0,-0E0,-5.4705648E-5,2.5502482E-5,-2.234689E-7,-0E0,-1.7302338E-4],"categories":[],"categories_nodes":[],"categories_segments":[],"categories_sizes":[],"default_left":[0,0,0,0,0,0,0,0,0,0,0,0,0,0,0],"id":49,"left_children":[1,3,5,7,9,11,13,-1,-1,-1,-1,-1,-1,-1,-1],"loss_changes":[4.473296E-3,7.714107E-3,1.1227494E-3,6.906949E-4,1.9452603E-4,1.1763012E-3,2.1395942E-3,0E0,0E0,0E0,0E0,0E0,0E0,0E0,0E0],"parents":[2147483647,0,0,1,1,2,2,3,3,4,4,5,5,6,6],"right_children":[2,4,6,8,10,12,14,-1,-1,-1,-1,-1,-1,-1,-1],"split_conditions":[-1.2256669E0,-1.5698452E0,3.134088E0,9.928344E-1,3.7421098E0,-7.796E-1,1.013311E0,4.1747963E-4,-0E0,-0E0,-5.4705648E-5,2.5502482E-5,-2.234689E-7,-0E0,-1.7302338E-4],"split_indices":[36,15,41,35,8,15,10,0,0,0,0,0,0,0,0],"split_type":[0,0,0,0,0,0,0,0,0,0,0,0,0,0,0],"sum_hessian":[1.23E3,1.7E1,1.213E3,8E0,9E0,1.181E3,3.2E1,6E0,2E0,4E0,5E0,1.99E2,9.82E2,2.3E1,9E0],"tree_param":{"num_deleted":"0","num_feature":"51","num_nodes":"15","size_leaf_vector":"1"}},{"base_weights":[1.2864635E-4,6.682315E-3,-1.9498706E-4,4.403597E-2,7.254311E-4,-2.371294E-2,6.142799E-5,4.902291E-4,-0E0,-1.1390358E-5,4.127579E-5,-4.3273228E-4,-0E0,-1.369293E-7,7.8371166E-5],"categories":[],"categories_nodes":[],"categories_segments":[],"categories_sizes":[],"default_left":[0,0,0,0,0,0,0,0,0,0,0,0,0,0,0],"id":50,"left_children":[1,3,5,7,9,11,13,-1,-1,-1,-1,-1,-1,-1,-1],"loss_changes":[3.2160198E-3,1.1385506E-2,9.238929E-3,1.0773493E-3,7.2138564E-4,8.511429E-3,1.4393427E-3,0E0,0E0,0E0,0E0,0E0,0E0,0E0,0E0],"parents":[2147483647,0,0,1,1,2,2,3,3,4,4,5,5,6,6],"right_children":[2,4,6,8,10,12,14,-1,-1,-1,-1,-1,-1,-1,-1],"split_conditions":[-1.5412358E0,-1.2245437E0,-2.0648093E0,2.5197487E0,-2.0670862E0,-1.8499357E0,1.4824069E0,4.902291E-4,-0E0,-1.1390358E-5,4.127579E-5,-4.3273228E-4,-0E0,-1.369293E-7,7.8371166E-5],"split_indices":[15,18,38,19,15,4,44,0,0,0,0,0,0,0,0],"split_type":[0,0,0,0,0,0,0,0,0,0,0,0,0,0,0],"sum_hessian":[1.208E3,7E1,1.138E3,6E0,6.4E1,1.5E1,1.123E3,5E0,1E0,2.3E1,4.1E1,8E0,7E0,1.101E3,2.2E1],"tree_param":{"num_deleted":"0","num_feature":"51","num_nodes":"15","size_leaf_vector":"1"}},{"base_weights":[-0E0,-1.259272E-2,9.366972E-5,-0E0,-3.162097E-2,2.909662E-3,-5.9137587E-4,-0E0,7.465524E-5,-0E0,-3.852469E-4,1.8981672E-4,1.2148598E-5,-2.597893E-5,3.6824883E-6],"categories":[],"categories_nodes":[],"categories_segments":[],"categories_sizes":[],"default_left":[0,0,0,0,0,0,0,0,0,0,0,0,0,0,0],"id":51,"left_children":[1,3,5,7,9,11,13,-1,-1,-1,-1,-1,-1,-1,-1],"loss_changes":[2.4685059E-3,6.041093E-3,2.5579901E-3,3.0653726E-4,1.1479575E-3,5.150439E-3,2.037261E-3,0E0,0E0,0E0,0E0,0E0,0E0,0E0,0E0],"parents":[2147483647,0,0,1,1,2,2,3,3,4,4,5,5,6,6],"right_children":[2,4,6,8,10,12,14,-1,-1,-1,-1,-1,-1,-1,-1],"split_conditions":[-2.1951015E0,-1.4011209E0,-6.911744E-1,-1.2102696E0,-2.4648526E0,-1.9029607E0,-1.7979355E-1,-0E0,7.465524E-5,-0E0,-3.852469E-4,1.8981672E-4,1.2148598E-5,-2.597893E-5,3.6824883E-6],"split_indices":[37,46,13,24,12,21,2,0,0,0,0,0,0,0,0],"split_type":[0,0,0,0,0,0,0,0,0,0,0,0,0,0,0],"sum_hessian":[1.217E3,1.4E1,1.203E3,7E0,7E0,2.63E2,9.4E2,3E0,4E0,2E0,5E0,1.8E1,2.45E2,3.37E2,6.03E2],"tree_param":{"num_deleted":"0","num_feature":"51","num_nodes":"15","size_leaf_vector":"1"}},{"base_weights":[-4.727697E-4,-1.3425093E-3,1.5355902E-3,-4.9043365E-4,-7.063507E-3,-8.0388226E-4,3.706385E-3,2.9051112E-4,-8.97315E-6,-2.917926E-4,-3.0311714E-5,-2.6582891E-5,1.554015E-5,5.4436463E-5,-1.0829677E-5],"categories":[],"categories_nodes":[],"categories_segments":[],"categories_sizes":[],"default_left":[0,0,0,0,0,0,0,0,0,0,0,0,0,0,0],"id":52,"left_children":[1,3,5,7,9,11,13,-1,-1,-1,-1,-1,-1,-1,-1],"loss_changes":[2.1314134E-3,3.594974E-3,2.008718E-3,6.7735366E-3,5.6086886E-3,7.3533296E-4,2.0881814E-3,0E0,0E0,0E0,0E0,0E0,0E0,0E0,0E0],"parents":[2147483647,0,0,1,1,2,2,3,3,4,4,5,5,6,6],"right_children":[2,4,6,8,10,12,14,-1,-1,-1,-1,-1,-1,-1,-1],"split_conditions":[5.671746E-1,1.0062141E0,-2.5198463E-1,-2.7429338E0,-1.7038274E0,9.8229617E-1,1.8773175E0,2.9051112E-4,-8.97315E-6,-2.917926E-4,-3.0311714E-5,-2.6582891E-5,1.554015E-5,5.4436463E-5,-1.0829677E-5],"split_indices":[19,14,5,38,2,24,27,0,0,0,0,0,0,0,0],"split_type":[0,0,0,0,0,0,0,0,0,0,0,0,0,0,0],"sum_hessian":[1.228E3,8.92E2,3.36E2,7.93E2,9.9E1,1.4E2,1.96E2,6E0,7.87E2,1E1,8.9E1,1.02E2,3.8E1,1.59E2,3.7E1],"tree_param":{"num_deleted":"0","num_feature":"51","num_nodes":"15","size_leaf_vector":"1"}},{"base_weights":[-0E0,-1.2260092E-3,1.9707382E-3,-7.660063E-4,-2.051346E-2,3.728653E-3,-0E0,8.944618E-5,-1.2321119E-5,-3.692044E-4,-0E0,9.142555E-6,7.791415E-5,-6.133285E-6,7.043288E-5],"categories":[],"categories_nodes":[],"categories_segments":[],"categories_sizes":[],"default_left":[0,0,0,0,0,0,0,0,0,0,0,0,0,0,0],"id":53,"left_children":[1,3,5,7,9,11,13,-1,-1,-1,-1,-1,-1,-1,-1],"loss_changes":[2.9527745E-3,4.560365E-3,1.5557613E-3,2.6195447E-3,2.2371304E-3,1.891548E-3,1.0950177E-3,0E0,0E0,0E0,0E0,0E0,0E0,0E0,0E0],"parents":[2147483647,0,0,1,1,2,2,3,3,4,4,5,5,6,6],"right_children":[2,4,6,8,10,12,14,-1,-1,-1,-1,-1,-1,-1,-1],"split_conditions":[5.5491203E-1,1.8260969E0,1.1864414E-1,-1.2238405E0,-2.3423204E0,5.274361E-1,1.7683659E0,8.944618E-5,-1.2321119E-5,-3.692044E-4,-0E0,9.142555E-6,7.791415E-5,-6.133285E-6,7.043288E-5],"split_indices":[43,0,6,16,29,0,12,0,0,0,0,0,0,0,0],"split_type":[0,0,0,0,0,0,0,0,0,0,0,0,0,0,0],"sum_hessian":[1.221E3,7.55E2,4.66E2,7.44E2,1.1E1,2.41E2,2.25E2,2.3E1,7.21E2,4E0,7E0,1.58E2,8.3E1,2.06E2,1.9E1],"tree_param":{"num_deleted":"0","num_feature":"51","num_nodes":"15","size_leaf_vector":"1"}},{"base_weights":[-0E0,2.1409443E-2,-2.1398625E-4,4.0008698E-2,-0E0,-1.1060001E-5,-2.2102807E-2,4.438536E-4,-0E0,6.6900844E-5,-2.8993559E-6,-3.0606924E-4,-0E0],"categories":[],"categories_nodes":[],"categories_segments":[],"categories_sizes":[],"default_left":[0,0,0,0,0,0,0,0,0,0,0,0,0],"id":54,"left_children":[1,3,5,7,-1,9,11,-1,-1,-1,-1,-1,-1],"loss_changes":[6.701252E-3,5.358939E-3,3.1206466E-3,8.0017187E-4,0E0,1.5970279E-3,1.0400554E-3,0E0,0E0,0E0,0E0,0E0,0E0],"parents":[2147483647,0,0,1,1,2,2,3,3,5,5,6,6],"right_children":[2,4,6,8,-1,10,12,-1,-1,-1,-1,-1,-1],"split_conditions":[-1.7533407E0,8.397537E-1,4.7000217E0,1.3638374E0,-0E0,-1.2238405E0,-1.7438015E0,4.438536E-4,-0E0,6.6900844E-5,-2.8993559E-6,-3.0606924E-4,-0E0],"split_indices":[36,2,8,7,0,16,2,0,0,0,0,0,0],"split_type":[0,0,0,0,0,0,0,0,0,0,0,0,0],"sum_hessian":[1.212E3,1.3E1,1.199E3,6E0,7E0,1.194E3,5E0,5E0,1E0,3.2E1,1.162E3,3E0,2E0],"tree_param":{"num_deleted":"0","num_feature":"51","num_nodes":"13","size_leaf_vector":"1"}},{"base_weights":[-0E0,1.2607579E-2,-3.3264107E-4,2.3724023E-2,-0E0,-2.0232233E-3,6.3188735E-4,4.184497E-4,1.6916587E-5,-0E0,-4.5654633E-5,-2.710059E-5,6.452143E-5,1.5172078E-5,-8.3372515E-6],"categories":[],"categories_nodes":[],"categories_segments":[],"categories_sizes":[],"default_left":[0,0,0,0,0,0,0,0,0,0,0,0,0,0,0],"id":55,"left_children":[1,3,5,7,9,11,13,-1,-1,-1,-1,-1,-1,-1,-1],"loss_changes":[3.8658613E-3,5.5513345E-3,2.064361E-3,2.1277359E-3,1.3548246E-4,2.3676027E-3,9.973358E-4,0E0,0E0,0E0,0E0,0E0,0E0,0E0,0E0],"parents":[2147483647,0,0,1,1,2,2,3,3,4,4,5,5,6,6],"right_children":[2,4,6,8,10,12,14,-1,-1,-1,-1,-1,-1,-1,-1],"split_conditions":[-1.9985968E0,6.896619E-1,-1.3171172E-1,-4.261701E-1,-1.4455868E-1,5.3346086E-1,1.163369E-1,4.184497E-4,1.6916587E-5,-0E0,-4.5654633E-5,-2.710059E-5,6.452143E-5,1.5172078E-5,-8.3372515E-6],"split_indices":[39,15,6,26,5,25,5,0,0,0,0,0,0,0,0],"split_type":[0,0,0,0,0,0,0,0,0,0,0,0,0,0,0],"sum_hessian":[1.2E3,2.2E1,1.178E3,1.5E1,7E0,4.65E2,7.13E2,5E0,1E1,2E0,5E0,4.42E2,2.3E1,4.87E2,2.26E2],"tree_param":{"num_deleted":"0","num_feature":"51","num_nodes":"15","size_leaf_vector":"1"}},{"base_weights":[-0E0,-1.238133E-2,2.682178E-4,-0E0,-4.3671936E-2,6.45968E-3,-3.1649055E-5,-5.7425616E-5,5.3595137E-5,-5.3927273E-4,-0E0,8.95916E-5,-0E0,-9.6734475E-6,1.0236795E-5],"categories":[],"categories_nodes":[],"categories_segments":[],"categories_sizes":[],"default_left":[0,0,0,0,0,0,1,0,0,0,0,0,0,0,0],"id":56,"left_children":[1,3,5,7,9,11,13,-1,-1,-1,-1,-1,-1,-1,-1],"loss_changes":[3.2283848E-3,9.254452E-3,2.857122E-3,5.11704E-4,3.5977848E-3,1.9946066E-3,1.1052703E-3,0E0,0E0,0E0,0E0,0E0,0E0,0E0,0E0],"parents":[2147483647,0,0,1,1,2,2,3,3,4,4,5,5,6,6],"right_children":[2,4,6,8,10,12,14,-1,-1,-1,-1,-1,-1,-1,-1],"split_conditions":[-2.1547647E0,4.7523582E-1,-1.5698452E0,-1.2585919E0,2.5904357E0,1.4286994E0,2.423227E-1,-5.7425616E-5,5.3595137E-5,-5.3927273E-4,-0E0,8.95916E-5,-0E0,-9.6734475E-6,1.0236795E-5],"split_indices":[47,7,13,7,6,7,27,0,0,0,0,0,0,0,0],"split_type":[0,0,0,0,0,0,0,0,0,0,0,0,0,0,0],"sum_hessian":[1.21E3,1.9E1,1.191E3,1.4E1,5E0,6.9E1,1.122E3,4E0,1E1,4E0,1E0,6E1,9E0,6.45E2,4.77E2],"tree_param":{"num_deleted":"0","num_feature":"51","num_nodes":"15","size_leaf_vector":"1"}},{"base_weights":[1.726184E-4,1.7354159E-2,-0E0,2.8790163E-2,-0E0,-1.3488228E-2,1.15844385E-4,3.6249973E-4,-0E0,-3.6505927E-4,-0E0,1.2956122E-4,-0E0],"categories":[],"categories_nodes":[],"categories_segments":[],"categories_sizes":[],"default_left":[0,0,0,0,0,0,0,0,0,0,0,0,0],"id":57,"left_children":[1,3,5,7,-1,9,11,-1,-1,-1,-1,-1,-1],"loss_changes":[3.4270214E-3,3.5820063E-3,1.7445079E-3,1.495969E-3,0E0,4.268714E-3,1.9142516E-3,0E0,0E0,0E0,0E0,0E0,0E0],"parents":[2147483647,0,0,1,1,2,2,3,3,5,5,6,6],"right_children":[2,4,6,8,-1,10,12,-1,-1,-1,-1,-1,-1],"split_conditions":[-3.0290558E0,1.4234893E0,-2.3840106E0,8.228671E-1,-0E0,1.600562E0,-2.086183E0,3.6249973E-4,-0E0,-3.6505927E-4,-0E0,1.2956122E-4,-0E0],"split_indices":[38,31,19,46,0,31,37,0,0,0,0,0,0],"split_type":[0,0,0,0,0,0,0,0,0,0,0,0,0],"sum_hessian":[1.22E3,1E1,1.21E3,7E0,3E0,8E0,1.202E3,5E0,2E0,3E0,5E0,1E1,1.192E3],"tree_param":{"num_deleted":"0","num_feature":"51","num_nodes":"13","size_leaf_vector":"1"}}]},"name":"gbtree"},"learner_model_param":{"base_score":"[1.0632421E-3]","boost_from_average":"1","num_class":"0","num_feature":"51","num_target":"1"},"objective":{"name":"reg:squarederror","reg_loss_param":{"scale_pos_weight":"1"}}},"version":[3,2,0]}