{"learner":{"attributes":{"best_iteration":"29","best_score":"0.0147452248525698","scikit_learn":"{\"_estimator_type\": \"regressor\"}"},"feature_names":[],"feature_types":[],"gradient_booster":{"model":{"cats":{"enc":[],"feature_segments":[],"sorted_idx":[]},"gbtree_model_param":{"num_parallel_tree":"1","num_trees":"80"},"iteration_indptr":[0,1,2,3,4,5,6,7,8,9,10,11,12,13,14,15,16,17,18,19,20,21,22,23,24,25,26,27,28,29,30,31,32,33,34,35,36,37,38,39,40,41,42,43,44,45,46,47,48,49,50,51,52,53,54,55,56,57,58,59,60,61,62,63,64,65,66,67,68,69,70,71,72,73,74,75,76,77,78,79,80],"tree_info":[0,0,0,0,0,0,0,0,0,0,0,0,0,0,0,0,0,0,0,0,0,0,0,0,0,0,0,0,0,0,0,0,0,0,0,0,0,0,0,0,0,0,0,0,0,0,0,0,0,0,0,0,0,0,0,0,0,0,0,0,0,0,0,0,0,0,0,0,0,0,0,0,0,0,0,0,0,0,0,0],"trees":[{"base_weights":[8.122945E-6,-2.075916E-3,5.7378924E-4,-0E0,-4.6911137E-3,4.145596E-3,6.0998395E-6,-1.4975422E-5,1.5651509E-5,-6.4176566E-5,-0E0,-1.7881925E-5,5.5125987E-5,4.4818526E-6,-7.139838E-5],"categories":[],"categories_nodes":[],"categories_segments":[],"categories_sizes":[],"default_left":[0,0,0,0,0,0,0,0,0,0,0,0,0,0,0],"id":0,"left_children":[1,3,5,7,9,11,13,-1,-1,-1,-1,-1,-1,-1,-1],"loss_changes":[1.2868489E-3,1.38485E-3,1.6053724E-3,2.8147135E-4,1.054174E-3,1.2997717E-3,2.1330311E-3,0E0,0E0,0E0,0E0,0E0,0E0,0E0,0E0],"parents":[2147483647,0,0,1,1,2,2,3,3,4,4,5,5,6,6],"right_children":[2,4,6,8,10,12,14,-1,-1,-1,-1,-1,-1,-1,-1],"split_conditions":[-1.1800001E0,-3.5118714E-1,-7.6780266E-1,-9.584844E-1,1.8706263E0,-2.3686278E0,1.6447029E0,-1.4975422E-5,1.5651509E-5,-6.4176566E-5,-0E0,-1.7881925E-5,5.5125987E-5,4.4818526E-6,-7.139838E-5],"split_indices":[46,12,38,12,18,12,5,0,0,0,0,0,0,0,0],"split_type":[0,0,0,0,0,0,0,0,0,0,0,0,0,0,0],"sum_hessian":[1.216E3,2.21E2,9.95E2,1.16E2,1.05E2,1.11E2,8.84E2,4.7E1,6.9E1,8.1E1,2.4E1,7E0,1.04E2,8.47E2,3.7E1],"tree_param":{"num_deleted":"0","num_feature":"51","num_nodes":"15","size_leaf_vector":"1"}},{"base_weights":[2.2534875E-4,2.7994888E-3,-2.4282285E-4,-0E0,4.650223E-3,-1.3016597E-3,6.050996E-4,1.9837727E-5,-2.7119764E-5,6.629586E-5,-2.6690699E-5,-3.0410669E-5,4.4277585E-6,1.6271806E-5,-7.688898E-6],"categories":[],"categories_nodes":[],"categories_segments":[],"categories_sizes":[],"default_left":[0,0,0,0,0,0,0,0,0,0,0,0,0,0,0],"id":1,"left_children":[1,3,5,7,9,11,13,-1,-1,-1,-1,-1,-1,-1,-1],"loss_changes":[1.7094816E-3,1.4555858E-3,9.583243E-4,4.5415654E-4,2.5450182E-3,1.7562339E-3,7.8635925E-4,0E0,0E0,0E0,0E0,0E0,0E0,0E0,0E0],"parents":[2147483647,0,0,1,1,2,2,3,3,4,4,5,5,6,6],"right_children":[2,4,6,8,10,12,14,-1,-1,-1,-1,-1,-1,-1,-1],"split_conditions":[-1.1965595E0,-1.1699717E0,1.1839954E-2,-1.634285E0,1.1562159E0,5.0870353E-1,7.941477E-2,1.9837727E-5,-2.7119764E-5,6.629586E-5,-2.6690699E-5,-3.0410669E-5,4.4277585E-6,1.6271806E-5,-7.688898E-6],"split_indices":[21,43,14,21,14,21,10,0,0,0,0,0,0,0,0],"split_type":[0,0,0,0,0,0,0,0,0,0,0,0,0,0,0],"sum_hessian":[1.204E3,2.17E2,9.87E2,7.2E1,1.45E2,4.91E2,4.96E2,2.7E1,4.5E1,1.25E2,2E1,2.74E2,2.17E2,3.26E2,1.7E2],"tree_param":{"num_deleted":"0","num_feature":"51","num_nodes":"15","size_leaf_vector":"1"}},{"base_weights":[-0E0,1.8590907E-4,-6.909603E-3,3.3938342E-3,-1.6711699E-4,-0E0,-1.4375238E-2,6.329922E-7,7.696366E-5,1.7989809E-5,-6.948968E-6,8.383617E-5,-0E0,-0E0,-1.6716764E-4],"categories":[],"categories_nodes":[],"categories_segments":[],"categories_sizes":[],"default_left":[0,0,0,0,0,0,0,0,0,0,0,0,0,0,0],"id":2,"left_children":[1,3,5,7,9,11,13,-1,-1,-1,-1,-1,-1,-1,-1],"loss_changes":[1.6873332E-3,1.6411642E-3,3.2090952E-3,1.2796196E-3,9.514433E-4,5.974227E-4,1.1519641E-3,0E0,0E0,0E0,0E0,0E0,0E0,0E0,0E0],"parents":[2147483647,0,0,1,1,2,2,3,3,4,4,5,5,6,6],"right_children":[2,4,6,8,10,12,14,-1,-1,-1,-1,-1,-1,-1,-1],"split_conditions":[3.4450293E0,-7.650071E-1,-6.352338E-1,2.3755199E-1,-8.1180745E-1,1.095362E0,-1.4009423E0,6.329922E-7,7.696366E-5,1.7989809E-5,-6.948968E-6,8.383617E-5,-0E0,-0E0,-1.6716764E-4],"split_indices":[41,38,15,0,11,31,44,0,0,0,0,0,0,0,0],"split_type":[0,0,0,0,0,0,0,0,0,0,0,0,0,0,0],"sum_hessian":[1.195E3,1.162E3,3.3E1,1.42E2,1.02E3,1.1E1,2.2E1,9.4E1,4.8E1,1.75E2,8.45E2,7E0,4E0,2E0,2E1],"tree_param":{"num_deleted":"0","num_feature":"51","num_nodes":"15","size_leaf_vector":"1"}},{"base_weights":[-1.5737563E-4,-0E0,-5.3353403E-3,-6.2115886E-4,3.065962E-3,-2.4490675E-4,-0E0,-2.5529289E-5,-0E0,1.11757916E-4,9.614157E-6,4.3068826E-6,-3.935285E-5],"categories":[],"categories_nodes":[],"categories_segments":[],"categories_sizes":[],"default_left":[0,0,0,0,0,0,0,0,0,0,0,0,0],"id":3,"left_children":[1,3,5,7,9,-1,11,-1,-1,-1,-1,-1,-1],"loss_changes":[1.4356396E-3,2.4417816E-3,3.032457E-3,1.296153E-3,2.5335485E-3,0E0,3.9889297E-4,0E0,0E0,0E0,0E0,0E0,0E0],"parents":[2147483647,0,0,1,1,2,2,3,3,4,4,6,6],"right_children":[2,4,6,8,10,-1,12,-1,-1,-1,-1,-1,-1],"split_conditions":[1.6427062E0,6.127551E-1,-2.2435102E0,-4.7483084E-1,-1.1770107E0,-2.4490675E-4,1.0632339E0,-2.5529289E-5,-0E0,1.11757916E-4,9.614157E-6,4.3068826E-6,-3.935285E-5],"split_indices":[0,0,32,14,21,0,21,0,0,0,0,0,0],"split_type":[0,0,0,0,0,0,0,0,0,0,0,0,0],"sum_hessian":[1.224E3,1.174E3,5E1,9.55E2,2.19E2,6E0,4.4E1,2.54E2,7.01E2,3.4E1,1.85E2,2E1,2.4E1],"tree_param":{"num_deleted":"0","num_feature":"51","num_nodes":"13","size_leaf_vector":"1"}},{"base_weights":[-1.6210255E-5,6.874212E-5,-6.810511E-3,9.031479E-3,-5.0148286E-5,-0E0,-2.0326318E-2,-0E0,1.1077926E-4,-1.2589495E-5,3.171569E-6,-4.619644E-6,6.880177E-5,-0E0,-2.735931E-4],"categories":[],"categories_nodes":[],"categories_segments":[],"categories_sizes":[],"default_left":[0,0,0,0,0,0,0,0,0,0,0,0,0,0,0],"id":4,"left_children":[1,3,5,7,9,11,13,-1,-1,-1,-1,-1,-1,-1,-1],"loss_changes":[1.3735702E-3,2.1588649E-3,3.7961903E-3,4.7694775E-4,6.0870696E-4,4.0481737E-4,1.9465615E-3,0E0,0E0,0E0,0E0,0E0,0E0,0E0,0E0],"parents":[2147483647,0,0,1,1,2,2,3,3,4,4,5,5,6,6],"right_children":[2,4,6,8,10,12,14,-1,-1,-1,-1,-1,-1,-1,-1],"split_conditions":[3.4450293E0,-1.9035658E0,7.2414833E-1,-1.0059663E0,-6.2756217E-1,4.2995534E0,3.798347E0,-0E0,1.1077926E-4,-1.2589495E-5,3.171569E-6,-4.619644E-6,6.880177E-5,-0E0,-2.735931E-4],"split_indices":[41,21,14,45,49,41,41,0,0,0,0,0,0,0,0],"split_type":[0,0,0,0,0,0,0,0,0,0,0,0,0,0,0],"sum_hessian":[1.209E3,1.181E3,2.8E1,2.5E1,1.156E3,1.7E1,1.1E1,5E0,2E1,3.32E2,8.24E2,1E1,7E0,3E0,8E0],"tree_param":{"num_deleted":"0","num_feature":"51","num_nodes":"15","size_leaf_vector":"1"}},{"base_weights":[-0E0,2.6754432E-4,-3.8410167E-3,-1.6152818E-4,2.0846631E-3,-0E0,-6.0673025E-3,3.3877488E-5,-5.464324E-6,3.335578E-5,-5.028357E-5,1.9083267E-5,-0E0,-6.583695E-5,-0E0],"categories":[],"categories_nodes":[],"categories_segments":[],"categories_sizes":[],"default_left":[0,0,0,0,0,0,0,0,0,0,0,0,0,0,0],"id":5,"left_children":[1,3,5,7,9,11,13,-1,-1,-1,-1,-1,-1,-1,-1],"loss_changes":[1.3150498E-3,1.0984121E-3,1.2160987E-3,9.433824E-4,2.2271394E-3,5.2804815E-5,3.9109215E-4,0E0,0E0,0E0,0E0,0E0,0E0,0E0,0E0],"parents":[2147483647,0,0,1,1,2,2,3,3,4,4,5,5,6,6],"right_children":[2,4,6,8,10,12,14,-1,-1,-1,-1,-1,-1,-1,-1],"split_conditions":[1.6856555E0,6.127551E-1,-2.9013968E-1,-1.5146714E0,2.1319528E0,1.099693E0,1.5612965E0,3.3877488E-5,-5.464324E-6,3.335578E-5,-5.028357E-5,1.9083267E-5,-0E0,-6.583695E-5,-0E0],"split_indices":[49,0,39,2,0,43,43,0,0,0,0,0,0,0,0],"split_type":[0,0,0,0,0,0,0,0,0,0,0,0,0,0,0],"sum_hessian":[1.242E3,1.16E3,8.2E1,8.95E2,2.65E2,1.7E1,6.5E1,6.1E1,8.34E2,2.38E2,2.7E1,1.3E1,4E0,6.4E1,1E0],"tree_param":{"num_deleted":"0","num_feature":"51","num_nodes":"15","size_leaf_vector":"1"}},{"base_weights":[2.0190785E-4,4.461511E-3,-5.6034845E-5,1.1293255E-2,-0E0,1.419842E-3,-6.913063E-4,1.416486E-4,-0E0,-9.344525E-5,1.5726482E-5,-0E0,3.0215824E-5,-3.4909222E-5,-1.5323822E-6],"categories":[],"categories_nodes":[],"categories_segments":[],"categories_sizes":[],"default_left":[0,0,0,0,0,0,0,0,0,0,0,0,0,0,0],"id":6,"left_children":[1,3,5,7,9,11,13,-1,-1,-1,-1,-1,-1,-1,-1],"loss_changes":[1.7753347E-3,3.0888827E-3,9.829302E-4,2.212639E-3,1.0293933E-3,6.677198E-4,8.91859E-4,0E0,0E0,0E0,0E0,0E0,0E0,0E0,0E0],"parents":[2147483647,0,0,1,1,2,2,3,3,4,4,5,5,6,6],"right_children":[2,4,6,8,10,12,14,-1,-1,-1,-1,-1,-1,-1,-1],"split_conditions":[-1.0684088E0,-6.9338426E-2,-6.3356704E-1,8.173256E-1,-1.0108542E0,6.582611E-2,-3.76415E-1,1.416486E-4,-0E0,-9.344525E-5,1.5726482E-5,-0E0,3.0215824E-5,-3.4909222E-5,-1.5323822E-6],"split_indices":[18,46,29,10,28,6,28,0,0,0,0,0,0,0,0],"split_type":[0,0,0,0,0,0,0,0,0,0,0,0,0,0,0],"sum_hessian":[1.213E3,9E1,1.123E3,3.7E1,5.3E1,2.9E2,8.33E2,3.4E1,3E0,9E0,4.4E1,1.54E2,1.36E2,1.03E2,7.3E2],"tree_param":{"num_deleted":"0","num_feature":"51","num_nodes":"15","size_leaf_vector":"1"}},{"base_weights":[-2.5272567E-4,5.1591387E-3,-4.986103E-4,1.2474913E-2,-0E0,-0E0,-3.6948032E-3,-0E0,1.7988743E-4,-6.117389E-6,1.035242E-5,-5.149516E-5,1.5289139E-5],"categories":[],"categories_nodes":[],"categories_segments":[],"categories_sizes":[],"default_left":[0,0,0,0,0,0,0,0,0,0,0,0,0],"id":7,"left_children":[1,3,5,7,-1,9,11,-1,-1,-1,-1,-1,-1],"loss_changes":[1.1619179E-3,1.9341406E-3,2.1691301E-3,2.4602814E-3,0E0,6.7089184E-4,1.7454913E-3,0E0,0E0,0E0,0E0,0E0,0E0],"parents":[2147483647,0,0,1,1,2,2,3,3,5,5,6,6],"right_children":[2,4,6,8,-1,10,12,-1,-1,-1,-1,-1,-1],"split_conditions":[-2.088453E0,6.5859765E-1,1.1357695E0,-2.7428155E0,-0E0,-2.5738463E-1,1.6847662E0,-0E0,1.7988743E-4,-6.117389E-6,1.035242E-5,-5.149516E-5,1.5289139E-5],"split_indices":[13,22,41,11,0,42,13,0,0,0,0,0,0],"split_type":[0,0,0,0,0,0,0,0,0,0,0,0,0],"sum_hessian":[1.219E3,3.4E1,1.185E3,1.7E1,1.7E1,1.006E3,1.79E2,2E0,1.5E1,5.87E2,4.19E2,1.55E2,2.4E1],"tree_param":{"num_deleted":"0","num_feature":"51","num_nodes":"13","size_leaf_vector":"1"}},{"base_weights":[-0E0,3.7159577E-3,-1.9006892E-4,1.6383536E-2,-0E0,-0E0,-1.2444778E-2,-0E0,2.0977018E-4,6.046001E-6,-3.5229289E-6,3.5777093E-6,-2.1977654E-5,-1.5715876E-4,-0E0],"categories":[],"categories_nodes":[],"categories_segments":[],"categories_sizes":[],"default_left":[0,0,0,0,0,0,0,0,0,0,0,0,0,0,0],"id":8,"left_children":[1,3,5,7,9,11,13,-1,-1,-1,-1,-1,-1,-1,-1],"loss_changes":[1.0563318E-3,3.1456007E-3,3.1334674E-3,1.7799628E-3,1.7831546E-5,8.192738E-4,1.3944064E-3,0E0,0E0,0E0,0E0,0E0,0E0,0E0,0E0],"parents":[2147483647,0,0,1,1,2,2,3,3,4,4,5,5,6,6],"right_children":[2,4,6,8,10,12,14,-1,-1,-1,-1,-1,-1,-1,-1],"split_conditions":[-1.5468968E0,-1.0729486E0,3.4450293E0,-2.7428155E0,8.614819E-1,1.0303609E0,2.585796E0,-0E0,2.0977018E-4,6.046001E-6,-3.5229289E-6,3.5777093E-6,-2.1977654E-5,-1.5715876E-4,-0E0],"split_indices":[13,33,41,11,14,11,10,0,0,0,0,0,0,0,0],"split_type":[0,0,0,0,0,0,0,0,0,0,0,0,0,0,0],"sum_hessian":[1.217E3,7.2E1,1.145E3,1.4E1,5.8E1,1.126E3,1.9E1,2E0,1.2E1,4.1E1,1.7E1,9.84E2,1.42E2,1.7E1,2E0],"tree_param":{"num_deleted":"0","num_feature":"51","num_nodes":"15","size_leaf_vector":"1"}},{"base_weights":[-8.0531E-5,1.8925797E-4,-3.7815648E-3,1.5562824E-2,-0E0,3.4228773E-3,-5.507192E-3,2.269075E-4,-0E0,-4.2985066E-5,2.9348002E-6,9.416144E-5,-0E0,-2.1960535E-5,-2.565427E-4],"categories":[],"categories_nodes":[],"categories_segments":[],"categories_sizes":[],"default_left":[0,0,0,0,0,0,0,0,0,0,0,0,0,0,0],"id":9,"left_children":[1,3,5,7,9,11,13,-1,-1,-1,-1,-1,-1,-1,-1],"loss_changes":[1.5689862E-3,2.7457557E-3,1.5731665E-3,2.1059492E-3,1.2622295E-3,4.532956E-4,3.7013725E-3,0E0,0E0,0E0,0E0,0E0,0E0,0E0,0E0],"parents":[2147483647,0,0,1,1,2,2,3,3,4,4,5,5,6,6],"right_children":[2,4,6,8,10,12,14,-1,-1,-1,-1,-1,-1,-1,-1],"split_conditions":[1.2941314E0,-2.294262E0,-1.4189562E0,1.4600841E0,-1.4241014E0,7.935969E-1,2.316424E0,2.269075E-4,-0E0,-4.2985066E-5,2.9348002E-6,9.416144E-5,-0E0,-2.1960535E-5,-2.565427E-4],"split_indices":[15,31,2,0,24,38,42,0,0,0,0,0,0,0,0],"split_type":[0,0,0,0,0,0,0,0,0,0,0,0,0,0,0],"sum_hessian":[1.209E3,1.103E3,1.06E2,1E1,1.093E3,9E0,9.7E1,8E0,2E0,6.2E1,1.031E3,5E0,4E0,8.9E1,8E0],"tree_param":{"num_deleted":"0","num_feature":"51","num_nodes":"15","size_leaf_vector":"1"}},{"base_weights":[-0E0,5.6340983E-3,-2.3213332E-4,1.8625522E-2,7.5263146E-4,8.3392326E-5,-1.2019908E-2,-0E0,2.1005822E-4,2.5340198E-5,-0E0,5.1101364E-5,-1.0375318E-6,-0E0,-2.884026E-4],"categories":[],"categories_nodes":[],"categories_segments":[],"categories_sizes":[],"default_left":[0,0,0,0,0,0,0,0,0,0,0,0,0,0,0],"id":10,"left_children":[1,3,5,7,9,11,13,-1,-1,-1,-1,-1,-1,-1,-1],"loss_changes":[1.8242206E-3,1.5608122E-3,5.507736E-3,4.5493338E-4,2.1389054E-4,1.5574058E-3,5.66636E-3,0E0,0E0,0E0,0E0,0E0,0E0,0E0,0E0],"parents":[2147483647,0,0,1,1,2,2,3,3,4,4,5,5,6,6],"right_children":[2,4,6,8,10,12,14,-1,-1,-1,-1,-1,-1,-1,-1],"split_conditions":[-1.9915575E0,-2.122244E0,2.2800522E0,-1.7606708E-1,9.226585E-1,-1.0684088E0,1.1683377E0,-0E0,2.1005822E-4,2.5340198E-5,-0E0,5.1101364E-5,-1.0375318E-6,-0E0,-2.884026E-4],"split_indices":[38,28,8,9,5,18,14,0,0,0,0,0,0,0,0],"split_type":[0,0,0,0,0,0,0,0,0,0,0,0,0,0,0],"sum_hessian":[1.212E3,5.4E1,1.158E3,8E0,4.6E1,1.121E3,3.7E1,1E0,7E0,3.6E1,1E1,5.8E1,1.063E3,2.5E1,1.2E1],"tree_param":{"num_deleted":"0","num_feature":"51","num_nodes":"15","size_leaf_vector":"1"}},{"base_weights":[-2.5229887E-5,-1.8176198E-3,4.8719614E-4,-3.5054612E-3,-0E0,9.659268E-4,-3.4449946E-3,-0E0,-5.23218E-5,-9.469526E-6,1.159651E-5,1.2389511E-4,4.6228333E-6,-1.752229E-4,-0E0],"categories":[],"categories_nodes":[],"categories_segments":[],"categories_sizes":[],"default_left":[0,0,0,0,1,0,0,0,0,0,0,0,0,0,0],"id":11,"left_children":[1,3,5,7,9,11,13,-1,-1,-1,-1,-1,-1,-1,-1],"loss_changes":[1.2489307E-3,1.2683253E-3,1.4541226E-3,8.578461E-4,1.602599E-4,3.467179E-3,2.3277889E-3,0E0,0E0,0E0,0E0,0E0,0E0,0E0,0E0],"parents":[2147483647,0,0,1,1,2,2,3,3,4,4,5,5,6,6],"right_children":[2,4,6,8,10,12,14,-1,-1,-1,-1,-1,-1,-1,-1],"split_conditions":[-9.7452796E-1,3.026404E-1,1.5079795E0,-1.1528872E0,-3.0401438E-1,-2.0636551E0,-1.7890573E0,-0E0,-5.23218E-5,-9.469526E-6,1.159651E-5,1.2389511E-4,4.6228333E-6,-1.752229E-4,-0E0],"split_indices":[45,30,1,7,27,36,23,0,0,0,0,0,0,0,0],"split_type":[0,0,0,0,0,0,0,0,0,0,0,0,0,0,0],"sum_hessian":[1.212E3,3.12E2,9E2,1.86E2,1.26E2,8.26E2,7.4E1,7.2E1,1.14E2,2.8E1,9.8E1,2.5E1,8.01E2,9E0,6.5E1],"tree_param":{"num_deleted":"0","num_feature":"51","num_nodes":"15","size_leaf_vector":"1"}},{"base_weights":[9.728404E-5,6.5989085E-3,-6.486248E-5,2.2011265E-4,1.2804607E-3,6.180465E-5,-6.7355447E-3,2.4224151E-5,-0E0,-1.4880173E-5,8.284378E-6,-1.16302275E-4,-0E0],"categories":[],"categories_nodes":[],"categories_segments":[],"categories_sizes":[],"default_left":[0,0,0,0,0,0,0,0,0,0,0,0,0],"id":12,"left_children":[1,3,5,-1,7,9,11,-1,-1,-1,-1,-1,-1],"loss_changes":[1.9312289E-3,1.2762073E-3,1.6553297E-3,0E0,1.4355399E-4,1.2826533E-3,1.9285318E-3,0E0,0E0,0E0,0E0,0E0,0E0],"parents":[2147483647,0,0,1,1,2,2,4,4,5,5,6,6],"right_children":[2,4,6,-1,8,10,12,-1,-1,-1,-1,-1,-1],"split_conditions":[-1.9915575E0,-2.1241007E0,3.2099118E0,2.2011265E-4,8.4278446E-1,-9.668182E-1,5.564432E-1,2.4224151E-5,-0E0,-1.4880173E-5,8.284378E-6,-1.16302275E-4,-0E0],"split_indices":[38,16,41,0,5,45,11,0,0,0,0,0,0],"split_type":[0,0,0,0,0,0,0,0,0,0,0,0,0],"sum_hessian":[1.21E3,4.3E1,1.167E3,5E0,3.8E1,1.132E3,3.5E1,3.4E1,4E0,3.31E2,8.01E2,2.5E1,1E1],"tree_param":{"num_deleted":"0","num_feature":"51","num_nodes":"13","size_leaf_vector":"1"}},{"base_weights":[-0E0,6.175708E-3,-2.2307571E-4,2.4907495E-4,1.3121255E-3,2.2822198E-5,-9.3586985E-3,3.659722E-5,-0E0,6.2900304E-5,-1.0571056E-6,-0E0,-1.3496052E-4],"categories":[],"categories_nodes":[],"categories_segments":[],"categories_sizes":[],"default_left":[0,0,0,0,0,0,0,0,0,0,0,0,0],"id":13,"left_children":[1,3,5,-1,7,9,11,-1,-1,-1,-1,-1,-1],"loss_changes":[2.060863E-3,2.1119541E-3,3.5768338E-3,0E0,3.4011784E-4,1.5349274E-3,1.5563003E-3,0E0,0E0,0E0,0E0,0E0,0E0],"parents":[2147483647,0,0,1,1,2,2,4,4,5,5,6,6],"right_children":[2,4,6,-1,8,10,12,-1,-1,-1,-1,-1,-1],"split_conditions":[-1.9915575E0,-2.9287946E0,2.2800522E0,2.4907495E-4,1.1876981E0,-1.0999552E0,-1.0469307E0,3.659722E-5,-0E0,6.2900304E-5,-1.0571056E-6,-0E0,-1.3496052E-4],"split_indices":[38,16,8,0,8,16,7,0,0,0,0,0,0],"split_type":[0,0,0,0,0,0,0,0,0,0,0,0,0],"sum_hessian":[1.226E3,5.1E1,1.175E3,5E0,4.6E1,1.135E3,4E1,3E1,1.6E1,3.7E1,1.098E3,1.3E1,2.7E1],"tree_param":{"num_deleted":"0","num_feature":"51","num_nodes":"13","size_leaf_vector":"1"}},{"base_weights":[-1.8417748E-4,4.5690425E-3,-4.9188803E-4,1.3090623E-2,-0E0,-1.3553159E-2,-2.1337741E-4,1.803287E-4,-0E0,-7.1265623E-7,1.3198065E-5,-0E0,-2.5943972E-4,-8.247013E-6,1.4696932E-5],"categories":[],"categories_nodes":[],"categories_segments":[],"categories_sizes":[],"default_left":[0,0,0,0,0,0,0,0,0,0,0,0,0,0,0],"id":14,"left_children":[1,3,5,7,9,11,13,-1,-1,-1,-1,-1,-1,-1,-1],"loss_changes":[1.3544515E-3,1.7106385E-3,2.8041855E-3,9.1210846E-4,3.9281385E-5,3.3634987E-3,1.1056365E-3,0E0,0E0,0E0,0E0,0E0,0E0,0E0,0E0],"parents":[2147483647,0,0,1,1,2,2,3,3,4,4,5,5,6,6],"right_children":[2,4,6,8,10,12,14,-1,-1,-1,-1,-1,-1,-1,-1],"split_conditions":[-1.9915575E0,-1.4217794E0,-2.50389E0,-5.3219247E-1,-1.3774589E0,-1.1881077E-1,5.6104153E-1,1.803287E-4,-0E0,-7.1265623E-7,1.3198065E-5,-0E0,-2.5943972E-4,-8.247013E-6,1.4696932E-5],"split_indices":[38,29,16,43,30,14,6,0,0,0,0,0,0,0,0],"split_type":[0,0,0,0,0,0,0,0,0,0,0,0,0,0,0],"sum_hessian":[1.201E3,5.2E1,1.149E3,1.5E1,3.7E1,1.5E1,1.134E3,1E1,5E0,1.6E1,2.1E1,7E0,8E0,8.76E2,2.58E2],"tree_param":{"num_deleted":"0","num_feature":"51","num_nodes":"15","size_leaf_vector":"1"}},{"base_weights":[-7.1665665E-5,-8.035619E-3,4.1673924E-5,-0E0,-1.1673222E-2,3.4572445E-3,-5.254641E-5,-0E0,-1.989023E-4,1.07281245E-4,-0E0,-2.3829001E-5,4.128117E-6],"categories":[],"categories_nodes":[],"categories_segments":[],"categories_sizes":[],"default_left":[0,0,0,0,0,0,0,0,0,0,0,0,0],"id":15,"left_children":[1,3,5,-1,7,9,11,-1,-1,-1,-1,-1,-1],"loss_changes":[1.9006556E-3,1.1610932E-3,7.241863E-4,0E0,1.08808E-3,1.6362707E-3,1.4266227E-3,0E0,0E0,0E0,0E0,0E0,0E0],"parents":[2147483647,0,0,1,1,2,2,4,4,5,5,6,6],"right_children":[2,4,6,-1,8,10,12,-1,-1,-1,-1,-1,-1],"split_conditions":[-2.3942935E0,-6.873849E-1,-1.5459998E0,-0E0,6.739927E-1,-1.554923E0,-6.4731884E-1,-0E0,-1.989023E-4,1.07281245E-4,-0E0,-2.3829001E-5,4.128117E-6],"split_indices":[6,12,2,0,34,21,2,0,0,0,0,0,0],"split_type":[0,0,0,0,0,0,0,0,0,0,0,0,0],"sum_hessian":[1.218E3,2.8E1,1.19E3,7E0,2.1E1,5.9E1,1.131E3,1.2E1,9E0,1.9E1,4E1,2.23E2,9.08E2],"tree_param":{"num_deleted":"0","num_feature":"51","num_nodes":"13","size_leaf_vector":"1"}},{"base_weights":[5.7596276E-6,7.095403E-4,-1.8575691E-3,1.1185812E-2,4.7696164E-4,-0E0,-3.474075E-3,-0E0,1.3565928E-4,-8.32005E-6,1.1376439E-5,-9.808251E-6,1.3638913E-5,-0E0,-5.7861325E-5],"categories":[],"categories_nodes":[],"categories_segments":[],"categories_sizes":[],"default_left":[0,0,0,0,0,0,0,0,0,0,0,0,0,0,0],"id":16,"left_children":[1,3,5,7,9,11,13,-1,-1,-1,-1,-1,-1,-1,-1],"loss_changes":[1.4706594E-3,1.0588248E-3,1.1088544E-3,4.3454184E-4,8.1679976E-4,1.8594941E-4,1.4474045E-3,0E0,0E0,0E0,0E0,0E0,0E0,0E0,0E0],"parents":[2147483647,0,0,1,1,2,2,3,3,4,4,5,5,6,6],"right_children":[2,4,6,8,10,12,14,-1,-1,-1,-1,-1,-1,-1,-1],"split_conditions":[1.6406308E0,-3.168258E0,-6.089738E-1,-2.404829E0,-6.3903815E-1,-4.292067E-1,-4.1501078E-1,-0E0,1.3565928E-4,-8.32005E-6,1.1376439E-5,-9.808251E-6,1.3638913E-5,-0E0,-5.7861325E-5],"split_indices":[32,29,42,3,9,41,9,0,0,0,0,0,0,0,0],"split_type":[0,0,0,0,0,0,0,0,0,0,0,0,0,0,0],"sum_hessian":[1.206E3,9.15E2,2.91E2,9E0,9.06E2,1.17E2,1.74E2,1E0,8E0,2.53E2,6.53E2,4E1,7.7E1,6.9E1,1.05E2],"tree_param":{"num_deleted":"0","num_feature":"51","num_nodes":"15","size_leaf_vector":"1"}},{"base_weights":[3.930597E-5,4.9773213E-3,-1.6354061E-4,8.728377E-3,-0E0,2.1067604E-4,-2.6510612E-3,1.188043E-4,-0E0,-0E0,-1.1386725E-5,-1.56863E-5,9.532416E-6,-0E0,-1.2231302E-4],"categories":[],"categories_nodes":[],"categories_segments":[],"categories_sizes":[],"default_left":[0,0,0,0,0,0,0,0,0,0,0,0,0,0,0],"id":17,"left_children":[1,3,5,7,9,11,13,-1,-1,-1,-1,-1,-1,-1,-1],"loss_changes":[1.7011178E-3,1.9465401E-3,1.315844E-3,1.5330128E-3,2.2690067E-5,1.2176937E-3,3.7080424E-3,0E0,0E0,0E0,0E0,0E0,0E0,0E0,0E0],"parents":[2147483647,0,0,1,1,2,2,3,3,4,4,5,5,6,6],"right_children":[2,4,6,8,10,12,14,-1,-1,-1,-1,-1,-1,-1,-1],"split_conditions":[-1.5459998E0,1.5023936E0,1.0511628E0,7.892828E-2,-1.4241014E0,-9.7452796E-1,1.0865686E0,1.188043E-4,-0E0,-0E0,-1.1386725E-5,-1.56863E-5,9.532416E-6,-0E0,-1.2231302E-4],"split_indices":[2,32,41,11,40,45,14,0,0,0,0,0,0,0,0],"split_type":[0,0,0,0,0,0,0,0,0,0,0,0,0,0,0],"sum_hessian":[1.215E3,6.6E1,1.149E3,4.6E1,2E1,9.65E2,1.84E2,3.5E1,1.1E1,4E0,1.6E1,2.44E2,7.21E2,1.52E2,3.2E1],"tree_param":{"num_deleted":"0","num_feature":"51","num_nodes":"15","size_leaf_vector":"1"}},{"base_weights":[-0E0,1.5304632E-4,-7.2425203E-3,-1.695143E-3,9.633941E-4,-9.563072E-3,-0E0,-0E0,-2.8221826E-5,-2.674645E-5,1.3585041E-5,-0E0,-1.0271703E-4],"categories":[],"categories_nodes":[],"categories_segments":[],"categories_sizes":[],"default_left":[0,0,0,0,0,0,0,0,0,0,0,0,0],"id":18,"left_children":[1,3,5,7,9,11,-1,-1,-1,-1,-1,-1,-1],"loss_changes":[2.0473448E-3,1.7107604E-3,5.86909E-4,6.2973896E-4,1.1179284E-3,2.9507466E-4,0E0,0E0,0E0,0E0,0E0,0E0,0E0],"parents":[2147483647,0,0,1,1,2,2,3,3,4,4,5,5],"right_children":[2,4,6,8,10,12,-1,-1,-1,-1,-1,-1,-1],"split_conditions":[2.082868E0,-9.7452796E-1,1.4106935E0,-1.4656627E-1,-1.4241014E0,-2.1476452E0,-0E0,-0E0,-2.8221826E-5,-2.674645E-5,1.3585041E-5,-0E0,-1.0271703E-4],"split_indices":[17,45,43,13,24,38,0,0,0,0,0,0,0],"split_type":[0,0,0,0,0,0,0,0,0,0,0,0,0],"sum_hessian":[1.225E3,1.188E3,3.7E1,3.24E2,8.64E2,2.7E1,1E1,1.29E2,1.95E2,5.9E1,8.05E2,1E0,2.6E1],"tree_param":{"num_deleted":"0","num_feature":"51","num_nodes":"13","size_leaf_vector":"1"}},{"base_weights":[-0E0,2.4602388E-4,-5.8223167E-3,-1.940905E-3,1.1159542E-3,3.5412582E-3,-1.0503405E-2,-0E0,-2.8348397E-5,4.645474E-5,3.7046152E-6,1.1515619E-4,-0E0,-1.2492917E-4,-0E0],"categories":[],"categories_nodes":[],"categories_segments":[],"categories_sizes":[],"default_left":[0,0,0,0,0,0,0,0,0,0,0,0,0,0,0],"id":19,"left_children":[1,3,5,7,9,11,13,-1,-1,-1,-1,-1,-1,-1,-1],"loss_changes":[1.7494113E-3,2.164724E-3,2.9216777E-3,6.9297967E-4,1.8047305E-3,1.1281146E-3,1.540788E-3,0E0,0E0,0E0,0E0,0E0,0E0,0E0,0E0],"parents":[2147483647,0,0,1,1,2,2,3,3,4,4,5,5,6,6],"right_children":[2,4,6,8,10,12,14,-1,-1,-1,-1,-1,-1,-1,-1],"split_conditions":[2.925037E0,-9.7452796E-1,-2.9584334E0,-1.0153065E0,-1.1965595E0,2.7358947E0,2.7358947E0,-0E0,-2.8348397E-5,4.645474E-5,3.7046152E-6,1.1515619E-4,-0E0,-1.2492917E-4,-0E0],"split_indices":[41,45,29,49,21,0,11,0,0,0,0,0,0,0,0],"split_type":[0,0,0,0,0,0,0,0,0,0,0,0,0,0,0],"sum_hessian":[1.226E3,1.178E3,4.8E1,3.02E2,8.76E2,9E0,3.9E1,7.5E1,2.27E2,1.28E2,7.48E2,8E0,1E0,3.7E1,2E0],"tree_param":{"num_deleted":"0","num_feature":"51","num_nodes":"15","size_leaf_vector":"1"}},{"base_weights":[-0E0,5.510534E-3,-2.6418554E-4,1.9788802E-2,2.1993442E-4,-0E0,-8.913921E-3,2.4554823E-4,-0E0,-0E0,4.0278213E-5,2.6165444E-5,-4.2876977E-6,-0E0,-2.2918642E-4],"categories":[],"categories_nodes":[],"categories_segments":[],"categories_sizes":[],"default_left":[0,0,0,0,0,0,0,0,0,0,0,0,0,0,0],"id":20,"left_children":[1,3,5,7,9,11,13,-1,-1,-1,-1,-1,-1,-1,-1],"loss_changes":[1.9504584E-3,2.6383456E-3,3.1350984E-3,1.2245621E-3,4.436509E-4,1.3941908E-3,3.3477542E-3,0E0,0E0,0E0,0E0,0E0,0E0,0E0,0E0],"parents":[2147483647,0,0,1,1,2,2,3,3,4,4,5,5,6,6],"right_children":[2,4,6,8,10,12,14,-1,-1,-1,-1,-1,-1,-1,-1],"split_conditions":[-1.6997101E0,-2.0658252E0,2.2800522E0,9.0394475E-2,1.5783997E-1,-1.2617849E0,1.1683377E0,2.4554823E-4,-0E0,-0E0,4.0278213E-5,2.6165444E-5,-4.2876977E-6,-0E0,-2.2918642E-4],"split_indices":[38,21,8,50,21,21,14,0,0,0,0,0,0,0,0],"split_type":[0,0,0,0,0,0,0,0,0,0,0,0,0,0,0],"sum_hessian":[1.247E3,6E1,1.187E3,1E1,5E1,1.148E3,3.9E1,8E0,2E0,2.4E1,2.6E1,1.76E2,9.72E2,2.8E1,1.1E1],"tree_param":{"num_deleted":"0","num_feature":"51","num_nodes":"15","size_leaf_vector":"1"}},{"base_weights":[-1.2028524E-4,-0E0,-1.009368E-2,-3.7474898E-4,2.3479327E-3,-0E0,-2.040981E-2,-0E0,-2.827788E-5,4.3713393E-5,-3.1083786E-5,7.708905E-5,-0E0,-2.3641165E-4,-0E0],"categories":[],"categories_nodes":[],"categories_segments":[],"categories_sizes":[],"default_left":[0,0,0,0,0,0,0,0,0,0,0,0,0,0,0],"id":21,"left_children":[1,3,5,7,9,11,13,-1,-1,-1,-1,-1,-1,-1,-1],"loss_changes":[2.0707997E-3,1.1828976E-3,3.1184154E-3,8.518129E-4,2.2277809E-3,2.6742247E-4,1.2204E-3,0E0,0E0,0E0,0E0,0E0,0E0,0E0,0E0],"parents":[2147483647,0,0,1,1,2,2,3,3,4,4,5,5,6,6],"right_children":[2,4,6,8,10,12,14,-1,-1,-1,-1,-1,-1,-1,-1],"split_conditions":[3.306706E0,8.8515735E-1,-2.1137264E0,7.2923374E-1,1.2046143E0,8.173256E-1,2.1275146E0,-0E0,-2.827788E-5,4.3713393E-5,-3.1083786E-5,7.708905E-5,-0E0,-2.3641165E-4,-0E0],"split_indices":[42,0,37,17,49,10,2,0,0,0,0,0,0,0,0],"split_type":[0,0,0,0,0,0,0,0,0,0,0,0,0,0,0],"sum_hessian":[1.228E3,1.209E3,1.9E1,1.022E3,1.87E2,8E0,1.1E1,8.99E2,1.23E2,1.5E2,3.7E1,3E0,5E0,1E1,1E0],"tree_param":{"num_deleted":"0","num_feature":"51","num_nodes":"15","size_leaf_vector":"1"}},{"base_weights":[-0E0,-1.3364519E-3,1.0795272E-3,-1.3558715E-4,-3.8843113E-3,-2.2738108E-3,1.5949381E-3,-1.2482022E-5,1.6142521E-5,-0E0,-5.7461522E-5,-0E0,-1.03362836E-4,3.607009E-5,1.9431666E-6],"categories":[],"categories_nodes":[],"categories_segments":[],"categories_sizes":[],"default_left":[0,0,0,0,0,0,0,0,0,0,0,0,0,0,0],"id":22,"left_children":[1,3,5,7,9,11,13,-1,-1,-1,-1,-1,-1,-1,-1],"loss_changes":[1.7492464E-3,1.3090856E-3,1.0497438E-3,7.61725E-4,1.4466725E-3,1.7705575E-3,1.2660245E-3,0E0,0E0,0E0,0E0,0E0,0E0,0E0,0E0],"parents":[2147483647,0,0,1,1,2,2,3,3,4,4,5,5,6,6],"right_children":[2,4,6,8,10,12,14,-1,-1,-1,-1,-1,-1,-1,-1],"split_conditions":[-3.6311742E-2,3.1548002E-1,-5.4655856E-1,-2.485236E-1,-1.5459998E0,4.397221E-1,7.0493317E-1,-1.2482022E-5,1.6142521E-5,-0E0,-5.7461522E-5,-0E0,-1.03362836E-4,3.607009E-5,1.9431666E-6],"split_indices":[30,5,2,5,2,3,46,0,0,0,0,0,0,0,0],"split_type":[0,0,0,0,0,0,0,0,0,0,0,0,0,0,0],"sum_hessian":[1.2E3,5.58E2,6.42E2,4.07E2,1.51E2,5.9E1,5.83E2,2.84E2,1.23E2,3.9E1,1.12E2,4.1E1,1.8E1,2.09E2,3.74E2],"tree_param":{"num_deleted":"0","num_feature":"51","num_nodes":"15","size_leaf_vector":"1"}},{"base_weights":[-5.3176725E-5,-2.193793E-3,5.626324E-4,-3.0759326E-3,1.1867657E-3,2.6033598E-3,-3.986113E-4,-0E0,-3.9983064E-5,3.510873E-5,-0E0,3.4086646E-5,-1.4157355E-5,1.1220869E-5,-1.6386797E-5],"categories":[],"categories_nodes":[],"categories_segments":[],"categories_sizes":[],"default_left":[0,0,0,0,0,0,0,0,0,0,0,0,0,0,0],"id":23,"left_children":[1,3,5,7,9,11,13,-1,-1,-1,-1,-1,-1,-1,-1],"loss_changes":[1.7988903E-3,1.1292882E-3,2.0414493E-3,8.8284677E-4,2.5446128E-4,1.2762265E-3,1.1830509E-3,0E0,0E0,0E0,0E0,0E0,0E0,0E0,0E0],"parents":[2147483647,0,0,1,1,2,2,3,3,4,4,5,5,6,6],"right_children":[2,4,6,8,10,12,14,-1,-1,-1,-1,-1,-1,-1,-1],"split_conditions":[-9.7452796E-1,1.0054275E0,1.8188569E-1,-6.048703E-1,8.263913E-1,1.4163245E0,4.016666E-2,-0E0,-3.9983064E-5,3.510873E-5,-0E0,3.4086646E-5,-1.4157355E-5,1.1220869E-5,-1.6386797E-5],"split_indices":[45,50,39,12,12,50,41,0,0,0,0,0,0,0,0],"split_type":[0,0,0,0,0,0,0,0,0,0,0,0,0,0,0],"sum_hessian":[1.238E3,3.12E2,9.26E2,2.71E2,4.1E1,3.29E2,5.97E2,5.6E1,2.15E2,2.4E1,1.7E1,2.95E2,3.4E1,2.32E2,3.65E2],"tree_param":{"num_deleted":"0","num_feature":"51","num_nodes":"15","size_leaf_vector":"1"}},{"base_weights":[-0E0,3.365016E-4,-5.9600887E-3,-1.5373221E-3,1.22267E-3,1.9263035E-2,-1.1986611E-2,-2.1013508E-5,4.674984E-6,5.625639E-5,5.8036685E-6,-0E0,2.4123494E-4,-1.711468E-5,-2.4452494E-4],"categories":[],"categories_nodes":[],"categories_segments":[],"categories_sizes":[],"default_left":[0,0,0,0,0,0,0,0,0,0,0,0,0,0,0],"id":24,"left_children":[1,3,5,7,9,11,13,-1,-1,-1,-1,-1,-1,-1,-1],"loss_changes":[1.9982718E-3,1.9266206E-3,7.599111E-3,5.5214955E-4,1.7401581E-3,9.996458E-4,3.2769549E-3,0E0,0E0,0E0,0E0,0E0,0E0,0E0,0E0],"parents":[2147483647,0,0,1,1,2,2,3,3,4,4,5,5,6,6],"right_children":[2,4,6,8,10,12,14,-1,-1,-1,-1,-1,-1,-1,-1],"split_conditions":[2.7094104E0,-9.668182E-1,-1.9915575E0,1.0273726E0,-7.650071E-1,-6.3903815E-1,7.2414833E-1,-2.1013508E-5,4.674984E-6,5.625639E-5,5.8036685E-6,-0E0,2.4123494E-4,-1.711468E-5,-2.4452494E-4],"split_indices":[41,45,38,50,38,9,14,0,0,0,0,0,0,0,0],"split_type":[0,0,0,0,0,0,0,0,0,0,0,0,0,0,0],"sum_hessian":[1.227E3,1.176E3,5.1E1,3.41E2,8.35E2,6E0,4.5E1,3.05E2,3.6E1,8.5E1,7.5E2,1E0,5E0,3E1,1.5E1],"tree_param":{"num_deleted":"0","num_feature":"51","num_nodes":"15","size_leaf_vector":"1"}},{"base_weights":[-0E0,4.8672124E-3,-2.2323537E-4,2.5433023E-4,-0E0,-0E0,-1.29329255E-2,-0E0,1.282373E-5,-9.035124E-6,8.071954E-6,-0E0,-1.8759607E-4],"categories":[],"categories_nodes":[],"categories_segments":[],"categories_sizes":[],"default_left":[0,0,0,0,0,0,0,0,0,0,0,0,0],"id":25,"left_children":[1,3,5,-1,7,9,11,-1,-1,-1,-1,-1,-1],"loss_changes":[1.1856372E-3,2.43235E-3,3.3684673E-3,0E0,5.8379057E-5,8.7131024E-4,2.377886E-3,0E0,0E0,0E0,0E0,0E0,0E0],"parents":[2147483647,0,0,1,1,2,2,4,4,5,5,6,6],"right_children":[2,4,6,-1,8,10,12,-1,-1,-1,-1,-1,-1],"split_conditions":[-1.9915575E0,-2.9287946E0,3.951156E0,2.5433023E-4,-5.555881E-1,-3.6311742E-2,-3.903376E0,-0E0,1.282373E-5,-9.035124E-6,8.071954E-6,-0E0,-1.8759607E-4],"split_indices":[38,16,41,0,31,30,36,0,0,0,0,0,0],"split_type":[0,0,0,0,0,0,0,0,0,0,0,0,0],"sum_hessian":[1.256E3,4.6E1,1.21E3,4E0,4.2E1,1.191E3,1.9E1,8E0,3.4E1,5.65E2,6.26E2,4E0,1.5E1],"tree_param":{"num_deleted":"0","num_feature":"51","num_nodes":"13","size_leaf_vector":"1"}},{"base_weights":[-0E0,2.4550516E-4,-6.517633E-3,8.727095E-3,-0E0,-0E0,-8.718152E-3,1.9663112E-4,-0E0,2.6653518E-6,-6.6976645E-5,-1.12782145E-4,-0E0],"categories":[],"categories_nodes":[],"categories_segments":[],"categories_sizes":[],"default_left":[0,0,0,0,0,0,0,0,0,0,0,0,0],"id":26,"left_children":[1,3,5,7,9,-1,11,-1,-1,-1,-1,-1,-1],"loss_changes":[1.578814E-3,2.1759945E-3,3.5412738E-4,3.7461042E-3,1.8506681E-3,0E0,6.182125E-4,0E0,0E0,0E0,0E0,0E0,0E0],"parents":[2147483647,0,0,1,1,2,2,3,3,4,4,6,6],"right_children":[2,4,6,8,10,-1,12,-1,-1,-1,-1,-1,-1],"split_conditions":[2.082868E0,-2.0636551E0,8.6029075E-2,-1.00577086E-1,2.516034E0,-0E0,1.8266388E0,1.9663112E-4,-0E0,2.6653518E-6,-6.6976645E-5,-1.12782145E-4,-0E0],"split_indices":[17,36,34,43,41,0,11,0,0,0,0,0,0],"split_type":[0,0,0,0,0,0,0,0,0,0,0,0,0],"sum_hessian":[1.207E3,1.173E3,3.4E1,2.8E1,1.145E3,1.1E1,2.3E1,1.4E1,1.4E1,1.107E3,3.8E1,1.8E1,5E0],"tree_param":{"num_deleted":"0","num_feature":"51","num_nodes":"13","size_leaf_vector":"1"}},{"base_weights":[-0E0,-4.1365423E-3,2.8641307E-4,-0E0,-5.286349E-3,5.294422E-3,-0E0,-0E0,-6.877218E-5,7.283452E-5,-0E0,2.2532638E-6,-9.3714596E-5],"categories":[],"categories_nodes":[],"categories_segments":[],"categories_sizes":[],"default_left":[0,0,0,0,0,0,0,0,0,0,0,0,0],"id":27,"left_children":[1,3,5,-1,7,9,11,-1,-1,-1,-1,-1,-1],"loss_changes":[1.2691057E-3,4.9065414E-4,1.5988664E-3,0E0,4.8921735E-4,1.30138E-3,2.2075686E-3,0E0,0E0,0E0,0E0,0E0,0E0],"parents":[2147483647,0,0,1,1,2,2,4,4,5,5,6,6],"right_children":[2,4,6,-1,8,10,12,-1,-1,-1,-1,-1,-1],"split_conditions":[-1.4241014E0,-1.849302E0,-1.5459998E0,-0E0,-7.800895E-1,1.1762508E0,2.626256E0,-0E0,-6.877218E-5,7.283452E-5,-0E0,2.2532638E-6,-9.3714596E-5],"split_indices":[24,44,2,0,5,7,42,0,0,0,0,0,0],"split_type":[0,0,0,0,0,0,0,0,0,0,0,0,0],"sum_hessian":[1.248E3,6.7E1,1.181E3,9E0,5.8E1,5.9E1,1.122E3,1.4E1,4.4E1,5.5E1,4E0,1.099E3,2.3E1],"tree_param":{"num_deleted":"0","num_feature":"51","num_nodes":"13","size_leaf_vector":"1"}},{"base_weights":[-0E0,2.481435E-4,-8.805999E-3,4.3152138E-3,-0E0,-0E0,-1.7143864E-2,6.239907E-5,-0E0,5.628218E-6,-1.2543853E-5,1.2762178E-4,-3.8289865E-5,-2.168209E-4,-0E0],"categories":[],"categories_nodes":[],"categories_segments":[],"categories_sizes":[],"default_left":[0,0,0,0,0,0,0,0,0,0,0,0,0,0,0],"id":28,"left_children":[1,3,5,7,9,11,13,-1,-1,-1,-1,-1,-1,-1,-1],"loss_changes":[2.9802804E-3,1.1287389E-3,3.7050603E-3,8.0416794E-4,7.7670417E-4,1.375491E-3,2.0840717E-3,0E0,0E0,0E0,0E0,0E0,0E0,0E0,0E0],"parents":[2147483647,0,0,1,1,2,2,3,3,4,4,5,5,6,6],"right_children":[2,4,6,8,10,12,14,-1,-1,-1,-1,-1,-1,-1,-1],"split_conditions":[2.3634152E0,-1.0684088E0,-6.352338E-1,1.1731063E0,3.8009703E-1,-1.4216492E0,1.1499966E0,6.239907E-5,-0E0,5.628218E-6,-1.2543853E-5,1.2762178E-4,-3.8289865E-5,-2.168209E-4,-0E0],"split_indices":[8,33,15,47,11,38,16,0,0,0,0,0,0,0,0],"split_type":[0,0,0,0,0,0,0,0,0,0,0,0,0,0,0],"sum_hessian":[1.209E3,1.173E3,3.6E1,6.3E1,1.11E3,1.5E1,2.1E1,5E1,1.3E1,7.74E2,3.36E2,6E0,9E0,1.7E1,4E0],"tree_param":{"num_deleted":"0","num_feature":"51","num_nodes":"15","size_leaf_vector":"1"}},{"base_weights":[-3.166185E-5,7.446405E-4,-2.0058271E-3,-1.4145302E-3,1.7938816E-3,6.410476E-3,-2.5969949E-3,-2.828753E-5,2.8298712E-7,-2.0610946E-6,3.1834974E-5,1.0139212E-4,-0E0,-4.1821957E-5,-2.3011494E-6],"categories":[],"categories_nodes":[],"categories_segments":[],"categories_sizes":[],"default_left":[0,0,0,0,0,0,0,0,0,0,0,0,0,0,0],"id":29,"left_children":[1,3,5,7,9,11,13,-1,-1,-1,-1,-1,-1,-1,-1],"loss_changes":[2.0110959E-3,1.9594794E-3,1.5517077E-3,7.831442E-4,1.9704234E-3,4.8357213E-4,9.47434E-4,0E0,0E0,0E0,0E0,0E0,0E0,0E0,0E0],"parents":[2147483647,0,0,1,1,2,2,3,3,4,4,5,5,6,6],"right_children":[2,4,6,8,10,12,14,-1,-1,-1,-1,-1,-1,-1,-1],"split_conditions":[3.8009703E-1,-9.7452796E-1,-2.1867316E0,3.026404E-1,-5.0606006E-1,2.4352536E-1,1.0242926E0,-2.828753E-5,2.8298712E-7,-2.0610946E-6,3.1834974E-5,1.0139212E-4,-0E0,-4.1821957E-5,-2.3011494E-6],"split_indices":[11,45,15,30,30,39,33,0,0,0,0,0,0,0,0],"split_type":[0,0,0,0,0,0,0,0,0,0,0,0,0,0,0],"sum_hessian":[1.227E3,8.45E2,3.82E2,2.45E2,6E2,1.3E1,3.69E2,1.58E2,8.7E1,2.17E2,3.83E2,9E0,4E0,1.95E2,1.74E2],"tree_param":{"num_deleted":"0","num_feature":"51","num_nodes":"15","size_leaf_vector":"1"}},{"base_weights":[-0E0,8.651243E-4,-1.624375E-3,-7.4580393E-4,1.8198336E-3,1.9071052E-3,-2.4970123E-3,8.091674E-6,-2.7880042E-5,3.2847947E-5,-1.5493481E-6,4.4751512E-5,-1.92195E-5,-2.6738162E-6,-4.9861566E-5],"categories":[],"categories_nodes":[],"categories_segments":[],"categories_sizes":[],"default_left":[0,0,0,0,0,0,0,0,0,0,0,0,0,0,0],"id":30,"left_children":[1,3,5,7,9,11,13,-1,-1,-1,-1,-1,-1,-1,-1],"loss_changes":[1.6790848E-3,1.3882597E-3,1.3003553E-3,1.063433E-3,1.9381457E-3,8.336299E-4,1.3845775E-3,0E0,0E0,0E0,0E0,0E0,0E0,0E0,0E0],"parents":[2147483647,0,0,1,1,2,2,3,3,4,4,5,5,6,6],"right_children":[2,4,6,8,10,12,14,-1,-1,-1,-1,-1,-1,-1,-1],"split_conditions":[3.7552363E-1,-7.509577E-1,-1.1965595E0,-1.1327918E0,6.755492E-2,1.0037332E0,9.294882E-2,8.091674E-6,-2.7880042E-5,3.2847947E-5,-1.5493481E-6,4.4751512E-5,-1.92195E-5,-2.6738162E-6,-4.9861566E-5],"split_indices":[11,50,21,19,34,15,10,0,0,0,0,0,0,0,0],"split_type":[0,0,0,0,0,0,0,0,0,0,0,0,0,0,0],"sum_hessian":[1.229E3,8.3E2,3.99E2,2.7E2,5.6E2,5.6E1,3.43E2,1.26E2,1.44E2,3.5E2,2.1E2,4.9E1,7E0,2.03E2,1.4E2],"tree_param":{"num_deleted":"0","num_feature":"51","num_nodes":"15","size_leaf_vector":"1"}},{"base_weights":[-0E0,4.574991E-3,-3.2810515E-4,-0E0,7.90194E-3,3.3352312E-4,-1.6693968E-3,9.596761E-5,-0E0,-8.046053E-6,1.7112665E-5,-2.7708545E-6,-8.8036104E-5],"categories":[],"categories_nodes":[],"categories_segments":[],"categories_sizes":[],"default_left":[0,0,0,0,0,0,0,0,0,0,0,0,0],"id":31,"left_children":[1,3,5,-1,7,9,11,-1,-1,-1,-1,-1,-1],"loss_changes":[1.6433643E-3,1.6357889E-3,1.1722796E-3,0E0,1.0371984E-3,1.2444634E-3,3.4240463E-3,0E0,0E0,0E0,0E0,0E0,0E0],"parents":[2147483647,0,0,1,1,2,2,4,4,5,5,6,6],"right_children":[2,4,6,-1,8,10,12,-1,-1,-1,-1,-1,-1],"split_conditions":[-1.5459998E0,-1.8940693E-1,6.755492E-2,-0E0,-8.9578444E-1,-2.214021E-2,9.647865E-1,9.596761E-5,-0E0,-8.046053E-6,1.7112665E-5,-2.7708545E-6,-8.8036104E-5],"split_indices":[2,10,34,0,37,30,9,0,0,0,0,0,0],"split_type":[0,0,0,0,0,0,0,0,0,0,0,0,0],"sum_hessian":[1.239E3,7.1E1,1.168E3,2.2E1,4.9E1,7.33E2,4.35E2,4.4E1,5E0,3.62E2,3.71E2,3.77E2,5.8E1],"tree_param":{"num_deleted":"0","num_feature":"51","num_nodes":"13","size_leaf_vector":"1"}},{"base_weights":[-1.5327572E-4,4.862619E-3,-4.3206307E-4,-0E0,9.062668E-3,-1.4088319E-2,-1.514119E-4,1.12884394E-4,-0E0,-2.5212418E-4,-0E0,2.779961E-5,-8.2451725E-6],"categories":[],"categories_nodes":[],"categories_segments":[],"categories_sizes":[],"default_left":[0,0,0,0,0,0,0,0,0,0,0,0,0],"id":32,"left_children":[1,3,5,-1,7,9,11,-1,-1,-1,-1,-1,-1],"loss_changes":[1.2668039E-3,1.2649106E-3,3.081933E-3,0E0,6.538178E-4,3.399562E-3,2.0996758E-3,0E0,0E0,0E0,0E0,0E0,0E0],"parents":[2147483647,0,0,1,1,2,2,4,4,5,5,6,6],"right_children":[2,4,6,-1,8,10,12,-1,-1,-1,-1,-1,-1],"split_conditions":[-1.9915575E0,-1.055471E0,-2.4976408E0,-0E0,1.049748E0,1.2063446E0,-1.2388953E0,1.12884394E-4,-0E0,-2.5212418E-4,-0E0,2.779961E-5,-8.2451725E-6],"split_indices":[38,43,21,0,2,12,21,0,0,0,0,0,0],"split_type":[0,0,0,0,0,0,0,0,0,0,0,0,0],"sum_hessian":[1.219E3,4.4E1,1.175E3,1.7E1,2.7E1,1.5E1,1.16E3,2.2E1,5E0,9E0,6E0,1.88E2,9.72E2],"tree_param":{"num_deleted":"0","num_feature":"51","num_nodes":"13","size_leaf_vector":"1"}},{"base_weights":[-0E0,8.7582786E-4,-1.2824049E-3,7.060872E-3,4.0601759E-4,-1.7441933E-4,-5.7941508E-3,1.0887071E-4,-0E0,7.595867E-6,-2.0119484E-4,2.0283043E-5,-1.1254046E-5,-8.8340465E-5,-0E0],"categories":[],"categories_nodes":[],"categories_segments":[],"categories_sizes":[],"default_left":[0,0,0,0,0,0,0,0,0,0,0,0,0,0,0],"id":33,"left_children":[1,3,5,7,9,11,13,-1,-1,-1,-1,-1,-1,-1,-1],"loss_changes":[1.3695161E-3,1.4559638E-3,1.7936241E-3,1.1030192E-3,3.3302486E-3,7.583689E-4,1.7629685E-3,0E0,0E0,0E0,0E0,0E0,0E0,0E0,0E0],"parents":[2147483647,0,0,1,1,2,2,3,3,4,4,5,5,6,6],"right_children":[2,4,6,8,10,12,14,-1,-1,-1,-1,-1,-1,-1,-1],"split_conditions":[2.0050009E-1,-1.7269347E0,2.051608E0,1.8333049E0,3.8189113E0,-1.0822808E0,1.33509E0,1.0887071E-4,-0E0,7.595867E-6,-2.0119484E-4,2.0283043E-5,-1.1254046E-5,-8.8340465E-5,-0E0],"split_indices":[11,2,16,31,42,21,30,0,0,0,0,0,0,0,0],"split_type":[0,0,0,0,0,0,0,0,0,0,0,0,0,0,0],"sum_hessian":[1.235E3,7.58E2,4.77E2,3.7E1,7.21E2,4.02E2,7.5E1,2.4E1,1.3E1,7.15E2,6E0,8.9E1,3.13E2,5.4E1,2.1E1],"tree_param":{"num_deleted":"0","num_feature":"51","num_nodes":"15","size_leaf_vector":"1"}},{"base_weights":[9.28429E-5,3.0918617E-3,-4.466731E-5,7.423801E-3,-0E0,-2.1159197E-3,5.522747E-4,-0E0,1.1104243E-4,-2.3500836E-5,5.7624065E-6,-6.1488464E-7,-4.808682E-5,1.6105767E-5,-9.06988E-6],"categories":[],"categories_nodes":[],"categories_segments":[],"categories_sizes":[],"default_left":[0,0,1,0,0,0,0,0,0,0,0,0,0,0,0],"id":34,"left_children":[1,3,5,7,9,11,13,-1,-1,-1,-1,-1,-1,-1,-1],"loss_changes":[8.0908043E-4,1.1942713E-3,1.5657787E-3,1.1326394E-3,8.215227E-5,1.1306774E-3,1.3813787E-3,0E0,0E0,0E0,0E0,0E0,0E0,0E0,0E0],"parents":[2147483647,0,0,1,1,2,2,3,3,4,4,5,5,6,6],"right_children":[2,4,6,8,10,12,14,-1,-1,-1,-1,-1,-1,-1,-1],"split_conditions":[-1.4726424E0,1.4709129E0,-7.1417373E-1,-1.8940693E-1,-1.5331781E0,5.3224556E-2,7.384187E-1,-0E0,1.1104243E-4,-2.3500836E-5,5.7624065E-6,-6.1488464E-7,-4.808682E-5,1.6105767E-5,-9.06988E-6],"split_indices":[37,31,27,10,24,12,49,0,0,0,0,0,0,0,0],"split_type":[0,0,0,0,0,0,0,0,0,0,0,0,0,0,0],"sum_hessian":[1.221E3,8.4E1,1.137E3,3.5E1,4.9E1,2.91E2,8.46E2,1.1E1,2.4E1,1.1E1,3.8E1,1.87E2,1.04E2,5.3E2,3.16E2],"tree_param":{"num_deleted":"0","num_feature":"51","num_nodes":"15","size_leaf_vector":"1"}},{"base_weights":[-1.1022567E-4,1.7098675E-5,-5.136631E-3,-1.7257314E-3,7.650197E-4,2.4387662E-3,-1.52418045E-2,-0E0,-3.4238597E-5,5.8770096E-5,3.0327647E-6,1.0045599E-4,-0E0,-0E0,-1.8823959E-4],"categories":[],"categories_nodes":[],"categories_segments":[],"categories_sizes":[],"default_left":[0,0,0,0,0,0,0,0,0,0,0,0,0,0,0],"id":35,"left_children":[1,3,5,7,9,11,13,-1,-1,-1,-1,-1,-1,-1,-1],"loss_changes":[1.3175046E-3,1.4824916E-3,5.2018715E-3,7.891297E-4,1.4741765E-3,8.1296783E-4,1.5840847E-3,0E0,0E0,0E0,0E0,0E0,0E0,0E0,0E0],"parents":[2147483647,0,0,1,1,2,2,3,3,4,4,5,5,6,6],"right_children":[2,4,6,8,10,12,14,-1,-1,-1,-1,-1,-1,-1,-1],"split_conditions":[2.2800522E0,-9.7452796E-1,-6.8902785E-1,1.7823046E-1,-1.0622355E0,-2.8066814E0,-3.903376E0,-0E0,-3.4238597E-5,5.8770096E-5,3.0327647E-6,1.0045599E-4,-0E0,-0E0,-1.8823959E-4],"split_indices":[8,45,1,13,18,36,36,0,0,0,0,0,0,0,0],"split_type":[0,0,0,0,0,0,0,0,0,0,0,0,0,0,0],"sum_hessian":[1.257E3,1.208E3,4.9E1,3.22E2,8.86E2,2.3E1,2.6E1,1.74E2,1.48E2,5.4E1,8.32E2,8E0,1.5E1,5E0,2.1E1],"tree_param":{"num_deleted":"0","num_feature":"51","num_nodes":"15","size_leaf_vector":"1"}},{"base_weights":[-0E0,1.7294283E-3,-4.7143325E-4,1.023129E-2,-0E0,-1.4272501E-3,4.5505917E-4,-0E0,1.4028874E-4,1.5204408E-5,-1.0539859E-4,4.430076E-6,-2.18427E-5,4.0473748E-5,-3.4744262E-6],"categories":[],"categories_nodes":[],"categories_segments":[],"categories_sizes":[],"default_left":[0,0,0,0,0,0,0,0,0,0,0,0,0,0,0],"id":36,"left_children":[1,3,5,7,9,11,13,-1,-1,-1,-1,-1,-1,-1,-1],"loss_changes":[8.9525763E-4,2.5182657E-3,9.779943E-4,2.4163467E-3,2.470097E-3,9.436613E-4,1.6765877E-3,0E0,0E0,0E0,0E0,0E0,0E0,0E0,0E0],"parents":[2147483647,0,0,1,1,2,2,3,3,4,4,5,5,6,6],"right_children":[2,4,6,8,10,12,14,-1,-1,-1,-1,-1,-1,-1,-1],"split_conditions":[-1.1965595E0,-1.5468968E0,5.5857676E-1,-2.404829E0,3.0851235E0,-9.335637E-1,2.7791893E-1,-0E0,1.4028874E-4,1.5204408E-5,-1.0539859E-4,4.430076E-6,-2.18427E-5,4.0473748E-5,-3.4744262E-6],"split_indices":[21,13,21,3,8,20,49,0,0,0,0,0,0,0,0],"split_type":[0,0,0,0,0,0,0,0,0,0,0,0,0,0,0],"sum_hessian":[1.216E3,2.24E2,9.92E2,2.9E1,1.95E2,5.41E2,4.51E2,2E0,2.7E1,1.78E2,1.7E1,1.18E2,4.23E2,1.04E2,3.47E2],"tree_param":{"num_deleted":"0","num_feature":"51","num_nodes":"15","size_leaf_vector":"1"}},{"base_weights":[-0E0,5.7140975E-3,-1.4115889E-4,-0E0,1.05672125E-2,-0E0,-9.573759E-3,-0E0,1.6669204E-4,2.5800722E-5,-5.55312E-6,-0E0,-1.6767062E-4],"categories":[],"categories_nodes":[],"categories_segments":[],"categories_sizes":[],"default_left":[0,0,0,0,0,0,0,0,0,0,0,0,0],"id":37,"left_children":[1,3,5,-1,7,9,11,-1,-1,-1,-1,-1,-1],"loss_changes":[1.4767073E-3,1.5061826E-3,1.3969396E-3,0E0,1.0698561E-3,1.6491213E-3,1.8123641E-3,0E0,0E0,0E0,0E0,0E0,0E0],"parents":[2147483647,0,0,1,1,2,2,4,4,5,5,6,6],"right_children":[2,4,6,-1,8,10,12,-1,-1,-1,-1,-1,-1],"split_conditions":[-2.0632975E0,-1.055471E0,3.951156E0,-0E0,-2.2776455E-1,-1.1965595E0,-3.8600926E0,-0E0,1.6669204E-4,2.5800722E-5,-5.55312E-6,-0E0,-1.6767062E-4],"split_indices":[38,46,41,0,9,21,23,0,0,0,0,0,0],"split_type":[0,0,0,0,0,0,0,0,0,0,0,0,0],"sum_hessian":[1.233E3,4.3E1,1.19E3,1.8E1,2.5E1,1.176E3,1.4E1,1.2E1,1.3E1,2.01E2,9.75E2,4E0,1E1],"tree_param":{"num_deleted":"0","num_feature":"51","num_nodes":"13","size_leaf_vector":"1"}},{"base_weights":[-0E0,-2.0158398E-3,7.757915E-4,-0E0,-3.940658E-3,1.8044463E-3,-3.553784E-4,3.777215E-6,-3.9688883E-5,-4.6332105E-5,-0E0,2.7330962E-5,-4.331862E-5,5.3174754E-6,-2.5209507E-5],"categories":[],"categories_nodes":[],"categories_segments":[],"categories_sizes":[],"default_left":[0,0,0,0,1,0,0,0,0,0,0,0,0,0,0],"id":38,"left_children":[1,3,5,7,9,11,13,-1,-1,-1,-1,-1,-1,-1,-1],"loss_changes":[1.7958905E-3,1.0449993E-3,1.2099657E-3,3.7432468E-4,6.611673E-4,2.8524348E-3,9.5113437E-4,0E0,0E0,0E0,0E0,0E0,0E0,0E0,0E0],"parents":[2147483647,0,0,1,1,2,2,3,3,4,4,5,5,6,6],"right_children":[2,4,6,8,10,12,14,-1,-1,-1,-1,-1,-1,-1,-1],"split_conditions":[-9.7452796E-1,1.7823046E-1,2.0050009E-1,8.7787735E-1,1.5587188E0,1.335956E0,4.121014E-1,3.777215E-6,-3.9688883E-5,-4.6332105E-5,-0E0,2.7330962E-5,-4.331862E-5,5.3174754E-6,-2.5209507E-5],"split_indices":[45,13,11,9,27,0,28,0,0,0,0,0,0,0,0],"split_type":[0,0,0,0,0,0,0,0,0,0,0,0,0,0,0],"sum_hessian":[1.218E3,3.05E2,9.13E2,1.59E2,1.46E2,5.24E2,3.89E2,1.38E2,2.1E1,1.36E2,1E1,4.7E2,5.4E1,2.44E2,1.45E2],"tree_param":{"num_deleted":"0","num_feature":"51","num_nodes":"15","size_leaf_vector":"1"}},{"base_weights":[-0E0,2.1053373E-4,-7.040862E-3,5.9437887E-3,-2.0685044E-4,-0E0,-1.3866596E-2,1.0399924E-4,-0E0,-2.4700877E-5,3.5495239E-6,-0E0,-1.7826227E-4],"categories":[],"categories_nodes":[],"categories_segments":[],"categories_sizes":[],"default_left":[0,0,0,0,0,0,0,0,0,0,0,0,0],"id":39,"left_children":[1,3,5,7,9,-1,11,-1,-1,-1,-1,-1,-1],"loss_changes":[1.4632706E-3,3.2975415E-3,7.983969E-4,2.2669323E-3,1.5421748E-3,0E0,8.07608E-4,0E0,0E0,0E0,0E0,0E0,0E0],"parents":[2147483647,0,0,1,1,2,2,3,3,4,4,6,6],"right_children":[2,4,6,8,10,-1,12,-1,-1,-1,-1,-1,-1],"split_conditions":[1.9791063E0,-1.0551093E0,1.8251488E0,4.578724E-1,-6.0056096E-1,-0E0,-4.868874E-1,1.0399924E-4,-0E0,-2.4700877E-5,3.5495239E-6,-0E0,-1.7826227E-4],"split_indices":[1,23,41,43,14,0,9,0,0,0,0,0,0],"split_type":[0,0,0,0,0,0,0,0,0,0,0,0,0],"sum_hessian":[1.163E3,1.136E3,2.7E1,9.2E1,1.044E3,1.7E1,1E1,5E1,4.2E1,2.42E2,8.02E2,2E0,8E0],"tree_param":{"num_deleted":"0","num_feature":"51","num_nodes":"13","size_leaf_vector":"1"}},{"base_weights":[1.555412E-4,-3.642335E-4,2.2598181E-3,4.010926E-3,-7.981338E-4,8.103701E-3,5.4887275E-4,1.10733374E-4,-0E0,-1.8352779E-5,6.828746E-6,-0E0,1.2982129E-4,3.4404227E-5,-4.1565418E-6],"categories":[],"categories_nodes":[],"categories_segments":[],"categories_sizes":[],"default_left":[0,0,0,0,0,0,0,0,0,0,0,0,0,0,0],"id":40,"left_children":[1,3,5,7,9,11,13,-1,-1,-1,-1,-1,-1,-1,-1],"loss_changes":[1.5114961E-3,1.4518664E-3,1.9026723E-3,2.3504589E-3,1.4526887E-3,1.5526032E-3,9.4469223E-4,0E0,0E0,0E0,0E0,0E0,0E0,0E0,0E0],"parents":[2147483647,0,0,1,1,2,2,3,3,4,4,5,5,6,6],"right_children":[2,4,6,8,10,12,14,-1,-1,-1,-1,-1,-1,-1,-1],"split_conditions":[6.083811E-1,-1.5459998E0,-7.546883E-1,1.4709129E0,1.6573564E0,-3.0440637E-1,4.7510356E-2,1.10733374E-4,-0E0,-1.8352779E-5,6.828746E-6,-0E0,1.2982129E-4,3.4404227E-5,-4.1565418E-6],"split_indices":[1,2,15,31,20,12,41,0,0,0,0,0,0,0,0],"split_type":[0,0,0,0,0,0,0,0,0,0,0,0,0,0,0],"sum_hessian":[1.206E3,9.3E2,2.76E2,6.2E1,8.68E2,4.8E1,2.28E2,2.6E1,3.6E1,5.5E2,3.18E2,2.1E1,2.7E1,8.2E1,1.46E2],"tree_param":{"num_deleted":"0","num_feature":"51","num_nodes":"15","size_leaf_vector":"1"}},{"base_weights":[-0E0,2.621538E-3,-4.9401383E-4,-7.724196E-3,4.0073683E-3,1.9150133E-4,-3.060265E-3,-0E0,-2.803116E-4,-0E0,8.5080705E-5,-0E0,3.822957E-5,-0E0,-5.4590128E-5],"categories":[],"categories_nodes":[],"categories_segments":[],"categories_sizes":[],"default_left":[0,0,0,0,0,0,0,0,0,0,0,0,0,0,0],"id":41,"left_children":[1,3,5,7,9,11,13,-1,-1,-1,-1,-1,-1,-1,-1],"loss_changes":[1.67338E-3,2.6497645E-3,2.070709E-3,2.5514136E-3,3.7492388E-3,8.559512E-4,1.8674175E-3,0E0,0E0,0E0,0E0,0E0,0E0,0E0,0E0],"parents":[2147483647,0,0,1,1,2,2,3,3,4,4,5,5,6,6],"right_children":[2,4,6,8,10,12,14,-1,-1,-1,-1,-1,-1,-1,-1],"split_conditions":[-1.2388953E0,-2.1189299E0,3.2895744E-1,1.0042628E0,2.2926125E-1,9.507965E-1,-3.0058928E-2,-0E0,-2.803116E-4,-0E0,8.5080705E-5,-0E0,3.822957E-5,-0E0,-5.4590128E-5],"split_indices":[21,3,5,14,42,0,12,0,0,0,0,0,0,0,0],"split_type":[0,0,0,0,0,0,0,0,0,0,0,0,0,0,0],"sum_hessian":[1.218E3,2.06E2,1.012E3,1.5E1,1.91E2,7.69E2,2.43E2,1.2E1,3E0,9.8E1,9.3E1,7.1E2,5.9E1,1.05E2,1.38E2],"tree_param":{"num_deleted":"0","num_feature":"51","num_nodes":"15","size_leaf_vector":"1"}},{"base_weights":[-6.0283553E-5,8.60844E-5,-4.976379E-3,9.126736E-4,-1.5026886E-3,1.8938544E-3,-1.4517629E-2,-0E0,2.5576332E-5,-0E0,-4.4271183E-5,-0E0,8.2875E-5,-0E0,-2.6744197E-4],"categories":[],"categories_nodes":[],"categories_segments":[],"categories_sizes":[],"default_left":[0,0,0,0,0,0,0,0,0,0,0,0,0,0,0],"id":42,"left_children":[1,3,5,7,9,11,13,-1,-1,-1,-1,-1,-1,-1,-1],"loss_changes":[1.3786871E-3,1.4946755E-3,4.941678E-3,1.1260998E-3,1.4429183E-3,4.8516877E-4,3.4384374E-3,0E0,0E0,0E0,0E0,0E0,0E0,0E0,0E0],"parents":[2147483647,0,0,1,1,2,2,3,3,4,4,5,5,6,6],"right_children":[2,4,6,8,10,12,14,-1,-1,-1,-1,-1,-1,-1,-1],"split_conditions":[2.7094104E0,3.8009703E-1,2.2900015E-2,4.5871615E-1,2.666678E-1,5.558263E-1,3.4157315E-1,-0E0,2.5576332E-5,-0E0,-4.4271183E-5,-0E0,8.2875E-5,-0E0,-2.6744197E-4],"split_indices":[41,11,7,41,13,14,14,0,0,0,0,0,0,0,0],"split_type":[0,0,0,0,0,0,0,0,0,0,0,0,0,0,0],"sum_hessian":[1.234E3,1.18E3,5.4E1,8.18E2,3.62E2,2.6E1,2.8E1,5.43E2,2.75E2,2.48E2,1.14E2,1.9E1,7E0,1.6E1,1.2E1],"tree_param":{"num_deleted":"0","num_feature":"51","num_nodes":"15","size_leaf_vector":"1"}},{"base_weights":[-2.7386992E-5,4.9929606E-4,-1.4098991E-3,8.174403E-4,-6.677066E-3,-2.27776E-3,1.0884756E-3,2.1381379E-7,2.8039414E-5,-0E0,-1.5953729E-4,-0E0,-3.1227235E-5,9.3808274E-5,-0E0],"categories":[],"categories_nodes":[],"categories_segments":[],"categories_sizes":[],"default_left":[0,0,0,0,0,0,0,0,0,0,0,0,0,0,0],"id":43,"left_children":[1,3,5,7,9,11,13,-1,-1,-1,-1,-1,-1,-1,-1],"loss_changes":[9.888277E-4,1.3411854E-3,9.736824E-4,1.0133121E-3,2.4329177E-3,6.2845193E-4,1.5421021E-3,0E0,0E0,0E0,0E0,0E0,0E0,0E0,0E0],"parents":[2147483647,0,0,1,1,2,2,3,3,4,4,5,5,6,6],"right_children":[2,4,6,8,10,12,14,-1,-1,-1,-1,-1,-1,-1,-1],"split_conditions":[3.8009703E-1,3.4450293E0,8.758485E-1,6.0633695E-1,-6.845269E-1,-7.43303E-2,1.1315159E0,2.1381379E-7,2.8039414E-5,-0E0,-1.5953729E-4,-0E0,-3.1227235E-5,9.3808274E-5,-0E0],"split_indices":[11,41,0,50,0,31,0,0,0,0,0,0,0,0,0],"split_type":[0,0,0,0,0,0,0,0,0,0,0,0,0,0,0],"sum_hessian":[1.23E3,8.39E2,3.91E2,8.18E2,2.1E1,3.2E2,7.1E1,6.21E2,1.97E2,9E0,1.2E1,8.6E1,2.34E2,1.7E1,5.4E1],"tree_param":{"num_deleted":"0","num_feature":"51","num_nodes":"15","size_leaf_vector":"1"}},{"base_weights":[-0E0,7.232947E-3,-2.8643062E-4,-0E0,1.1143361E-2,-0E0,-7.5433953E-3,1.512048E-4,-0E0,5.0967836E-5,-2.7292099E-6,-1.1035977E-4,-0E0],"categories":[],"categories_nodes":[],"categories_segments":[],"categories_sizes":[],"default_left":[0,0,0,0,0,0,0,0,0,0,0,0,0],"id":44,"left_children":[1,3,5,-1,7,9,11,-1,-1,-1,-1,-1,-1],"loss_changes":[2.7366518E-3,1.1453887E-3,2.4374572E-3,0E0,1.356828E-3,1.5723091E-3,2.1568472E-3,0E0,0E0,0E0,0E0,0E0,0E0],"parents":[2147483647,0,0,1,1,2,2,4,4,5,5,6,6],"right_children":[2,4,6,-1,8,10,12,-1,-1,-1,-1,-1,-1],"split_conditions":[-1.9915575E0,-2.1473248E-1,2.2800522E0,-0E0,1.6482112E0,-1.0684088E0,1.5651507E0,1.512048E-4,-0E0,5.0967836E-5,-2.7292099E-6,-1.1035977E-4,-0E0],"split_indices":[38,9,8,0,23,33,13,0,0,0,0,0,0],"split_type":[0,0,0,0,0,0,0,0,0,0,0,0,0],"sum_hessian":[1.202E3,4.9E1,1.153E3,2E1,2.9E1,1.11E3,4.3E1,2.1E1,8E0,5.6E1,1.054E3,3.7E1,6E0],"tree_param":{"num_deleted":"0","num_feature":"51","num_nodes":"13","size_leaf_vector":"1"}},{"base_weights":[-0E0,2.0026554E-4,-3.6631199E-3,3.8657368E-3,-0E0,-0E0,-6.355827E-3,-0E0,1.09549255E-4,-2.6289601E-5,4.6748846E-6,2.3237448E-5,-0E0,-0E0,-7.8843834E-5],"categories":[],"categories_nodes":[],"categories_segments":[],"categories_sizes":[],"default_left":[0,0,0,0,0,0,0,0,0,0,0,0,0,0,0],"id":45,"left_children":[1,3,5,7,9,11,13,-1,-1,-1,-1,-1,-1,-1,-1],"loss_changes":[1.165981E-3,1.1126131E-3,1.1619643E-3,2.622174E-3,1.4600215E-3,8.3696745E-5,6.081979E-4,0E0,0E0,0E0,0E0,0E0,0E0,0E0,0E0],"parents":[2147483647,0,0,1,1,2,2,3,3,4,4,5,5,6,6],"right_children":[2,4,6,8,10,12,14,-1,-1,-1,-1,-1,-1,-1,-1],"split_conditions":[1.6856555E0,-1.5459998E0,3.0008292E-1,-1.4089923E0,-7.329499E-1,2.5019035E0,-4.3426296E-1,-0E0,1.09549255E-4,-2.6289601E-5,4.6748846E-6,2.3237448E-5,-0E0,-0E0,-7.8843834E-5],"split_indices":[49,2,38,35,2,33,1,0,0,0,0,0,0,0,0],"split_type":[0,0,0,0,0,0,0,0,0,0,0,0,0,0,0],"sum_hessian":[1.216E3,1.134E3,8.2E1,7.6E1,1.058E3,2.7E1,5.5E1,4.6E1,3E1,1.82E2,8.76E2,1.4E1,1.3E1,1E1,4.5E1],"tree_param":{"num_deleted":"0","num_feature":"51","num_nodes":"15","size_leaf_vector":"1"}},{"base_weights":[-1.7722623E-5,2.5453197E-3,-6.765877E-4,-0E0,4.146499E-3,1.4617924E-4,-3.6298956E-3,1.8079048E-5,-1.9189121E-5,5.2860207E-5,-4.392625E-5,-2.1506385E-6,2.9093588E-5,-0E0,-5.2905092E-5],"categories":[],"categories_nodes":[],"categories_segments":[],"categories_sizes":[],"default_left":[0,0,0,0,0,0,0,0,0,0,0,0,0,0,0],"id":46,"left_children":[1,3,5,7,9,11,13,-1,-1,-1,-1,-1,-1,-1,-1],"loss_changes":[1.8902767E-3,1.0559114E-3,2.8021357E-3,2.7827773E-4,1.5302282E-3,1.0334763E-3,1.4403195E-3,0E0,0E0,0E0,0E0,0E0,0E0,0E0,0E0],"parents":[2147483647,0,0,1,1,2,2,3,3,4,4,5,5,6,6],"right_children":[2,4,6,8,10,12,14,-1,-1,-1,-1,-1,-1,-1,-1],"split_conditions":[-1.1965595E0,-1.1699717E0,3.2895744E-1,-1.6105708E0,2.1319528E0,6.127551E-1,7.13119E-2,1.8079048E-5,-1.9189121E-5,5.2860207E-5,-4.392625E-5,-2.1506385E-6,2.9093588E-5,-0E0,-5.2905092E-5],"split_indices":[21,43,5,43,0,0,9,0,0,0,0,0,0,0,0],"split_type":[0,0,0,0,0,0,0,0,0,0,0,0,0,0,0],"sum_hessian":[1.227E3,2.19E2,1.008E3,7.6E1,1.43E2,7.63E2,2.45E2,2.9E1,4.7E1,1.37E2,6E0,6.44E2,1.19E2,7.9E1,1.66E2],"tree_param":{"num_deleted":"0","num_feature":"51","num_nodes":"15","size_leaf_vector":"1"}},{"base_weights":[-0E0,-1.5180017E-3,6.232451E-4,4.939267E-5,-3.1661184E-3,9.550681E-4,-5.2367686E-3,2.0815536E-5,-0E0,-5.1884195E-5,-3.1836516E-6,9.215685E-5,6.2775325E-6,-7.459857E-5,-0E0],"categories":[],"categories_nodes":[],"categories_segments":[],"categories_sizes":[],"default_left":[0,0,0,0,0,0,0,0,0,0,0,0,0,0,0],"id":47,"left_children":[1,3,5,7,9,11,13,-1,-1,-1,-1,-1,-1,-1,-1],"loss_changes":[1.061836E-3,1.1088394E-3,1.3361766E-3,1.7950042E-4,4.9210514E-4,1.3660634E-3,5.2778964E-4,0E0,0E0,0E0,0E0,0E0,0E0,0E0,0E0],"parents":[2147483647,0,0,1,1,2,2,3,3,4,4,5,5,6,6],"right_children":[2,4,6,8,10,12,14,-1,-1,-1,-1,-1,-1,-1,-1],"split_conditions":[-9.7452796E-1,-4.5436364E-1,2.082868E0,-2.6368427E-1,-3.8072813E-2,-2.2652695E0,2.290125E0,2.0815536E-5,-0E0,-5.1884195E-5,-3.1836516E-6,9.215685E-5,6.2775325E-6,-7.459857E-5,-0E0],"split_indices":[45,8,17,15,48,23,22,0,0,0,0,0,0,0,0],"split_type":[0,0,0,0,0,0,0,0,0,0,0,0,0,0,0],"sum_hessian":[1.209E3,3.07E2,9.02E2,1.27E2,1.8E2,8.71E2,3.1E1,4E1,8.7E1,8.4E1,9.6E1,2E1,8.51E2,2.4E1,7E0],"tree_param":{"num_deleted":"0","num_feature":"51","num_nodes":"15","size_leaf_vector":"1"}},{"base_weights":[-6.823002E-5,6.8102786E-3,-3.4687002E-4,1.1556856E-2,-0E0,-0E0,-2.2431281E-3,1.3664819E-4,-0E0,-5.3190147E-6,9.997716E-6,-3.5443867E-5,2.698168E-5],"categories":[],"categories_nodes":[],"categories_segments":[],"categories_sizes":[],"default_left":[0,0,0,0,0,0,0,0,0,0,0,0,0],"id":48,"left_children":[1,3,5,7,-1,9,11,-1,-1,-1,-1,-1,-1],"loss_changes":[1.6906966E-3,1.0507115E-3,7.907284E-4,4.7656242E-4,0E0,5.3566135E-4,1.2917139E-3,0E0,0E0,0E0,0E0,0E0,0E0],"parents":[2147483647,0,0,1,1,2,2,3,3,5,5,6,6],"right_children":[2,4,6,8,-1,10,12,-1,-1,-1,-1,-1,-1],"split_conditions":[-2.088453E0,9.537826E-1,1.1357695E0,1.4138964E0,-0E0,2.5816387E-1,1.7352113E0,1.3664819E-4,-0E0,-5.3190147E-6,9.997716E-6,-3.5443867E-5,2.698168E-5],"split_indices":[13,36,41,6,0,6,13,0,0,0,0,0,0],"split_type":[0,0,0,0,0,0,0,0,0,0,0,0,0],"sum_hessian":[1.216E3,3.2E1,1.184E3,1.8E1,1.4E1,1E3,1.84E2,1.5E1,3E0,6.5E2,3.5E2,1.62E2,2.2E1],"tree_param":{"num_deleted":"0","num_feature":"51","num_nodes":"13","size_leaf_vector":"1"}},{"base_weights":[-6.201142E-5,1.17708216E-4,-3.7792772E-3,4.5657755E-4,-2.86404E-3,-0E0,-5.9580104E-3,1.3171505E-4,2.1014046E-6,-0E0,-7.453744E-5,-7.889228E-5,-0E0],"categories":[],"categories_nodes":[],"categories_segments":[],"categories_sizes":[],"default_left":[0,0,0,0,0,0,0,0,0,0,0,0,0],"id":49,"left_children":[1,3,5,7,9,-1,11,-1,-1,-1,-1,-1,-1],"loss_changes":[1.1895469E-3,9.237068E-4,6.8529695E-4,1.9932194E-3,1.365698E-3,0E0,6.570774E-4,0E0,0E0,0E0,0E0,0E0,0E0],"parents":[2147483647,0,0,1,1,2,2,3,3,4,4,6,6],"right_children":[2,4,6,8,10,-1,12,-1,-1,-1,-1,-1,-1],"split_conditions":[1.6856555E0,1.3023267E0,3.7719128E-1,-2.294262E0,2.677312E-1,-0E0,3.102424E0,1.3171505E-4,2.1014046E-6,-0E0,-7.453744E-5,-7.889228E-5,-0E0],"split_indices":[49,15,27,31,42,0,21,0,0,0,0,0,0],"split_type":[0,0,0,0,0,0,0,0,0,0,0,0,0],"sum_hessian":[1.23E3,1.149E3,8.1E1,1.063E3,8.6E1,3E1,5.1E1,1.1E1,1.052E3,5E1,3.6E1,3.9E1,1.2E1],"tree_param":{"num_deleted":"0","num_feature":"51","num_nodes":"13","size_leaf_vector":"1"}},{"base_weights":[7.215898E-5,-4.9808336E-4,1.3169688E-3,-2.5223105E-3,-0E0,2.8633277E-3,-0E0,-1.2222517E-4,-1.0050767E-5,-6.2955974E-6,2.1930451E-5,4.7873174E-5,-0E0,-2.5495418E-5,7.008279E-6],"categories":[],"categories_nodes":[],"categories_segments":[],"categories_sizes":[],"default_left":[0,0,0,0,0,0,0,0,0,0,0,0,0,0,0],"id":50,"left_children":[1,3,5,7,9,11,13,-1,-1,-1,-1,-1,-1,-1,-1],"loss_changes":[9.4142795E-4,9.6232066E-4,8.147065E-4,1.3300367E-3,9.3609485E-4,9.624433E-4,3.9472617E-4,0E0,0E0,0E0,0E0,0E0,0E0,0E0,0E0],"parents":[2147483647,0,0,1,1,2,2,3,3,4,4,5,5,6,6],"right_children":[2,4,6,8,10,12,14,-1,-1,-1,-1,-1,-1,-1,-1],"split_conditions":[1.6573564E0,-4.3120432E-1,9.7672296E-1,-1.8252547E0,6.083811E-1,1.7157234E0,-7.088223E-1,-1.2222517E-4,-1.0050767E-5,-6.2955974E-6,2.1930451E-5,4.7873174E-5,-0E0,-2.5495418E-5,7.008279E-6],"split_indices":[20,6,38,25,1,32,13,0,0,0,0,0,0,0,0],"split_type":[0,0,0,0,0,0,0,0,0,0,0,0,0,0,0],"sum_hessian":[1.208E3,7.74E2,4.34E2,1.8E2,5.94E2,1.9E2,2.44E2,1.4E1,1.66E2,4.37E2,1.57E2,1.09E2,8.1E1,4.4E1,2E2],"tree_param":{"num_deleted":"0","num_feature":"51","num_nodes":"15","size_leaf_vector":"1"}},{"base_weights":[-0E0,4.9607933E-4,-1.5786227E-3,-5.313219E-4,1.5436894E-3,2.0690917E-3,-3.1907118E-3,-1.2147766E-5,3.8933173E-5,-9.966791E-6,2.423614E-5,6.544333E-5,-4.1537485E-5,-0E0,-4.796691E-5],"categories":[],"categories_nodes":[],"categories_segments":[],"categories_sizes":[],"default_left":[0,0,0,0,0,0,0,0,0,0,0,0,0,0,0],"id":51,"left_children":[1,3,5,7,9,11,13,-1,-1,-1,-1,-1,-1,-1,-1],"loss_changes":[1.0447695E-3,1.0587736E-3,2.071431E-3,9.533926E-4,1.2382768E-3,2.6052017E-3,1.3598274E-3,0E0,0E0,0E0,0E0,0E0,0E0,0E0,0E0],"parents":[2147483647,0,0,1,1,2,2,3,3,4,4,5,5,6,6],"right_children":[2,4,6,8,10,12,14,-1,-1,-1,-1,-1,-1,-1,-1],"split_conditions":[3.1548002E-1,-7.951252E-2,-1.1965595E0,9.0236115E-1,-7.329499E-1,1.1290498E0,7.821419E-3,-1.2147766E-5,3.8933173E-5,-9.966791E-6,2.423614E-5,6.544333E-5,-4.1537485E-5,-0E0,-4.796691E-5],"split_indices":[5,14,21,0,2,10,10,0,0,0,0,0,0,0,0],"split_type":[0,0,0,0,0,0,0,0,0,0,0,0,0,0,0],"sum_hessian":[1.217E3,8.87E2,3.3E2,4E2,4.87E2,8.2E1,2.48E2,3.67E2,3.3E1,9.6E1,3.91E2,5.7E1,2.5E1,8E1,1.68E2],"tree_param":{"num_deleted":"0","num_feature":"51","num_nodes":"15","size_leaf_vector":"1"}},{"base_weights":[-2.0538237E-4,-0E0,-3.6498874E-3,1.2179473E-2,-3.0276567E-5,-2.2501043E-4,-1.4917336E-2,1.4731896E-4,-0E0,-1.5890742E-5,4.0513664E-6,2.001821E-5,-2.6672376E-5,-0E0,-2.8174947E-4],"categories":[],"categories_nodes":[],"categories_segments":[],"categories_sizes":[],"default_left":[0,0,0,0,0,0,0,0,0,0,0,0,0,0,0],"id":52,"left_children":[1,3,5,7,9,11,13,-1,-1,-1,-1,-1,-1,-1,-1],"loss_changes":[1.1670708E-3,1.4102632E-3,2.011681E-3,2.184899E-4,8.8733237E-4,5.014674E-4,3.5208953E-3,0E0,0E0,0E0,0E0,0E0,0E0,0E0,0E0],"parents":[2147483647,0,0,1,1,2,2,3,3,4,4,5,5,6,6],"right_children":[2,4,6,8,10,12,14,-1,-1,-1,-1,-1,-1,-1,-1],"split_conditions":[1.2941314E0,-2.294262E0,1.0746243E0,1.3475773E0,-9.7452796E-1,-8.761731E-1,-1.2739724E-1,1.4731896E-4,-0E0,-1.5890742E-5,4.0513664E-6,2.001821E-5,-2.6672376E-5,-0E0,-2.8174947E-4],"split_indices":[15,31,14,17,45,17,42,0,0,0,0,0,0,0,0],"split_type":[0,0,0,0,0,0,0,0,0,0,0,0,0,0,0],"sum_hessian":[1.228E3,1.138E3,9E1,8E0,1.13E3,7.7E1,1.3E1,6E0,2E0,2.96E2,8.34E2,1.9E1,5.8E1,6E0,7E0],"tree_param":{"num_deleted":"0","num_feature":"51","num_nodes":"15","size_leaf_vector":"1"}},{"base_weights":[-2.4271014E-5,3.786563E-3,-3.6544085E-4,8.4473295E-3,-0E0,-1.35063E-4,-1.4409497E-2,1.21896664E-4,-0E0,1.3699918E-5,-5.148289E-5,-2.1251244E-5,1.5460472E-6,-0E0,-2.3425273E-4],"categories":[],"categories_nodes":[],"categories_segments":[],"categories_sizes":[],"default_left":[0,0,0,0,0,0,0,0,0,0,0,0,0,0,0],"id":53,"left_children":[1,3,5,7,9,11,13,-1,-1,-1,-1,-1,-1,-1,-1],"loss_changes":[1.2493866E-3,2.0071846E-3,2.2552917E-3,1.130711E-3,5.478137E-4,8.532642E-4,2.2765326E-3,0E0,0E0,0E0,0E0,0E0,0E0,0E0,0E0],"parents":[2147483647,0,0,1,1,2,2,3,3,4,4,5,5,6,6],"right_children":[2,4,6,8,10,12,14,-1,-1,-1,-1,-1,-1,-1,-1],"split_conditions":[-1.5459998E0,-5.3259224E-1,3.8189113E0,1.684401E0,1.125187E0,-7.329499E-1,-3.6160824E0,1.21896664E-4,-0E0,1.3699918E-5,-5.148289E-5,-2.1251244E-5,1.5460472E-6,-0E0,-2.3425273E-4],"split_indices":[2,0,42,23,8,2,6,0,0,0,0,0,0,0,0],"split_type":[0,0,0,0,0,0,0,0,0,0,0,0,0,0,0],"sum_hessian":[1.221E3,7.5E1,1.146E3,4.2E1,3.3E1,1.136E3,1E1,2.7E1,1.5E1,1.5E1,1.8E1,1.87E2,9.49E2,3E0,7E0],"tree_param":{"num_deleted":"0","num_feature":"51","num_nodes":"15","size_leaf_vector":"1"}},{"base_weights":[1.09475746E-4,3.82437E-3,-9.0273665E-5,6.5905247E-3,-5.5634207E-3,-5.0713415E-3,8.8640736E-5,1.8056424E-5,1.6853359E-4,-1.6612619E-4,-0E0,-0E0,-7.7928045E-5,-3.0853596E-5,3.8407616E-6],"categories":[],"categories_nodes":[],"categories_segments":[],"categories_sizes":[],"default_left":[0,0,0,0,0,0,0,0,0,0,0,0,0,0,0],"id":54,"left_children":[1,3,5,7,9,11,13,-1,-1,-1,-1,-1,-1,-1,-1],"loss_changes":[1.2744027E-3,2.429916E-3,1.5037551E-3,1.8450969E-3,1.1309895E-3,1.1371268E-3,7.3547E-4,0E0,0E0,0E0,0E0,0E0,0E0,0E0,0E0],"parents":[2147483647,0,0,1,1,2,2,3,3,4,4,5,5,6,6],"right_children":[2,4,6,8,10,12,14,-1,-1,-1,-1,-1,-1,-1,-1],"split_conditions":[-1.0684088E0,1.4711629E0,-1.3699106E0,-5.3021815E-2,-1.2296665E0,-4.343072E-1,-1.4241014E0,1.8056424E-5,1.6853359E-4,-1.6612619E-4,-0E0,-0E0,-7.7928045E-5,-3.0853596E-5,3.8407616E-6],"split_indices":[33,0,6,20,4,8,24,0,0,0,0,0,0,0,0],"split_type":[0,0,0,0,0,0,0,0,0,0,0,0,0,0,0],"sum_hessian":[1.212E3,8.6E1,1.126E3,7.5E1,1.1E1,5.7E1,1.069E3,5.9E1,1.6E1,4E0,7E0,1.5E1,4.2E1,6.1E1,1.008E3],"tree_param":{"num_deleted":"0","num_feature":"51","num_nodes":"15","size_leaf_vector":"1"}},{"base_weights":[-2.3823002E-5,2.808177E-4,-2.8392295E-3,5.432361E-3,-0E0,1.1517365E-3,-4.5493003E-3,1.00308214E-4,-0E0,1.095581E-6,-8.720277E-5,2.6380587E-5,-0E0,3.5165654E-6,-6.229514E-5],"categories":[],"categories_nodes":[],"categories_segments":[],"categories_sizes":[],"default_left":[0,0,0,0,0,0,0,0,0,0,0,0,0,0,0],"id":55,"left_children":[1,3,5,7,9,11,13,-1,-1,-1,-1,-1,-1,-1,-1],"loss_changes":[1.2875487E-3,1.9679053E-3,1.3679286E-3,2.2252565E-3,1.6465184E-3,1.0486159E-4,1.5998173E-3,0E0,0E0,0E0,0E0,0E0,0E0,0E0,0E0],"parents":[2147483647,0,0,1,1,2,2,3,3,4,4,5,5,6,6],"right_children":[2,4,6,8,10,12,14,-1,-1,-1,-1,-1,-1,-1,-1],"split_conditions":[1.0303609E0,-1.0684088E0,-1.5005982E-1,5.6475693E-1,3.2099118E0,1.188006E0,-7.1210545E-1,1.00308214E-4,-0E0,1.095581E-6,-8.720277E-5,2.6380587E-5,-0E0,3.5165654E-6,-6.229514E-5],"split_indices":[11,18,41,3,41,32,3,0,0,0,0,0,0,0,0],"split_type":[0,0,0,0,0,0,0,0,0,0,0,0,0,0,0],"sum_hessian":[1.2E3,1.052E3,1.48E2,6.8E1,9.84E2,2.7E1,1.21E2,4.1E1,2.7E1,9.64E2,2E1,1.9E1,8E0,1.6E1,1.05E2],"tree_param":{"num_deleted":"0","num_feature":"51","num_nodes":"15","size_leaf_vector":"1"}},{"base_weights":[1.2049761E-4,3.6246385E-4,-1.1376069E-2,4.47533E-3,2.4555519E-7,1.4377179E-3,-2.583046E-2,7.835837E-5,-0E0,-3.4060937E-5,3.0872095E-6,5.871095E-5,-0E0,-2.7941895E-4,-0E0],"categories":[],"categories_nodes":[],"categories_segments":[],"categories_sizes":[],"default_left":[0,0,0,0,0,0,0,0,0,0,0,0,0,0,0],"id":56,"left_children":[1,3,5,7,9,11,13,-1,-1,-1,-1,-1,-1,-1,-1],"loss_changes":[2.2749524E-3,1.3349332E-3,5.551035E-3,1.6085884E-3,8.723822E-4,1.7614795E-4,5.2492414E-4,0E0,0E0,0E0,0E0,0E0,0E0,0E0,0E0],"parents":[2147483647,0,0,1,1,2,2,3,3,4,4,5,5,6,6],"right_children":[2,4,6,8,10,12,14,-1,-1,-1,-1,-1,-1,-1,-1],"split_conditions":[3.8189113E0,-1.0880008E0,-3.8600926E0,9.585218E-1,-1.0220659E0,4.6070054E-1,2.6580083E0,7.835837E-5,-0E0,-3.4060937E-5,3.0872095E-6,5.871095E-5,-0E0,-2.7941895E-4,-0E0],"split_indices":[42,23,23,37,45,7,6,0,0,0,0,0,0,0,0],"split_type":[0,0,0,0,0,0,0,0,0,0,0,0,0,0,0],"sum_hessian":[1.21E3,1.195E3,1.5E1,7.3E1,1.122E3,5E0,1E1,4.9E1,2.4E1,6.5E1,1.057E3,4E0,1E0,9E0,1E0],"tree_param":{"num_deleted":"0","num_feature":"51","num_nodes":"15","size_leaf_vector":"1"}},{"base_weights":[-1.8705871E-4,1.7879255E-3,-6.936977E-4,-2.1768885E-3,4.924966E-3,-3.4813248E-3,-7.180524E-5,9.061999E-7,-7.192571E-5,-0E0,8.367882E-5,-5.3631546E-5,-0E0,6.1316305E-6,-2.3788109E-5],"categories":[],"categories_nodes":[],"categories_segments":[],"categories_sizes":[],"default_left":[0,0,0,0,0,0,0,0,0,0,0,0,0,0,0],"id":57,"left_children":[1,3,5,7,9,11,13,-1,-1,-1,-1,-1,-1,-1,-1],"loss_changes":[1.1146755E-3,2.8966048E-3,1.40132E-3,1.6153345E-3,1.6068988E-3,1.06365E-3,1.5369569E-3,0E0,0E0,0E0,0E0,0E0,0E0,0E0,0E0],"parents":[2147483647,0,0,1,1,2,2,3,3,4,4,5,5,6,6],"right_children":[2,4,6,8,10,12,14,-1,-1,-1,-1,-1,-1,-1,-1],"split_conditions":[-1.2388953E0,-1.1699717E0,-8.4878635E-1,-1.4843532E0,-2.6252747E-1,9.570438E-1,3.4672797E-1,9.061999E-7,-7.192571E-5,-0E0,8.367882E-5,-5.3631546E-5,-0E0,6.1316305E-6,-2.3788109E-5],"split_indices":[21,46,21,46,10,38,9,0,0,0,0,0,0,0,0],"split_type":[0,0,0,0,0,0,0,0,0,0,0,0,0,0,0],"sum_hessian":[1.22E3,2.08E2,1.012E3,7.8E1,1.3E2,1.54E2,8.58E2,4.1E1,3.7E1,6.3E1,6.7E1,1.01E2,5.3E1,6.29E2,2.29E2],"tree_param":{"num_deleted":"0","num_feature":"51","num_nodes":"15","size_leaf_vector":"1"}},{"base_weights":[-0E0,4.3890765E-3,-1.2569105E-4,1.849717E-2,-0E0,1.4018874E-4,-1.014095E-2,2.2221857E-4,-0E0,-0E0,1.6567237E-5,3.821389E-5,-0E0,-0E0,-1.5140873E-4],"categories":[],"categories_nodes":[],"categories_segments":[],"categories_sizes":[],"default_left":[0,0,0,0,0,0,0,0,0,0,0,0,0,0,0],"id":58,"left_children":[1,3,5,7,9,11,13,-1,-1,-1,-1,-1,-1,-1,-1],"loss_changes":[1.0680634E-3,2.2004936E-3,4.0658233E-3,9.470121E-4,6.99907E-5,9.492366E-4,1.5543927E-3,0E0,0E0,0E0,0E0,0E0,0E0,0E0,0E0],"parents":[2147483647,0,0,1,1,2,2,3,3,4,4,5,5,6,6],"right_children":[2,4,6,8,10,12,14,-1,-1,-1,-1,-1,-1,-1,-1],"split_conditions":[-1.9915575E0,-1.2796775E0,2.2800522E0,-3.4176794E-1,-1.1282563E0,-1.061977E0,-6.845269E-1,2.2221857E-4,-0E0,-0E0,1.6567237E-5,3.821389E-5,-0E0,-0E0,-1.5140873E-4],"split_indices":[38,18,8,2,3,23,0,0,0,0,0,0,0,0,0],"split_type":[0,0,0,0,0,0,0,0,0,0,0,0,0,0,0],"sum_hessian":[1.202E3,5.3E1,1.149E3,8E0,4.5E1,1.111E3,3.8E1,7E0,1E0,2.1E1,2.4E1,6.5E1,1.046E3,1.5E1,2.3E1],"tree_param":{"num_deleted":"0","num_feature":"51","num_nodes":"15","size_leaf_vector":"1"}},{"base_weights":[-2.8235794E-5,-1.9849273E-3,5.4214883E-4,-0E0,-3.9012935E-3,1.4075281E-3,-8.365016E-4,4.6580362E-6,-2.6080526E-5,-0E0,-5.279394E-5,1.7687144E-5,-7.19352E-5,-2.1327505E-5,4.577704E-6],"categories":[],"categories_nodes":[],"categories_segments":[],"categories_sizes":[],"default_left":[0,0,0,0,0,0,0,0,0,0,0,0,0,0,0],"id":59,"left_children":[1,3,5,7,9,11,13,-1,-1,-1,-1,-1,-1,-1,-1],"loss_changes":[1.5136318E-3,9.5231354E-4,1.1451457E-3,3.507562E-4,6.5757683E-4,1.3545325E-3,6.8485487E-4,0E0,0E0,0E0,0E0,0E0,0E0,0E0,0E0],"parents":[2147483647,0,0,1,1,2,2,3,3,4,4,5,5,6,6],"right_children":[2,4,6,8,10,12,14,-1,-1,-1,-1,-1,-1,-1,-1],"split_conditions":[-9.7452796E-1,1.7823046E-1,3.8009703E-1,3.6370742E-1,-7.6429355E-1,4.2995534E0,2.3835006E-1,4.6580362E-6,-2.6080526E-5,-0E0,-5.279394E-5,1.7687144E-5,-7.19352E-5,-2.1327505E-5,4.577704E-6],"split_indices":[45,13,11,5,11,41,14,0,0,0,0,0,0,0,0],"split_type":[0,0,0,0,0,0,0,0,0,0,0,0,0,0,0],"sum_hessian":[1.224E3,3.15E2,9.09E2,1.72E2,1.43E2,6.03E2,3.06E2,1.26E2,4.6E1,4.2E1,1.01E2,5.91E2,1.2E1,1.91E2,1.15E2],"tree_param":{"num_deleted":"0","num_feature":"51","num_nodes":"15","size_leaf_vector":"1"}},{"base_weights":[1.4849092E-4,9.962148E-4,-7.057594E-4,-8.278804E-4,2.2478094E-3,8.455666E-4,-2.4627545E-3,1.1575628E-5,-3.2556407E-5,-0E0,4.357051E-5,-0E0,4.8343318E-5,-0E0,-4.9044276E-5],"categories":[],"categories_nodes":[],"categories_segments":[],"categories_sizes":[],"default_left":[0,0,0,0,0,0,0,0,0,0,0,0,0,0,0],"id":60,"left_children":[1,3,5,7,9,11,13,-1,-1,-1,-1,-1,-1,-1,-1],"loss_changes":[9.2625857E-4,1.6983845E-3,1.6871304E-3,1.398815E-3,1.7716452E-3,1.269415E-3,1.485178E-3,0E0,0E0,0E0,0E0,0E0,0E0,0E0,0E0],"parents":[2147483647,0,0,1,1,2,2,3,3,4,4,5,5,6,6],"right_children":[2,4,6,8,10,12,14,-1,-1,-1,-1,-1,-1,-1,-1],"split_conditions":[1.2811674E-1,-5.59481E-1,-2.7297923E-1,-3.5118714E-1,-3.4687772E-1,-9.4906904E-2,1.3723342E-1,1.1575628E-5,-3.2556407E-5,-0E0,4.357051E-5,-0E0,4.8343318E-5,-0E0,-4.9044276E-5],"split_indices":[11,30,10,12,9,5,29,0,0,0,0,0,0,0,0],"split_type":[0,0,0,0,0,0,0,0,0,0,0,0,0,0,0],"sum_hessian":[1.236E3,6.79E2,5.57E2,2.44E2,4.35E2,2.66E2,2.91E2,1.12E2,1.32E2,2.27E2,2.08E2,2.05E2,6.1E1,1.57E2,1.34E2],"tree_param":{"num_deleted":"0","num_feature":"51","num_nodes":"15","size_leaf_vector":"1"}},{"base_weights":[2.1693912E-4,-1.2754883E-3,9.0368214E-4,5.073266E-4,-3.3643732E-3,1.3937607E-3,-1.9336456E-3,-0E0,3.085977E-5,-0E0,-6.7142355E-5,6.575275E-5,7.706873E-6,-4.3168337E-5,-0E0],"categories":[],"categories_nodes":[],"categories_segments":[],"categories_sizes":[],"default_left":[0,0,0,0,0,0,0,0,0,0,0,0,0,0,0],"id":61,"left_children":[1,3,5,7,9,11,13,-1,-1,-1,-1,-1,-1,-1,-1],"loss_changes":[1.2451786E-3,1.5861118E-3,1.2049924E-3,3.7217984E-4,1.6983466E-3,1.8421875E-3,8.522461E-4,0E0,0E0,0E0,0E0,0E0,0E0,0E0,0E0],"parents":[2147483647,0,0,1,1,2,2,3,3,4,4,5,5,6,6],"right_children":[2,4,6,8,10,12,14,-1,-1,-1,-1,-1,-1,-1,-1],"split_conditions":[-9.668182E-1,-3.2091856E-1,1.2066672E0,6.333123E-1,-2.0886862E-1,-1.0551093E0,1.8266388E0,-0E0,3.085977E-5,-0E0,-6.7142355E-5,6.575275E-5,7.706873E-6,-4.3168337E-5,-0E0],"split_indices":[45,8,11,30,11,23,11,0,0,0,0,0,0,0,0],"split_type":[0,0,0,0,0,0,0,0,0,0,0,0,0,0,0],"sum_hessian":[1.248E3,3.47E2,9.01E2,1.62E2,1.85E2,7.99E2,1.02E2,1.2E2,4.2E1,1.02E2,8.3E1,6.7E1,7.32E2,6.5E1,3.7E1],"tree_param":{"num_deleted":"0","num_feature":"51","num_nodes":"15","size_leaf_vector":"1"}},{"base_weights":[-0E0,5.884076E-3,-2.5904327E-4,8.6601E-3,-0E0,1.6946258E-3,-7.8481465E-4,-0E0,1.21479956E-4,-9.959756E-6,3.3964385E-5,-0E0,-2.3675535E-5],"categories":[],"categories_nodes":[],"categories_segments":[],"categories_sizes":[],"default_left":[0,0,0,0,0,0,0,0,0,0,0,0,0],"id":62,"left_children":[1,3,5,7,-1,9,11,-1,-1,-1,-1,-1,-1],"loss_changes":[1.4480734E-3,5.448492E-4,1.1431201E-3,5.225355E-4,0E0,1.2272944E-3,1.2505413E-3,0E0,0E0,0E0,0E0,0E0,0E0],"parents":[2147483647,0,0,1,1,2,2,3,3,5,5,6,6],"right_children":[2,4,6,8,-1,10,12,-1,-1,-1,-1,-1,-1],"split_conditions":[-2.3922906E0,6.9937825E-1,-1.1965595E0,-1.0059663E0,-0E0,-5.5879974E-1,3.22014E-2,-0E0,1.21479956E-4,-9.959756E-6,3.3964385E-5,-0E0,-2.3675535E-5],"split_indices":[39,7,21,45,0,5,5,0,0,0,0,0,0],"split_type":[0,0,0,0,0,0,0,0,0,0,0,0,0],"sum_hessian":[1.236E3,3.8E1,1.198E3,2.4E1,1.4E1,2.13E2,9.85E2,9E0,1.5E1,6E1,1.53E2,6.55E2,3.3E2],"tree_param":{"num_deleted":"0","num_feature":"51","num_nodes":"13","size_leaf_vector":"1"}},{"base_weights":[4.3987664E-5,4.837866E-3,-1.16794756E-4,-0E0,8.403406E-3,-3.6251082E-3,-0E0,-3.4259242E-6,-0E0,1.0175744E-4,-0E0,-0E0,-5.010767E-5,-3.3284443E-6,1.7384558E-5],"categories":[],"categories_nodes":[],"categories_segments":[],"categories_sizes":[],"default_left":[0,0,0,0,0,0,0,0,0,0,0,0,0,0,0],"id":63,"left_children":[1,3,5,7,9,11,13,-1,-1,-1,-1,-1,-1,-1,-1],"loss_changes":[1.4059735E-3,1.114317E-3,7.2676834E-4,1.4671198E-6,9.618718E-4,3.4969905E-4,7.34612E-4,0E0,0E0,0E0,0E0,0E0,0E0,0E0,0E0],"parents":[2147483647,0,0,1,1,2,2,3,3,4,4,5,5,6,6],"right_children":[2,4,6,8,10,12,14,-1,-1,-1,-1,-1,-1,-1,-1],"split_conditions":[-1.593264E0,-1.7606708E-1,-1.4241014E0,1.5346305E0,-6.8325615E-1,-7.352271E-1,2.3194044E0,-3.4259242E-6,-0E0,1.0175744E-4,-0E0,-0E0,-5.010767E-5,-3.3284443E-6,1.7384558E-5],"split_indices":[48,9,24,34,35,10,20,0,0,0,0,0,0,0,0],"split_type":[0,0,0,0,0,0,0,0,0,0,0,0,0,0,0],"sum_hessian":[1.209E3,5.8E1,1.151E3,2.4E1,3.4E1,5.5E1,1.096E3,1.1E1,1.3E1,3.2E1,2E0,1.3E1,4.2E1,8.87E2,2.09E2],"tree_param":{"num_deleted":"0","num_feature":"51","num_nodes":"15","size_leaf_vector":"1"}},{"base_weights":[-0E0,1.8997178E-4,-6.502013E-3,4.559591E-3,-7.3128294E-6,-0E0,-1.7681258E-2,5.9902304E-5,-0E0,-8.139013E-6,9.188943E-6,7.325561E-5,-6.626056E-5,-0E0,-2.0428842E-4],"categories":[],"categories_nodes":[],"categories_segments":[],"categories_sizes":[],"default_left":[0,0,0,1,0,0,0,0,0,0,0,0,0,0,0],"id":64,"left_children":[1,3,5,7,9,11,13,-1,-1,-1,-1,-1,-1,-1,-1],"loss_changes":[1.8398461E-3,1.4850069E-3,2.4237253E-3,6.787407E-4,8.292064E-4,1.5269382E-3,9.962572E-4,0E0,0E0,0E0,0E0,0E0,0E0,0E0,0E0],"parents":[2147483647,0,0,1,1,2,2,3,3,4,4,5,5,6,6],"right_children":[2,4,6,8,10,12,14,-1,-1,-1,-1,-1,-1,-1,-1],"split_conditions":[2.3634152E0,-1.061977E0,1.2941314E0,1.1356559E0,3.4759203E-1,-1.4216492E0,-2.3564222E0,5.9902304E-5,-0E0,-8.139013E-6,9.188943E-6,7.325561E-5,-6.626056E-5,-0E0,-2.0428842E-4],"split_indices":[8,23,15,27,35,38,2,0,0,0,0,0,0,0,0],"split_type":[0,0,0,0,0,0,0,0,0,0,0,0,0,0,0],"sum_hessian":[1.234E3,1.193E3,4.1E1,7.2E1,1.121E3,2.9E1,1.2E1,6E1,1.2E1,6.57E2,4.64E2,1.1E1,1.8E1,1E0,1.1E1],"tree_param":{"num_deleted":"0","num_feature":"51","num_nodes":"15","size_leaf_vector":"1"}},{"base_weights":[8.6868374E-7,7.7612663E-4,-1.6483841E-3,1.2916534E-3,-2.55244E-3,-3.5830375E-3,-0E0,1.1067515E-6,3.2858174E-5,-0E0,-4.6464647E-5,-0E0,-4.372498E-5,6.8659206E-6,-1.4617924E-5],"categories":[],"categories_nodes":[],"categories_segments":[],"categories_sizes":[],"default_left":[0,0,0,0,0,0,0,0,0,0,0,0,0,0,0],"id":65,"left_children":[1,3,5,7,9,11,13,-1,-1,-1,-1,-1,-1,-1,-1],"loss_changes":[1.4752201E-3,1.3760461E-3,7.6424313E-4,1.5026429E-3,9.475409E-4,5.7079527E-4,2.9559547E-4,0E0,0E0,0E0,0E0,0E0,0E0,0E0,0E0],"parents":[2147483647,0,0,1,1,2,2,3,3,4,4,5,5,6,6],"right_children":[2,4,6,8,10,12,14,-1,-1,-1,-1,-1,-1,-1,-1],"split_conditions":[1.2502439E0,1.2945583E0,1.7472974E0,-8.964684E-2,-1.1747086E0,-1.5146714E0,9.997621E-2,1.1067515E-6,3.2858174E-5,-0E0,-4.6464647E-5,-0E0,-4.372498E-5,6.8659206E-6,-1.4617924E-5],"split_indices":[39,10,39,9,44,2,15,0,0,0,0,0,0,0,0],"split_type":[0,0,0,0,0,0,0,0,0,0,0,0,0,0,0],"sum_hessian":[1.219E3,8.71E2,3.48E2,7.81E2,9E1,1.32E2,2.16E2,5.23E2,2.58E2,2E1,7E1,1.4E1,1.18E2,1.02E2,1.14E2],"tree_param":{"num_deleted":"0","num_feature":"51","num_nodes":"15","size_leaf_vector":"1"}},{"base_weights":[-0E0,2.3600701E-3,-4.3366465E-4,3.192677E-3,-3.0783247E-3,-3.1583393E-3,-0E0,-0E0,6.9633075E-5,-1.07489075E-4,-0E0,-5.0373626E-5,-0E0,3.029571E-6,-2.0802361E-5],"categories":[],"categories_nodes":[],"categories_segments":[],"categories_sizes":[],"default_left":[0,0,0,0,0,0,0,0,0,0,0,0,0,0,0],"id":66,"left_children":[1,3,5,7,9,11,13,-1,-1,-1,-1,-1,-1,-1,-1],"loss_changes":[1.3579527E-3,9.7027456E-4,1.3146068E-3,2.181028E-3,8.6363073E-4,8.613358E-4,5.2071386E-4,0E0,0E0,0E0,0E0,0E0,0E0,0E0,0E0],"parents":[2147483647,0,0,1,1,2,2,3,3,4,4,5,5,6,6],"right_children":[2,4,6,8,10,12,14,-1,-1,-1,-1,-1,-1,-1,-1],"split_conditions":[-1.2388953E0,1.6427062E0,-8.4878635E-1,3.984447E-1,-1.9682066E0,4.0404594E-1,2.3440518E0,-0E0,6.9633075E-5,-1.07489075E-4,-0E0,-5.0373626E-5,-0E0,3.029571E-6,-2.0802361E-5],"split_indices":[21,0,21,41,16,50,18,0,0,0,0,0,0,0,0],"split_type":[0,0,0,0,0,0,0,0,0,0,0,0,0,0,0],"sum_hessian":[1.251E3,2.07E2,1.044E3,1.96E2,1.1E1,1.5E2,8.94E2,1.11E2,8.5E1,7E0,4E0,9.2E1,5.8E1,7.92E2,1.02E2],"tree_param":{"num_deleted":"0","num_feature":"51","num_nodes":"15","size_leaf_vector":"1"}},{"base_weights":[-2.1792935E-4,-1.7020341E-3,1.4119333E-4,-3.6008945E-3,-0E0,3.4476605E-3,-2.3921511E-5,-4.3568332E-5,-0E0,2.1573202E-5,-1.8441267E-5,1.409922E-4,-0E0,1.5362702E-6,-1.7381116E-4],"categories":[],"categories_nodes":[],"categories_segments":[],"categories_sizes":[],"default_left":[0,0,0,0,0,0,0,0,0,0,0,0,0,0,0],"id":67,"left_children":[1,3,5,7,9,11,13,-1,-1,-1,-1,-1,-1,-1,-1],"loss_changes":[8.1333716E-4,7.611789E-4,8.554146E-4,4.8318855E-4,6.7167863E-4,2.2075665E-3,4.400168E-3,0E0,0E0,0E0,0E0,0E0,0E0,0E0,0E0],"parents":[2147483647,0,0,1,1,2,2,3,3,4,4,5,5,6,6],"right_children":[2,4,6,8,10,12,14,-1,-1,-1,-1,-1,-1,-1,-1],"split_conditions":[-9.8229617E-1,-2.8270023E-2,-1.3619326E0,1.0779955E0,4.3678E-1,-1.091628E0,3.8189113E0,-4.3568332E-5,-0E0,2.1573202E-5,-1.8441267E-5,1.409922E-4,-0E0,1.5362702E-6,-1.7381116E-4],"split_indices":[45,14,14,12,14,18,42,0,0,0,0,0,0,0,0],"split_type":[0,0,0,0,0,0,0,0,0,0,0,0,0,0,0],"sum_hessian":[1.231E3,2.93E2,9.38E2,1.23E2,1.7E2,7.2E1,8.66E2,1.09E2,1.4E1,6.5E1,1.05E2,1.4E1,5.8E1,8.53E2,1.3E1],"tree_param":{"num_deleted":"0","num_feature":"51","num_nodes":"15","size_leaf_vector":"1"}},{"base_weights":[3.543968E-4,3.2437025E-3,-1.5780736E-4,-0E0,6.1009224E-3,-3.5169835E-3,2.810106E-4,-1.8739986E-5,1.18445205E-5,9.159159E-5,-0E0,-6.277341E-5,-0E0,1.05380295E-5,-2.08056E-5],"categories":[],"categories_nodes":[],"categories_segments":[],"categories_sizes":[],"default_left":[0,0,0,0,0,0,0,0,0,0,0,0,0,0,0],"id":68,"left_children":[1,3,5,7,9,11,13,-1,-1,-1,-1,-1,-1,-1,-1],"loss_changes":[2.1081932E-3,1.8026645E-3,1.8057798E-3,2.1865383E-4,2.2952044E-3,1.3700916E-3,1.4765039E-3,0E0,0E0,0E0,0E0,0E0,0E0,0E0,0E0],"parents":[2147483647,0,0,1,1,2,2,3,3,4,4,5,5,6,6],"right_children":[2,4,6,8,10,12,14,-1,-1,-1,-1,-1,-1,-1,-1],"split_conditions":[-1.1965595E0,3.22014E-2,-8.228313E-1,-6.0056096E-1,1.2025411E0,3.772275E-1,4.5652246E-1,-1.8739986E-5,1.18445205E-5,9.159159E-5,-0E0,-6.277341E-5,-0E0,1.05380295E-5,-2.08056E-5],"split_indices":[21,5,21,14,9,50,5,0,0,0,0,0,0,0,0],"split_type":[0,0,0,0,0,0,0,0,0,0,0,0,0,0,0],"sum_hessian":[1.214E3,2.11E2,1.003E3,1.04E2,1.07E2,1.41E2,8.62E2,3.1E1,7.3E1,7.4E1,3.3E1,7.8E1,6.3E1,6.82E2,1.8E2],"tree_param":{"num_deleted":"0","num_feature":"51","num_nodes":"15","size_leaf_vector":"1"}},{"base_weights":[6.160619E-5,5.0976234E-3,-8.651035E-5,2.0121083E-2,-0E0,6.229042E-5,-7.0923883E-3,-0E0,2.1701492E-4,-0E0,1.3530629E-5,-1.3486222E-6,2.4363E-5,-0E0,-2.2145589E-4],"categories":[],"categories_nodes":[],"categories_segments":[],"categories_sizes":[],"default_left":[0,0,0,0,0,0,0,0,0,0,0,0,0,0,0],"id":69,"left_children":[1,3,5,7,9,11,13,-1,-1,-1,-1,-1,-1,-1,-1],"loss_changes":[1.42037E-3,2.4299268E-3,1.9322351E-3,1.5696487E-4,6.4992666E-5,7.649069E-4,3.7032866E-3,0E0,0E0,0E0,0E0,0E0,0E0,0E0,0E0],"parents":[2147483647,0,0,1,1,2,2,3,3,4,4,5,5,6,6],"right_children":[2,4,6,8,10,12,14,-1,-1,-1,-1,-1,-1,-1,-1],"split_conditions":[-1.9915575E0,-2.1241007E0,2.2800522E0,-2.636128E0,-1.1189435E0,9.3653756E-1,1.1683377E0,-0E0,2.1701492E-4,-0E0,1.3530629E-5,-1.3486222E-6,2.4363E-5,-0E0,-2.2145589E-4],"split_indices":[38,16,8,3,17,40,14,0,0,0,0,0,0,0,0],"split_type":[0,0,0,0,0,0,0,0,0,0,0,0,0,0,0],"sum_hessian":[1.23E3,5.3E1,1.177E3,8E0,4.5E1,1.14E3,3.7E1,1E0,7E0,1.1E1,3.4E1,1.015E3,1.25E2,2.7E1,1E1],"tree_param":{"num_deleted":"0","num_feature":"51","num_nodes":"15","size_leaf_vector":"1"}},{"base_weights":[1.4501972E-4,1.8578978E-3,-6.768283E-4,2.6007607E-3,-2.3378746E-3,-3.62696E-3,-0E0,-0E0,3.725767E-5,-0E0,-6.67258E-5,-0E0,-7.879293E-5,2.7649823E-5,-7.756045E-6],"categories":[],"categories_nodes":[],"categories_segments":[],"categories_sizes":[],"default_left":[0,0,0,0,0,0,0,0,0,0,0,0,0,0,0],"id":70,"left_children":[1,3,5,7,9,11,13,-1,-1,-1,-1,-1,-1,-1,-1],"loss_changes":[1.8507917E-3,1.4021624E-3,1.4457488E-3,1.1626924E-3,1.0592849E-3,1.388498E-3,1.336144E-3,0E0,0E0,0E0,0E0,0E0,0E0,0E0,0E0],"parents":[2147483647,0,0,1,1,2,2,3,3,4,4,5,5,6,6],"right_children":[2,4,6,8,10,12,14,-1,-1,-1,-1,-1,-1,-1,-1],"split_conditions":[1.4895308E-1,1.3458314E0,-6.040117E-1,-4.9502882E-1,-1.0932561E0,3.3809174E-2,6.88392E-1,-0E0,3.725767E-5,-0E0,-6.67258E-5,-0E0,-7.879293E-5,2.7649823E-5,-7.756045E-6],"split_indices":[38,10,6,42,44,42,22,0,0,0,0,0,0,0,0],"split_type":[0,0,0,0,0,0,0,0,0,0,0,0,0,0,0],"sum_hessian":[1.228E3,4.37E2,7.91E2,3.92E2,4.5E1,1.36E2,6.55E2,1.18E2,2.74E2,1.7E1,2.8E1,8.6E1,5E1,1.32E2,5.23E2],"tree_param":{"num_deleted":"0","num_feature":"51","num_nodes":"15","size_leaf_vector":"1"}},{"base_weights":[-0E0,5.84115E-3,-1.5930105E-4,9.706183E-3,-0E0,-2.242692E-3,1.9227203E-4,1.6054974E-4,-0E0,-4.360998E-5,-0E0,1.391424E-5,-6.9188004E-6],"categories":[],"categories_nodes":[],"categories_segments":[],"categories_sizes":[],"default_left":[0,0,0,0,0,0,0,0,0,0,0,0,0],"id":71,"left_children":[1,3,5,7,-1,9,11,-1,-1,-1,-1,-1,-1],"loss_changes":[1.5142874E-3,1.0123869E-3,1.0747574E-3,9.832254E-4,0E0,1.1087916E-3,1.1056556E-3,0E0,0E0,0E0,0E0,0E0,0E0],"parents":[2147483647,0,0,1,1,2,2,3,3,5,5,6,6],"right_children":[2,4,6,8,-1,10,12,-1,-1,-1,-1,-1,-1],"split_conditions":[-2.0632975E0,-7.010257E-2,-5.904392E-1,1.4709129E0,-0E0,-9.4402665E-1,-3.3634016E-1,1.6054974E-4,-0E0,-4.360998E-5,-0E0,1.391424E-5,-6.9188004E-6],"split_indices":[38,12,6,31,0,45,34,0,0,0,0,0,0],"split_type":[0,0,0,0,0,0,0,0,0,0,0,0,0],"sum_hessian":[1.227E3,4.2E1,1.185E3,2.5E1,1.7E1,2.11E2,9.74E2,1.2E1,1.3E1,1.13E2,9.8E1,4.61E2,5.13E2],"tree_param":{"num_deleted":"0","num_feature":"51","num_nodes":"13","size_leaf_vector":"1"}},{"base_weights":[9.22872E-5,4.0141743E-4,-8.149216E-3,1.0392127E-2,9.651379E-5,-1.0751713E-2,-0E0,-0E0,1.8314229E-4,-1.1012452E-4,4.1213766E-6,-0E0,-1.19062155E-4],"categories":[],"categories_nodes":[],"categories_segments":[],"categories_sizes":[],"default_left":[0,0,0,0,0,0,0,0,0,0,0,0,0],"id":72,"left_children":[1,3,5,7,9,11,-1,-1,-1,-1,-1,-1,-1],"loss_changes":[2.3395922E-3,2.5730906E-3,7.8946725E-4,2.1095541E-3,3.0333172E-3,5.2528735E-4,0E0,0E0,0E0,0E0,0E0,0E0,0E0],"parents":[2147483647,0,0,1,1,2,2,3,3,4,4,5,5],"right_children":[2,4,6,8,10,12,-1,-1,-1,-1,-1,-1,-1],"split_conditions":[2.082868E0,-2.2652695E0,1.9588815E0,-4.5675E-1,-2.3942935E0,-2.0697238E0,-0E0,-0E0,1.8314229E-4,-1.1012452E-4,4.1213766E-6,-0E0,-1.19062155E-4],"split_indices":[17,23,11,9,6,14,0,0,0,0,0,0,0],"split_type":[0,0,0,0,0,0,0,0,0,0,0,0,0],"sum_hessian":[1.219E3,1.188E3,3.1E1,2.4E1,1.164E3,2.4E1,7E0,1.1E1,1.3E1,2.2E1,1.142E3,1E0,2.3E1],"tree_param":{"num_deleted":"0","num_feature":"51","num_nodes":"13","size_leaf_vector":"1"}},{"base_weights":[-0E0,5.256101E-3,-1.7896912E-4,1.0328074E-2,-0E0,3.3369407E-4,-1.643566E-3,-0E0,1.1879487E-4,-1.077251E-5,1.5309177E-5,1.1324479E-6,-2.5269226E-5],"categories":[],"categories_nodes":[],"categories_segments":[],"categories_sizes":[],"default_left":[0,0,0,0,0,0,0,0,0,0,0,0,0],"id":73,"left_children":[1,3,5,7,-1,9,11,-1,-1,-1,-1,-1,-1],"loss_changes":[1.3495303E-3,1.5144678E-3,1.0054179E-3,4.896412E-4,0E0,1.4203291E-3,7.888385E-4,0E0,0E0,0E0,0E0,0E0,0E0],"parents":[2147483647,0,0,1,1,2,2,3,3,5,5,6,6],"right_children":[2,4,6,8,-1,10,12,-1,-1,-1,-1,-1,-1],"split_conditions":[-1.8149813E0,6.596078E-1,3.8009703E-1,-7.299666E-1,-0E0,-9.4402665E-1,-4.5686853E-1,-0E0,1.1879487E-4,-1.077251E-5,1.5309177E-5,1.1324479E-6,-2.5269226E-5],"split_indices":[13,16,11,8,0,45,44,0,0,0,0,0,0],"split_type":[0,0,0,0,0,0,0,0,0,0,0,0,0],"sum_hessian":[1.208E3,4.6E1,1.162E3,2.5E1,2.1E1,8.11E2,3.51E2,3E0,2.2E1,3.34E2,4.77E2,8E1,2.71E2],"tree_param":{"num_deleted":"0","num_feature":"51","num_nodes":"13","size_leaf_vector":"1"}},{"base_weights":[-0E0,9.614298E-5,-4.5099077E-3,3.663529E-3,-9.078705E-5,-0E0,-5.955469E-3,-0E0,8.9130364E-5,-1.3683677E-5,4.8287047E-6,-1.11136156E-4,-0E0],"categories":[],"categories_nodes":[],"categories_segments":[],"categories_sizes":[],"default_left":[0,0,0,0,0,0,0,0,0,0,0,0,0],"id":74,"left_children":[1,3,5,7,9,-1,11,-1,-1,-1,-1,-1,-1],"loss_changes":[8.346615E-4,1.1456582E-3,4.708274E-4,2.0698765E-3,8.938918E-4,0E0,7.4338773E-4,0E0,0E0,0E0,0E0,0E0,0E0],"parents":[2147483647,0,0,1,1,2,2,3,3,4,4,6,6],"right_children":[2,4,6,8,10,-1,12,-1,-1,-1,-1,-1,-1],"split_conditions":[2.082868E0,-1.573147E0,2.5065964E-1,-1.6305912E-1,-3.2531655E-1,-0E0,1.120383E0,-0E0,8.9130364E-5,-1.3683677E-5,4.8287047E-6,-1.11136156E-4,-0E0],"split_indices":[17,28,1,9,3,0,7,0,0,0,0,0,0],"split_type":[0,0,0,0,0,0,0,0,0,0,0,0,0],"sum_hessian":[1.219E3,1.18E3,3.9E1,8.4E1,1.096E3,4E0,3.5E1,4.5E1,3.9E1,3.93E2,7.03E2,1.5E1,2E1],"tree_param":{"num_deleted":"0","num_feature":"51","num_nodes":"13","size_leaf_vector":"1"}},{"base_weights":[-4.0092705E-6,2.7221323E-3,-5.412615E-4,-0E0,4.728693E-3,-1.5651966E-3,-0E0,2.3689192E-6,-3.6015248E-5,2.3419284E-6,9.550974E-5,-2.6488826E-6,-3.875835E-5,4.2268607E-6,-5.2125677E-5],"categories":[],"categories_nodes":[],"categories_segments":[],"categories_sizes":[],"default_left":[0,0,0,0,0,0,0,0,0,0,0,0,0,0,0],"id":75,"left_children":[1,3,5,7,9,11,13,-1,-1,-1,-1,-1,-1,-1,-1],"loss_changes":[1.5980619E-3,1.2299248E-3,7.3731027E-4,2.5543137E-4,1.4564246E-3,8.71834E-4,9.6477754E-4,0E0,0E0,0E0,0E0,0E0,0E0,0E0,0E0],"parents":[2147483647,0,0,1,1,2,2,3,3,4,4,5,5,6,6],"right_children":[2,4,6,8,10,12,14,-1,-1,-1,-1,-1,-1,-1,-1],"split_conditions":[-7.650071E-1,-9.8229617E-1,-1.5165047E-1,4.7909746E-1,5.476248E-1,3.0224845E-1,1.6023854E0,2.3689192E-6,-3.6015248E-5,2.3419284E-6,9.550974E-5,-2.6488826E-6,-3.875835E-5,4.2268607E-6,-5.2125677E-5],"split_indices":[38,45,48,5,5,12,5,0,0,0,0,0,0,0,0],"split_type":[0,0,0,0,0,0,0,0,0,0,0,0,0,0,0],"sum_hessian":[1.237E3,1.72E2,1.065E3,6.1E1,1.11E2,4.27E2,6.38E2,4.3E1,1.8E1,6.9E1,4.2E1,3.02E2,1.25E2,6.08E2,3E1],"tree_param":{"num_deleted":"0","num_feature":"51","num_nodes":"15","size_leaf_vector":"1"}},{"base_weights":[-0E0,3.2160038E-4,-3.171499E-3,7.948203E-3,6.697355E-5,-7.943038E-3,-0E0,2.3167235E-4,-0E0,-1.1836601E-5,7.339442E-6,-0E0,-1.2606382E-4,2.3539498E-5,-1.9458168E-5],"categories":[],"categories_nodes":[],"categories_segments":[],"categories_sizes":[],"default_left":[0,0,0,0,0,0,0,0,0,0,0,0,0,0,0],"id":76,"left_children":[1,3,5,7,9,11,13,-1,-1,-1,-1,-1,-1,-1,-1],"loss_changes":[1.0965843E-3,1.373625E-3,1.0066989E-3,3.6142608E-3,8.726299E-4,1.5883266E-3,2.919584E-4,0E0,0E0,0E0,0E0,0E0,0E0,0E0,0E0],"parents":[2147483647,0,0,1,1,2,2,3,3,4,4,5,5,6,6],"right_children":[2,4,6,8,10,12,14,-1,-1,-1,-1,-1,-1,-1,-1],"split_conditions":[1.335956E0,-2.0636551E0,1.5651507E0,-8.892577E-2,-9.668182E-1,-3.1388313E-1,-6.8943274E-1,2.3167235E-4,-0E0,-1.1836601E-5,7.339442E-6,-0E0,-1.2606382E-4,2.3539498E-5,-1.9458168E-5],"split_indices":[11,36,11,6,45,0,14,0,0,0,0,0,0,0,0],"split_type":[0,0,0,0,0,0,0,0,0,0,0,0,0,0,0],"sum_hessian":[1.215E3,1.119E3,9.6E1,2.2E1,1.097E3,3E1,6.6E1,8E0,1.4E1,3.29E2,7.68E2,9E0,2.1E1,1.6E1,5E1],"tree_param":{"num_deleted":"0","num_feature":"51","num_nodes":"15","size_leaf_vector":"1"}},{"base_weights":[-0E0,2.367195E-4,-5.185391E-3,-1.1377824E-3,9.92899E-4,1.3262436E-3,-1.1727722E-2,-0E0,-2.8067348E-5,6.66599E-5,6.038378E-6,-0E0,8.1093465E-5,-1.7276053E-4,-0E0],"categories":[],"categories_nodes":[],"categories_segments":[],"categories_sizes":[],"default_left":[0,0,0,0,0,0,0,0,0,0,0,0,0,0,0],"id":77,"left_children":[1,3,5,7,9,11,13,-1,-1,-1,-1,-1,-1,-1,-1],"loss_changes":[1.5049538E-3,1.2193795E-3,3.3426462E-3,9.84394E-4,1.0603126E-3,7.85961E-4,1.6718209E-3,0E0,0E0,0E0,0E0,0E0,0E0,0E0,0E0],"parents":[2147483647,0,0,1,1,2,2,3,3,4,4,5,5,6,6],"right_children":[2,4,6,8,10,12,14,-1,-1,-1,-1,-1,-1,-1,-1],"split_conditions":[2.7094104E0,-9.591657E-1,-6.845269E-1,-2.2095911E-1,-1.5795987E0,3.798347E0,1.9640182E0,-0E0,-2.8067348E-5,6.66599E-5,6.038378E-6,-0E0,8.1093465E-5,-1.7276053E-4,-0E0],"split_indices":[41,45,0,8,49,41,31,0,0,0,0,0,0,0,0],"split_type":[0,0,0,0,0,0,0,0,0,0,0,0,0,0,0],"sum_hessian":[1.236E3,1.184E3,5.2E1,3.73E2,8.11E2,1.9E1,3.3E1,1.88E2,1.85E2,3.4E1,7.77E2,8E0,1.1E1,2E1,1.3E1],"tree_param":{"num_deleted":"0","num_feature":"51","num_nodes":"15","size_leaf_vector":"1"}},{"base_weights":[2.2948283E-4,5.105023E-3,-0E0,-0E0,1.3626354E-2,-4.057365E-3,2.8002507E-4,9.352777E-6,-6.877298E-6,1.947981E-4,-0E0,-3.3504343E-6,-8.9302266E-5,-1.8556755E-5,1.0004552E-5],"categories":[],"categories_nodes":[],"categories_segments":[],"categories_sizes":[],"default_left":[0,0,0,0,0,0,0,0,0,0,0,0,0,0,0],"id":78,"left_children":[1,3,5,7,9,11,13,-1,-1,-1,-1,-1,-1,-1,-1],"loss_changes":[1.7214485E-3,2.578225E-3,1.5725179E-3,3.81709E-5,7.5932965E-4,7.1050634E-4,1.5397408E-3,0E0,0E0,0E0,0E0,0E0,0E0,0E0,0E0],"parents":[2147483647,0,0,1,1,2,2,3,3,4,4,5,5,6,6],"right_children":[2,4,6,8,10,12,14,-1,-1,-1,-1,-1,-1,-1,-1],"split_conditions":[-1.5459998E0,-1.3352014E0,-1.0598339E0,2.925037E0,-8.681571E-1,-1.8400148E-1,-9.8229617E-1,9.352777E-6,-6.877298E-6,1.947981E-4,-0E0,-3.3504343E-6,-8.9302266E-5,-1.8556755E-5,1.0004552E-5],"split_indices":[2,35,2,41,37,7,45,0,0,0,0,0,0,0,0],"split_type":[0,0,0,0,0,0,0,0,0,0,0,0,0,0,0],"sum_hessian":[1.209E3,6.7E1,1.142E3,4.5E1,2.2E1,8.9E1,1.053E3,3.7E1,8E0,1.2E1,1E1,6.3E1,2.6E1,2.3E2,8.23E2],"tree_param":{"num_deleted":"0","num_feature":"51","num_nodes":"15","size_leaf_vector":"1"}},{"base_weights":[-0E0,3.6075345E-4,-2.384463E-3,7.8564696E-4,-1.3294612E-3,-5.400504E-3,1.8309937E-4,7.198848E-5,5.078291E-6,-0E0,-5.9752132E-5,-2.2626686E-5,-2.0693836E-4,-5.347873E-6,4.6649522E-5],"categories":[],"categories_nodes":[],"categories_segments":[],"categories_sizes":[],"default_left":[0,0,0,0,0,0,0,0,0,0,0,0,0,0,0],"id":79,"left_children":[1,3,5,7,9,11,13,-1,-1,-1,-1,-1,-1,-1,-1],"loss_changes":[1.1561208E-3,6.951503E-4,1.9132488E-3,7.9263723E-4,1.5515E-3,2.4569044E-3,6.7576434E-4,0E0,0E0,0E0,0E0,0E0,0E0,0E0,0E0],"parents":[2147483647,0,0,1,1,2,2,3,3,4,4,5,5,6,6],"right_children":[2,4,6,8,10,12,14,-1,-1,-1,-1,-1,-1,-1,-1],"split_conditions":[9.837293E-1,9.647865E-1,1.4711629E0,-1.9035658E0,6.695755E-1,2.1467638E0,5.349114E-1,7.198848E-5,5.078291E-6,-0E0,-5.9752132E-5,-2.2626686E-5,-2.0693836E-4,-5.347873E-6,4.6649522E-5],"split_indices":[13,9,13,21,26,42,42,0,0,0,0,0,0,0,0],"split_type":[0,0,0,0,0,0,0,0,0,0,0,0,0,0,0],"sum_hessian":[1.218E3,1.04E3,1.78E2,8.79E2,1.61E2,9.9E1,7.9E1,2E1,8.59E2,1.11E2,5E1,8.9E1,1E1,5E1,2.9E1],"tree_param":{"num_deleted":"0","num_feature":"51","num_nodes":"15","size_leaf_vector":"1"}}]},"name":"gbtree"},"learner_model_param":{"base_score":"[7.224258E-4]","boost_from_average":"1","num_class":"0","num_feature":"51","num_target":"1"},"objective":{"name":"reg:squarederror","reg_loss_param":{"scale_pos_weight":"1"}}},"version":[3,2,0]}